2490 10
AAAACCCCAG 1.0040596 -1.9837669 0.46591672 -1.6059558 2.4772995 0.89813906 0.8046972 2.3206499 -0.45737416 2.19043
CTGGGGTTTT 1.2808475 0.4974934 0.83151644 0.8692903 0.16504116 -1.626066 0.9052001 2.4206634 1.3087426 3.8221588
GTGGCGATGG 2.6138217 0.47038797 0.22518177 0.7154913 1.6973671 -3.7398272 1.5416981 0.63659227 -0.42228785 -0.3055083
TGGCGATGGC 2.7588549 0.3972514 0.23661552 0.71008646 1.835097 -3.6755826 1.4198725 0.8605285 -0.5860051 -0.4839498
GCCATCGCCA 0.7247483 1.5705863 -2.398422 -0.121020146 1.9917789 -1.4141414 -0.18104865 0.4300784 1.0624833 3.5454726
CCATCGCCAC 0.8084534 1.7312598 -2.2687366 -0.18139847 2.0451314 -1.10775 -0.13579129 0.16280884 0.88244843 3.4940152
CATATTCCCT -1.1100093 0.3674966 1.0379875 -0.10841686 3.1394284 -0.28391635 2.9618638 0.63555664 -0.3089041 2.232381
AGGGAATATG 1.6492081 -0.854314 3.356742 0.7813961 0.919633 -1.1211873 -0.010437034 2.1514256 -0.26751792 1.5417112
GGCTTATCTC -0.53667307 1.2379266 1.9024704 -0.7285193 3.0646203 -1.6315062 -1.5276833 -1.5291907 0.46777594 1.7316724
GAGATAAGCC 2.1123002 0.13079062 1.6016444 -0.47397986 0.2874918 -2.5391364 -0.6906402 -1.0810424 -0.2624499 3.2273886
TGGACCTACT -0.5859429 2.4861524 0.023088513 0.066931546 3.8188987 0.062695764 -0.18682416 -0.43606716 0.42026728 2.2893202
AGTAGGTCCA 3.5645213 1.303443 2.2059834 1.118487 0.9859223 -1.2953117 -1.0250626 0.04793774 0.18972525 1.6139334
ACTGGGTGGT -1.225611 2.1318095 0.23290579 -0.099238984 3.7417803 -0.16020815 1.0264667 0.8043906 0.3982904 2.2811754
ACCACCCAGT 2.794974 1.0346256 3.1761317 0.3024233 1.2824486 -0.93963134 -0.97325903 1.478624 0.21694928 1.1808721
TACTGGGTGG -1.2684556 2.025979 0.17643608 0.11138469 3.7759948 -0.1274396 0.8395951 0.6839944 0.3652158 2.333421
CCACCCAGTA 2.8579242 1.0411817 3.189994 0.32848954 1.2928884 -0.8609057 -0.94522405 1.1000131 0.16626099 1.0984714
GTGGACCTAC -0.4986185 2.6519873 0.19645216 -0.16880523 3.6386075 -0.06956096 -0.3681548 -0.3342992 0.45064047 2.3410761
GTAGGTCCAC 3.360348 1.3715107 1.9742595 1.1632694 0.8088621 -1.5252886 -1.1328733 0.091707766 0.3243444 1.8053977
GGTGGTGCAT -0.9932301 1.4852393 0.9599341 -0.34629992 3.9473987 -0.10597698 1.8114568 0.059011452 0.6990678 1.645396
ATGCACCACC 2.905243 0.08701739 2.870418 0.98034835 0.9871401 -0.95045155 -0.6240162 1.9535042 -0.30749634 1.2508634
GTGGTGCATA -0.9928637 1.19704 0.9822841 -0.3518854 3.8756437 0.02588287 2.0274596 -0.0015209165 0.70303357 1.7487642
TATGCACCAC 2.8883986 -0.09116032 2.8816895 1.3402534 1.0940169 -0.9736567 -0.2535484 1.9506716 -0.3493025 1.1401982
ATATTCCCTA -1.1419379 0.13875298 1.1322149 -0.3028697 3.2202334 -0.30928263 2.8793743 0.7361745 -0.4708584 2.0687516
TAGGGAATAT 1.4679005 -0.9359744 3.4208572 0.720733 0.94137365 -1.3034977 -0.15898892 2.3126614 -0.17718358 1.6211312
TGGTGCATAT -0.85785717 1.0506761 1.0681401 -0.23562069 3.6870775 0.16972364 2.3000782 -0.066830784 0.48537108 2.009283
ATATGCACCA 2.7523293 -0.20476398 2.9207141 1.2825866 1.0930068 -0.5871303 -0.02093331 2.0627098 -0.35963944 1.3806266
GGACCTACTG -0.7783214 2.4135683 -0.05580928 0.3878293 3.9584048 0.06814667 -0.06295361 -0.28676882 0.55424726 2.4832556
CAGTAGGTCC 3.573989 1.2361424 2.5529206 1.2216675 1.2496046 -1.1447593 -0.9044435 0.03711539 0.12569955 1.4114349
TGCATATTCC -1.1930853 0.50374216 1.1262217 0.053224135 3.268355 -0.17116186 2.7694623 0.18685965 0.06010898 2.2263908
GGAATATGCA 2.105578 -0.70283383 3.2827265 1.0509825 1.0340465 -0.5917453 0.4942315 1.9533492 -0.51439136 1.4636874
CTGGGTGGTG -1.2856563 2.050082 0.40869874 -0.1850448 3.8208148 -0.4043067 1.1808927 0.8001773 0.6489767 2.079405
CACCACCCAG 2.5464506 1.0088125 3.2434342 0.39199144 1.0144304 -1.2105922 -0.973203 1.6808528 0.12036844 1.201642
GGGAATATGC 1.8417331 -0.7365772 3.3404655 0.9109337 1.0011401 -0.897118 0.27862403 2.0246785 -0.39937228 1.4596841
GCATATTCCC -1.2064025 0.39491302 1.190515 0.0035476878 3.2283196 -0.3396811 2.783745 0.39480326 -0.17371403 2.2000635
AGATAAGCCA 2.0591512 -0.14600761 1.8368407 -0.5558237 0.24012247 -2.6187446 -0.7415857 -0.8885112 -0.44291255 3.03886
TGGCTTATCT -0.7760264 1.0923791 2.2360346 -0.66360176 2.9689028 -1.5988901 -1.4005187 -1.2728808 0.45026124 1.5874681
TGGGTGGTGC -1.2309324 1.9127822 0.7372478 -0.35452613 3.8634274 -0.39308062 1.3115702 0.6959389 0.9006793 1.9130728
GCACCACCCA 2.828709 0.7024059 3.0001812 0.55497825 1.1274087 -1.0757552 -0.9553051 1.8102491 -0.07436472 1.2686316
ATTCCCTATC -1.0824357 -0.0024167222 1.282775 -0.8755133 3.5016634 -0.1575869 2.6035118 0.91020954 -0.70200443 1.882167
GATAGGGAAT 1.2300057 -1.1385046 2.9795582 0.65816325 1.0056926 -1.135216 -0.6640958 2.6808484 -0.018448025 1.9439301
GACCTACTGG -0.93043756 2.2293215 -0.09847687 0.42658874 3.834011 0.122307174 0.117830634 -0.21163401 0.3753701 2.5650022
CCAGTAGGTC 3.5229256 1.2690105 2.7547963 0.94747996 1.3041011 -0.8017575 -0.80603385 0.1800835 0.14991729 1.5136145
CTACTGGGTG -1.3079761 2.0246034 -0.09033605 0.27135274 3.9368002 -0.12649712 0.6483434 0.3328246 0.29573366 2.4260309
CACCCAGTAG 3.0200531 1.0915457 3.2308557 0.4038534 1.376654 -0.7756805 -0.8455357 0.85104555 0.2534404 1.1362602
GTGCATATTC -1.1903349 0.52543163 1.081116 0.00901527 3.312078 -0.033043496 2.49694 0.1100653 0.3671436 2.3601043
GAATATGCAC 2.345724 -0.4957026 3.1884587 1.1442188 1.0841967 -0.47344434 0.4649364 1.9751666 -0.53942627 1.4543159
TAGGTCCACG 3.2683039 1.476073 1.9741002 0.91232854 0.78401124 -1.791212 -1.1123164 -0.0033704238 0.59197235 1.8836722
CGTGGACCTA -0.4141574 2.7731373 0.28982145 -0.42183018 3.573066 -0.2205745 -0.5871676 -0.26186877 0.5666205 2.2266104
GGGTGGTGCA -1.1350553 1.6973531 0.8240238 -0.30542016 3.8491192 -0.121362306 1.5949813 0.41056553 0.7710631 1.8142862
TGCACCACCC 2.9739904 0.44608754 2.8712745 0.76141524 1.1207982 -0.87715244 -0.97300506 2.00325 -0.2219039 1.3944502
TATTCCCTAT -1.1071557 0.18117382 1.2230842 -0.65407914 3.2411447 -0.27455184 2.7873151 1.0060778 -0.5846614 2.0382216
ATAGGGAATA 1.2123878 -0.9572168 3.2811244 0.7016953 1.074319 -1.2578447 -0.30154172 2.6576724 -0.09075088 1.7081132
GGACTGGCTT -1.1644447 -0.008752987 2.55662 -0.27405277 3.0192046 -1.7449765 -1.6186924 -0.8659221 0.62942207 1.6234913
AAGCCAGTCC 1.6249719 -1.0304466 1.4529877 -0.80711067 0.6334813 -2.989262 -0.79830873 -1.2839249 -0.6312517 2.7792485
ACTGGCTTAT -1.0285202 0.3963049 2.4803758 -0.7184622 2.9901965 -1.4627156 -1.5233699 -1.0363668 0.45883167 1.7129515
ATAAGCCAGT 2.0963035 -0.67911714 1.6923292 -1.0306823 0.4652234 -2.4256954 -0.8164594 -0.9498903 -0.557258 2.9609544
ACCTACTGGG -1.0940322 2.0529168 -0.23293757 0.40413702 3.949183 0.15732798 0.24355334 -0.0053927973 0.37946773 2.6824756
CCCAGTAGGT 3.4831095 1.2211282 2.9607806 0.7559053 1.379777 -0.5592868 -0.8402358 0.41092893 0.08245454 1.3835797
TTCCCTATCT -0.85581875 0.05271617 1.4309627 -1.2127559 3.5323777 0.05562981 2.5220811 0.70775086 -0.8949905 1.8108963
AGATAGGGAA 1.3406867 -1.3278672 2.7892742 0.64464504 0.90530616 -1.1620579 -0.6084187 2.5584435 0.048035055 2.0953293
GGTGGCGATG -0.0628994 -0.6961171 1.8066788 2.805265 2.2787876 -5.0983276 0.58645046 0.082233876 -0.11214143 1.5235865
CATCGCCACC 2.7500048 1.5067114 -0.44409335 -1.0525872 2.6264586 0.040950418 -0.87641186 -0.3782071 2.0903254 2.8243184
GCGTGGACCT -0.56856537 2.687868 0.4191472 -0.592355 3.5098279 -0.42641702 -0.81577593 -0.17357896 0.4066887 2.0513408
AGGTCCACGC 3.0567894 1.3846874 2.0935044 0.8134284 0.6965191 -1.9087313 -1.1638191 -0.11786772 0.7919079 1.9886563
AATATGCACC 2.688905 -0.3728616 3.0843723 1.2686318 1.1454523 -0.3477589 0.32009712 2.081409 -0.44907755 1.4788717
GGTGCATATT -1.0091851 0.7267692 1.1131625 -0.04043145 3.6164298 0.13423096 2.4568958 -0.038473584 0.45890284 2.2006402
GACTGGCTTA -1.1456773 0.15142697 2.555044 -0.5163669 2.9939816 -1.47126 -1.5085987 -0.9679714 0.584369 1.7947989
TAAGCCAGTC 1.8766068 -0.85927904 1.5924013 -1.1318588 0.5593484 -2.5067234 -0.95410395 -1.0981896 -0.54552186 2.8876395
CTGGCTTATC -0.85158336 0.76522267 2.5106218 -0.733881 3.0052469 -1.4259783 -1.4616679 -1.1465769 0.6084726 1.7260991
GATAAGCCAG 1.9071835 -0.29806757 1.7466053 -0.7048317 0.20563969 -2.6068182 -0.9688403 -0.779974 -0.5293558 3.104335
GCTTATCTCG -0.4867436 1.2793767 1.5141909 -0.57019156 3.0673149 -1.750384 -1.7323332 -1.652594 0.27677134 1.7251319
CGAGATAAGC 2.2141776 0.3587873 1.6547828 -0.43588954 0.2545192 -2.3906898 -0.52083313 -1.2512106 -0.1998538 3.2013893
CCTACTGGGT -1.1723739 1.9767797 -0.11022249 0.2847847 3.8367102 0.11374239 0.37951428 0.26590496 0.38069683 2.573345
ACCCAGTAGG 3.1578264 1.09585 3.0297785 0.49089113 1.3035823 -0.720665 -0.86834234 0.5573099 0.16875766 1.2134964
CGCGTGGACC -0.7431552 2.6861272 0.56674325 -0.55884784 3.3707592 -0.52694607 -0.9149522 -0.15899286 0.16967328 2.0735068
GGTCCACGCG 2.8714244 1.2811202 2.2171137 0.59293616 0.635464 -1.8873718 -1.2841871 -0.1668499 0.9213207 2.127269
CTTATCTCGC -0.55302167 1.2947364 1.4306866 -0.38060352 3.1641252 -1.4327806 -1.7015972 -1.7058572 0.22500312 1.9174552
GCGAGATAAG 2.21218 0.511089 1.6079127 -0.18920468 0.43781504 -2.2736592 -0.49686423 -1.5301237 -0.107658744 3.2381058
GCCGCGTGGA -1.098196 2.4492614 1.1145277 -0.25159845 3.170958 -0.8416349 -1.2522233 0.032851804 -0.12451663 2.3721073
TCCACGCGGC 2.7586713 0.8190118 2.4889648 0.4316347 0.7219674 -1.8149942 -1.6188679 -0.5957799 0.9068712 2.3790207
CCGGACTGGC -1.3220283 -0.40492508 2.0513496 0.0060137343 3.2473807 -1.9242624 -1.5852573 -0.94976836 0.8763239 1.3558595
GCCAGTCCGG 1.2374833 -0.6140019 0.9252788 -0.7798335 1.0238522 -2.8989446 -1.0119165 -1.7534739 -0.9015106 2.9981863
CGGACTGGCT -1.1829602 -0.20408587 2.1837451 -0.18084149 3.0715227 -1.9544535 -1.6928469 -0.8922713 0.589861 1.5702617
AGCCAGTCCG 1.4436469 -0.8298351 1.2038988 -0.9009695 0.8363177 -3.0365572 -0.9490344 -1.5102729 -0.72717613 2.8692179
CCGCGTGGAC -0.8509128 2.5615735 1.0230058 -0.3677107 3.2849824 -0.51280767 -1.1270552 0.030504113 0.16121402 2.2852604
GTCCACGCGG 2.8460162 1.0003153 2.2723153 0.5631982 0.6713499 -1.9299357 -1.6036395 -0.43607873 0.8475988 2.2521095
GGGACCCGGA -0.95886207 -0.8333277 1.4951211 -0.9875587 3.432564 -2.3674474 -1.3971771 -0.5180244 1.0503945 0.6862351
TCCGGGTCCC 1.8359106 -0.21187074 0.41797975 -0.46939838 1.0424136 -3.7201889 -0.6424796 -1.1978002 -1.7880377 2.0885093
GACCCGGACT -0.9663627 -0.670009 1.442206 -0.37355417 3.3740232 -2.32122 -1.7283747 -0.8498236 0.8400609 0.8028311
AGTCCGGGTC 1.5842391 -0.29632396 0.4361426 -0.8666257 1.050647 -3.4432306 -0.27697167 -1.6138659 -1.3649358 2.4076204
ACCCGGACTG -1.2927185 -0.7533889 1.7035394 -0.13379398 3.4972444 -1.8509071 -1.4017344 -0.97927994 0.72860396 0.95089793
CAGTCCGGGT 1.3069612 -0.3991215 0.5008244 -0.96332467 1.0695497 -3.211666 -0.40852872 -1.7874125 -1.2209806 2.6933565
TCCCTATCTG -0.68301797 -0.16044487 1.5489182 -1.4299158 3.4144077 0.12700361 2.4210286 0.5875369 -0.70158684 1.852766
CAGATAGGGA 1.4454916 -1.5485052 2.4833574 0.79169047 0.78263986 -1.1108775 -0.56073636 2.5775428 0.19821891 2.104602
TGGGACCCGG -0.9467225 -0.72617936 1.349288 -1.2424616 3.4535713 -2.2043328 -1.3778057 -0.2441062 1.2085941 0.75745654
CCGGGTCCCA 1.8441188 -0.07216041 0.17758358 -0.28812763 1.1902801 -3.480612 -1.0662363 -1.1220562 -1.7549574 1.9566777
GGACCCGGAC -0.9442898 -0.68104404 1.4824529 -0.7760272 3.4929054 -2.3587084 -1.4872513 -0.7748344 0.9582565 0.73529994
GTCCGGGTCC 1.6578594 -0.1523389 0.3206326 -0.632458 1.0381393 -3.5192876 -0.4790618 -1.3956492 -1.5205977 2.2372122
TATCTCGCCG -0.81405497 1.4573141 1.1256335 0.041224632 3.0974107 -1.2494297 -1.7216004 -1.4710125 0.08886386 2.3093276
CGGCGAGATA 2.3229513 0.37965605 1.8792076 0.22013526 0.60023177 -1.8248879 -0.7188931 -1.6783829 0.063637756 3.0680223
CCAGTCCGGG 1.2671496 -0.50504774 0.60489154 -0.85650253 1.0322182 -3.1178746 -0.77128804 -1.7366164 -0.89713115 2.9467077
CCCGGACTGG -1.243687 -0.71022725 1.8707185 -0.078280896 3.428783 -1.9052595 -1.5669912 -1.0611727 0.7648198 1.1841116
TTATCTCGCC -0.6225953 1.377303 1.2495971 -0.19943349 3.1207395 -1.3406355 -1.762013 -1.6856701 0.1881414 2.1818385
GGCGAGATAA 2.2684634 0.5817914 1.5596519 0.0067557767 0.5641346 -2.024941 -0.63864684 -1.700788 0.018149104 3.2125773
CCCTATCTGG -0.25961813 -0.026368788 1.6894828 -1.5519526 3.1491084 0.4459035 2.4453926 0.54169315 -0.8269953 1.9556084
CCAGATAGGG 1.4389809 -1.6007093 2.3927617 0.7798162 0.64017415 -1.050811 -0.5167229 2.4277341 0.3287802 2.4145658
TCTCGCCGCG -1.0746293 1.7585766 1.0139185 0.1719483 3.0731618 -1.3433576 -1.9643338 -0.73890024 -0.16989563 2.5433934
CGCGGCGAGA 2.676064 0.43676516 2.288839 0.13115446 0.8568937 -1.6491148 -0.75249285 -1.7153147 0.40348366 2.655564
CCACGCGGCG 2.9063587 0.543187 2.5137832 0.21269208 0.835244 -1.5973927 -1.4655824 -0.8514287 0.8207822 2.5038364
CGCCGCGTGG -1.1250415 2.240718 1.2325207 -0.052872304 3.1219952 -0.7380115 -1.456516 -0.05867487 -0.110233925 2.5578556
ATCTGGCACA -0.5227058 -1.0425001 1.4361532 -1.7989975 2.6815665 0.3405848 1.8341204 0.5234201 -0.9336341 2.6849277
TGTGCCAGAT 1.0778828 -1.7432312 2.0240302 0.8121157 0.72972536 -1.0848513 0.66807914 2.567635 0.86710316 2.7577598
ATCTCGCCGC -0.92098576 1.5187707 0.9750653 0.09539433 3.1096575 -1.3045386 -1.9383928 -1.1170893 -0.1186211 2.40653
GCGGCGAGAT 2.5137777 0.3870126 2.1034486 0.2103767 0.7235164 -1.7053674 -0.6363535 -1.665926 0.22244503 2.7946496
CCTATCTGGC -0.48145762 -0.35099947 1.8081203 -1.6843151 3.1452124 0.54407966 2.1283503 0.44910827 -0.8446947 2.064754
GCCAGATAGG 1.438853 -1.7972709 2.2988865 0.73057497 0.6504571 -0.9465439 -0.4099179 2.2457454 0.43214503 2.601149
TCTGGCACAA -0.4070602 -1.0674456 1.2227379 -1.9566772 2.5271611 0.23118515 1.8558679 0.69021946 -1.025605 2.874441
TTGTGCCAGA 0.9940166 -1.6083694 1.9291754 0.8046848 0.7066555 -1.2460462 0.90637136 2.6904666 1.0774964 2.7090695
CTCGCCGCGT -1.2817156 1.8931023 1.1058623 0.16620833 3.0593932 -1.2191927 -1.7410332 -0.46222752 -0.19800432 2.7398007
ACGCGGCGAG 2.8715677 0.36565334 2.4724905 -0.08351778 0.84632725 -1.4034842 -0.9791426 -1.4673567 0.6006688 2.7003453
TATCTGGCAC -0.2725442 -1.0007825 1.6269076 -1.5292853 2.8318439 0.5182551 2.2288063 0.5151029 -0.9506325 2.4119766
GTGCCAGATA 1.3598324 -2.0424757 2.1111467 0.61374325 0.607521 -0.91342586 0.26742548 2.3967686 0.7556964 2.9091618
ATGGGACCCG -0.9644511 -0.94595814 1.5285475 -1.3984183 3.419553 -2.1480176 -1.3480417 0.06322059 1.2006131 0.73983485
CGGGTCCCAT 2.0546105 -0.32200253 0.133317 -0.1590098 1.2963775 -3.3620908 -1.5065184 -1.0636442 -1.729649 1.9136939
CTATCTGGCA -0.31769392 -0.7694967 1.8772049 -1.5322613 2.9753609 0.56916165 2.2352223 0.47287115 -0.6496204 2.3257253
TGCCAGATAG 1.4752797 -1.9944893 2.1612635 0.6441479 0.60337746 -0.88075745 -0.07421436 2.2998095 0.6256511 2.8439865
CTGGCACAAA -0.31308976 -0.9364098 0.7971171 -1.8872513 2.4574733 0.20859541 1.8555869 1.0892771 -1.2655212 2.9993572
TTTGTGCCAG 0.8601306 -1.3235291 1.8722165 0.7928215 0.6849699 -1.4910616 0.90216255 2.728128 1.26757 2.6506817
CACGCGGCGA 3.0344336 0.23733987 2.573119 -0.08356663 0.79718906 -1.3370624 -1.2310272 -1.1673532 0.71784097 2.559412
TCGCCGCGTG -1.2130823 2.0221152 1.1576109 0.019599164 3.0277185 -1.0130413 -1.5775096 -0.2430177 -0.34989154 2.7367425
GATGGGACCC -0.9955568 -1.0910146 1.5707352 -1.4573386 3.2922196 -2.1666539 -1.2716972 0.4190435 1.2155117 0.7677263
GGGTCCCATC 2.355212 -0.6505083 -0.024003886 -0.121149816 1.460315 -3.2916918 -1.6253754 -1.1029251 -1.6023337 1.8076682
TGGCACAAAA -0.46411234 -0.93868786 0.68808866 -1.9834806 2.4333403 0.042549733 1.6065298 1.3469034 -1.4192388 2.8140252
TTTTGTGCCA 0.6807748 -1.1893501 1.7609215 0.54155153 0.7156411 -1.653058 0.85297 2.7528713 1.3818883 2.610586
CACGATGGGA -1.1998589 -0.84302473 1.5950032 -0.728033 3.3049002 -2.4718747 -1.268762 1.3249896 1.209586 0.5990557
TCCCATCGTG 2.0930526 -1.3113552 -0.076681145 -0.03213277 2.0583587 -2.800209 -1.2300811 -1.72687 -1.2928566 1.4068813
ACGATGGGAC -0.90839434 -1.0567533 1.6942608 -1.0811706 3.169176 -2.562381 -1.3116277 1.0277338 1.176483 0.6629575
GTCCCATCGT 2.291224 -1.1667355 -0.10988299 0.0101121925 1.8103424 -3.0132341 -1.4448365 -1.4873105 -1.270756 1.495813
CGATGGGACC -0.87231636 -1.2557063 1.7870033 -1.3059632 3.3371377 -2.3185992 -1.2334888 0.7009647 1.2442173 0.62998384
GGTCCCATCG 2.3729975 -1.0394989 0.007947542 0.027246607 1.5983745 -3.2438626 -1.4739457 -1.1966332 -1.3636352 1.5710968
ACACGATGGG -1.4129643 -0.8201334 1.3666844 -0.5323788 3.6076512 -2.1635382 -1.3135909 1.4671997 0.9993979 0.60812265
CCCATCGTGT 2.2097204 -1.3260477 -0.31593904 -0.19046092 2.2831216 -2.803478 -0.9556606 -1.9370978 -1.3150835 1.3245357
GGCACAAAAA -0.4013348 -0.9082302 0.4952203 -1.9819397 2.6237648 -0.029858124 1.5213574 1.5345366 -1.6247317 2.7613175
TTTTTGTGCC 0.52775854 -1.0031859 1.5785794 0.48572186 0.6693911 -1.8232335 0.7402558 2.797726 1.4809318 2.6098163
CACACGATGG -1.3126141 -0.8558015 1.2774984 -0.2921319 3.929508 -1.9643297 -1.1661817 1.4785702 0.7756978 0.34074807
CCATCGTGTG 2.2023199 -1.1930221 -0.4314496 -0.27334157 2.4624047 -2.6331508 -0.7682005 -2.0564985 -1.320902 1.3015422
ACACACGATG -1.133549 -0.43466675 0.9513101 -0.34458062 3.8327043 -2.175581 -1.4239469 1.5723517 0.8587345 0.32256874
CATCGTGTGT 2.3325808 -1.0038215 -0.4204716 -0.44315594 2.503956 -2.3878865 -0.55687165 -2.1593034 -1.3558114 1.1544874
GCACAAAAAC -0.39385265 -1.1431686 0.40093848 -2.0501864 2.6859927 -0.07484411 1.2970493 1.6264682 -1.4618099 2.4064636
GTTTTTGTGC 0.50078005 -0.9371354 1.3950183 0.3688873 0.63120943 -1.950637 0.6886918 2.7675548 1.5004209 2.6824214
AACACACGAT -1.0553342 -0.20393567 0.7344616 -0.27037263 4.0031376 -2.194262 -1.4410062 1.5329983 0.8635268 0.13140802
ATCGTGTGTT 2.3593497 -0.717638 -0.5650363 -0.6236941 2.5547383 -2.1656277 -0.38570425 -1.9568142 -1.4526379 1.0919749
AAACACACGA -0.93834764 0.05857472 0.6865434 -0.43177405 4.0089197 -2.1328592 -1.1908685 1.4684826 0.67759126 -0.0817797
TCGTGTGTTT 2.4428458 -0.6504024 -0.3638605 -0.45546165 2.558011 -2.0198116 -0.31436008 -1.701354 -1.7032366 0.8537514
CACAAAAACC -0.21658446 -1.2786628 0.24072768 -2.2888205 2.6723957 -0.16488086 1.2138292 1.5473228 -1.2836069 2.2452087
GGTTTTTGTG 0.7846615 -0.6238578 1.1335967 0.4018877 0.5561659 -2.076561 0.37325868 2.8678844 1.6098017 2.618559
CAAAAACCCC 0.18291566 -1.3892014 0.0039174603 -2.4995022 2.8344917 -0.011711018 1.1737247 1.4065714 -0.85849166 2.104486
GGGGTTTTTG 0.7967415 -0.3951225 0.7857532 0.332376 0.38324794 -1.9688272 0.34692064 2.6887014 1.3664995 3.0947683
TAAACACACG -0.800462 0.4070346 0.6934871 -0.5900301 4.0971932 -2.0263352 -1.1372148 1.6135166 0.825097 -0.18827
CGTGTGTTTA 2.3707907 -0.58910507 -0.3833683 -0.61509305 2.604775 -1.8047293 -0.397024 -1.5055271 -1.815912 0.7589887
ACAAAAACCC 0.040160015 -1.440689 0.12929927 -2.3849108 2.689091 -0.09631471 1.3119756 1.4745766 -1.0142031 2.140397
GGGTTTTTGT 0.88355184 -0.45827734 0.966365 0.40372047 0.4561877 -2.1215525 0.309111 2.7805147 1.6382837 2.7788274
AAAAACCCCA 0.34216762 -1.7019683 0.066501066 -2.3188102 2.7489433 0.19752243 1.2077075 1.5362445 -0.52997154 2.2298326
TGGGGTTTTT 0.87102664 -0.29433745 0.67736346 0.32131827 0.38837597 -1.7068332 0.56774986 2.70882 1.2312212 3.4613533
AAACCCCAGG 0.58878136 -1.7322121 -0.12779613 -2.2231877 2.8311884 0.53977954 0.7510241 1.5077212 -0.23466378 2.3527303
CCTGGGGTTT 0.9358183 -0.19165573 0.5350151 0.01757242 0.4218778 -1.442331 1.003071 2.5167842 1.0804162 3.7200449
GTGTGTTTAA 2.3882585 -0.8311294 -0.20836057 -0.5298896 2.7277744 -1.5186676 -0.58542794 -1.3873436 -1.870929 0.6874799
TTAAACACAC -0.61108786 0.54255277 0.89215946 -0.7170915 4.0085864 -1.8513716 -1.1359348 1.6065267 0.7606171 -0.23868158
ATTAAACACA -0.5185369 0.60836077 1.0046867 -0.8063587 3.8461597 -1.7770615 -1.0464705 1.7634546 0.5645406 -0.25065207
TGTGTTTAAT 2.5393984 -1.0265248 -0.2199403 -0.78334576 2.8221214 -1.4044982 -0.6419966 -1.2001113 -1.8743031 0.5981634
AACCCCAGGC 0.5308168 -1.7893184 -0.41891438 -2.219793 3.0607078 0.55921125 0.68133086 1.5138674 -0.10710668 2.5376854
GCCTGGGGTT 1.0594991 -0.093533985 0.5218616 -0.20618477 0.3890279 -1.4211148 1.3348984 2.5475094 1.0504175 3.772626
CCCCAGGCAA 0.1878954 -1.7098011 -0.76200455 -1.9952102 2.9934523 0.31394294 0.4786588 1.7543411 0.081517 2.8266473
TTGCCTGGGG 1.1468356 0.033729933 0.4354994 -0.6588232 0.5597162 -1.7549993 1.7250006 2.6205904 1.1645086 3.3921921
GATTAAACAC -0.31353965 0.6088092 1.2675797 -0.9077829 3.8637917 -1.7425728 -0.96144575 1.9970884 0.49163225 -0.49888375
GTGTTTAATC 2.6398313 -1.2951865 -0.0699922 -0.8299297 2.8938103 -1.3093879 -0.7161205 -0.9645712 -1.8870225 0.44644016
ACCCCAGGCA 0.3004113 -1.627285 -0.65114737 -2.143576 2.9960375 0.44833392 0.58086824 1.6584231 -0.048609775 2.7578626
TGCCTGGGGT 1.1612098 -0.05560981 0.48904088 -0.3863822 0.5013891 -1.5278074 1.5703255 2.5440936 1.0019436 3.4793165
CCCAGGCAAT -0.072247684 -1.6576663 -0.8413793 -1.8411905 3.025551 0.111909315 0.57982093 1.9866315 0.24248347 2.9485114
ATTGCCTGGG 1.0900571 0.10997262 0.25359902 -0.939889 0.6891056 -2.0829766 1.5773972 2.641839 1.1569468 3.1942937
GGATTAAACA -0.19276364 0.8224821 1.3400729 -0.97044116 3.5937116 -1.6938449 -0.91921407 2.1342528 0.25954762 -0.35875356
TGTTTAATCC 2.6223383 -1.4761214 0.010535693 -0.74369556 3.0405538 -1.2222576 -0.8275803 -0.8840844 -1.8446642 0.3240372
CTGATTGCGC 0.21997371 -0.035064243 -0.08651506 -1.2013637 2.9521608 0.8261046 -0.79834455 2.3617234 1.0755845 2.6648545
GCGCAATCAG 1.5592899 1.0307113 -0.5161247 -1.7775877 1.1272677 -1.083046 1.6656569 1.7242141 -0.46361583 3.033011
CCAGGCAATT -0.24115369 -1.7804626 -0.7922932 -1.8182809 3.0930521 -0.13156953 0.38398907 2.1750164 0.4455586 2.8438284
AATTGCCTGG 0.8914897 0.27093446 0.02064126 -0.9099889 0.81288934 -2.0815744 1.6298301 2.7613528 1.0242069 3.120787
TGATTGCGCT 0.2695246 0.049698584 -0.066981845 -1.3272114 2.8281083 0.65709585 -1.100159 2.1971953 1.147533 2.7908373
AGCGCAATCA 1.654361 1.2153516 -0.5703407 -1.7386853 1.3060254 -0.9106593 1.7106138 1.6791793 -0.5416065 2.8830445
TGGATTAAAC -0.13276698 0.95817554 1.4222672 -0.8328844 3.4212048 -1.823087 -0.85074794 2.3560572 0.13512479 -0.1665932
GTTTAATCCA 2.4754539 -1.5057753 0.04405283 -0.670624 3.2767568 -0.935366 -0.7315985 -0.9450596 -1.7463453 0.25542274
CAGGCAATTC -0.30568227 -1.7258437 -0.58042306 -1.7272152 3.0987961 -0.24038571 0.3235592 2.42161 0.66479576 2.509947
GAATTGCCTG 0.935668 0.35403743 -0.0533592 -1.0272826 0.71815854 -2.3356378 1.4999874 2.7734356 0.77150536 2.8972175
GCAATTCTGA -0.122838795 -1.0708278 -0.2432306 -1.6440147 3.290158 0.09050251 0.06882388 2.7220097 1.0776253 2.0179849
TCAGAATTGC 1.0553644 0.7256897 -0.6815327 -0.8759277 0.80200714 -2.131973 1.1491834 2.6283803 0.09611374 3.1332228
GATTGCGCTC 0.34939724 0.047533773 -0.14671025 -1.3900517 2.7001982 0.4901884 -1.3102988 2.2949607 0.95576406 2.8996158
GAGCGCAATC 1.7695653 1.3524661 -0.6370006 -1.7209028 1.4635671 -1.0091853 1.8126574 1.5811431 -0.59421 2.6457627
ATTGCGCTCG 0.43338913 0.23686878 -0.21114774 -1.2886953 2.7100606 0.31820846 -1.5358651 2.4242418 0.887445 2.8983886
CGAGCGCAAT 1.8540013 1.4634218 -0.66639864 -1.4586875 1.5504351 -1.0657371 1.8843338 1.4925892 -0.91278136 2.4915786
AATTCTGATT 0.064894564 -0.81702137 -0.0023682676 -1.3820475 3.4570677 0.5321634 -0.1845898 2.6688855 1.3022407 1.8411489
AATCAGAATT 1.3707856 0.69674355 -0.6835533 -1.2719289 0.6620137 -1.7394676 1.099684 2.126382 -0.298261 3.4465027
ATTCTGATTG 0.12125127 -0.6194972 0.010312114 -1.3168842 3.4396594 0.67768645 -0.26214814 2.4277914 1.4208038 1.8780671
CAATCAGAAT 1.4766266 0.6588452 -0.60834646 -1.4081911 0.66163284 -1.5539678 1.1590856 1.9579529 -0.44447488 3.5131795
CTGGATTAAA -0.27581617 1.0176064 1.4986864 -0.56695986 3.3141053 -1.6603698 -0.72544205 2.640457 0.0019337476 -0.062434465
TTTAATCCAG 2.3843799 -1.707551 0.025404604 -0.5737548 3.4262753 -0.8848219 -0.66428775 -0.95817435 -1.662037 0.15226108
TTCTGATTGC 0.15064202 -0.47519502 0.1288193 -1.2162492 3.1936681 0.8248249 -0.433924 2.4109724 1.2769735 2.1493783
GCAATCAGAA 1.4616276 0.800322 -0.5756246 -1.5657235 0.8409126 -1.289618 1.3450916 1.9329972 -0.4951366 3.3626502
TCTGATTGCG 0.16028796 -0.30506507 0.01467728 -1.2219375 3.1200192 0.7461983 -0.6623047 2.322493 1.2353925 2.3470833
CGCAATCAGA 1.5338528 0.86298406 -0.5505012 -1.6837227 1.0182569 -1.1404033 1.5148693 1.8750114 -0.43841183 3.1134548
AGGCAATTCT -0.24804567 -1.4046996 -0.62900215 -1.8046706 3.1109877 -0.21226007 0.18322153 2.4406724 0.766684 2.3706114
AGAATTGCCT 0.9614111 0.5669715 -0.21996444 -0.89431185 0.7949905 -2.321549 1.3725739 2.7675955 0.53781646 2.9326277
GGCAATTCTG -0.19403952 -1.2438908 -0.49459636 -1.8046684 3.267962 -0.1424164 0.090681076 2.582756 0.9320532 2.14632
CAGAATTGCC 0.9442322 0.6965231 -0.4245334 -0.857351 0.7480871 -2.299359 1.2543696 2.6592495 0.385496 2.9053967
CAATTCTGAT -0.0016920585 -0.9119003 -0.22247986 -1.3717755 3.3779619 0.36099854 0.0073371045 2.8412285 1.0793933 1.8568206
ATCAGAATTG 1.3417262 0.7357528 -0.5996609 -1.1595492 0.63231826 -2.024419 1.0868865 2.240584 -0.06915195 3.1974015
ACCTGGATTA 0.011377615 1.2315762 1.5562065 -0.11242251 3.3866127 -1.6828631 -0.58686054 2.9784648 -0.19044147 -0.13857034
TAATCCAGGT 2.0652983 -1.7729893 -0.05119861 -0.8154122 3.730689 -0.71886206 -0.14299938 -0.94882554 -1.3346593 -0.042621505
CCTGGATTAA -0.20360713 1.0644475 1.4788082 -0.32284042 3.3952618 -1.6262127 -0.5588151 2.7750158 -0.19958623 -0.11911758
TTAATCCAGG 2.2222612 -1.8417555 -0.012565744 -0.70614916 3.6295118 -0.77832496 -0.4386694 -0.9501016 -1.5378344 0.07512328
CCGAGCGCAA 2.0653436 1.6529188 -0.6784255 -1.3812951 1.5811288 -1.1867251 1.9428595 1.2913677 -1.0258946 2.3588502
TTGCGCTCGG 0.59361696 0.3988146 -0.16495962 -1.3365147 2.7407444 0.16621184 -1.6612281 2.5546587 0.84839714 2.7113788
TACCTGGATT 0.048675932 1.3500739 1.2469782 0.22791143 3.4249032 -1.9112606 -0.64920515 3.0424707 -0.36156374 -0.08433522
AATCCAGGTA 1.8695993 -1.7100499 -0.21478575 -0.9331942 3.9656336 -0.619683 0.05638297 -0.8169622 -1.3807634 0.023892375
TGCGCTCGGT 0.73787725 0.41440165 -0.21035986 -1.3699445 2.7577693 0.10759678 -1.6598365 2.7341108 0.7273423 2.4126081
ACCGAGCGCA 2.0426512 1.7344933 -0.8812524 -1.0636503 1.7406069 -1.1012881 1.6690028 1.3590488 -1.4347184 2.4263709
GCTCGGTTGG 1.7097667 0.51083463 -0.1288394 -1.4675967 2.6913898 0.245828 -1.6226668 2.803056 0.55637604 2.0210974
CCAACCGAGC 2.0403285 1.9481131 -0.68334955 -0.77690554 1.662289 -0.81808174 1.3402641 0.7523557 -1.9414508 2.904504
GCGCTCGGTT 1.0545756 0.44277826 -0.22619443 -1.35794 2.7613916 0.08130731 -1.7795482 2.8490212 0.59852093 2.2627141
AACCGAGCGC 2.069774 2.0514486 -0.8641111 -0.8214647 1.6999015 -1.1776485 1.5300835 1.1053712 -1.677682 2.573684
CTCGGTTGGG 1.894974 0.63616025 -0.109773345 -1.4151754 2.767949 0.47391284 -1.6601936 2.7361424 0.34451205 1.992848
CCCAACCGAG 2.1224382 1.9092433 -0.5647224 -0.79173994 1.657706 -0.49376437 1.2090299 0.56039333 -1.9514921 2.9738488
GTACCTGGAT 0.2397568 1.4768139 1.1077174 0.33524117 3.6925962 -1.9434563 -0.5718775 2.6585965 -0.491991 -0.28966027
ATCCAGGTAC 1.8065566 -1.6179447 -0.11029777 -0.98042744 4.0336413 -0.55041575 0.38665557 -0.60593283 -1.4040366 -0.055039927
CGCTCGGTTG 1.3476791 0.38073575 -0.13301356 -1.3794333 2.6948628 0.19996482 -1.76925 2.8050582 0.63364255 2.1576853
CAACCGAGCG 2.0460246 1.9863472 -0.7893418 -0.79911137 1.6345402 -0.93406343 1.3934492 0.94695586 -1.7863486 2.7053118
AGTACCTGGA 0.31358108 1.6591673 0.6808012 0.466838 3.8054318 -2.0344603 -0.37185797 2.5737755 -0.6065529 -0.26538077
TCCAGGTACT 1.7965165 -1.3161358 -0.1614306 -1.1217448 4.1656966 -0.46358046 0.62488437 -0.37305093 -1.446515 -0.13082136
TCGGTTGGGC 2.114867 0.7989753 -0.1414804 -1.4072211 2.7555642 0.5989132 -1.5979478 2.644092 0.20584446 1.9523082
GCCCAACCGA 2.1846256 1.8672606 -0.48919433 -0.7123639 1.7014949 -0.19211908 1.1120867 0.64304674 -1.9430021 3.0138154
CGGTTGGGCG 2.1039402 0.85360026 -0.3978118 -1.4489784 2.9167676 0.58647215 -1.6644502 2.3212938 0.054180045 1.8844845
CGCCCAACCG 2.3656454 1.6788678 -0.30189443 -0.7175816 1.7022321 0.105199695 1.1605783 0.5495453 -1.8520669 3.0679164
GGTTGGGCGA 2.0914938 0.8526907 -0.5806547 -1.490776 3.006399 0.54650784 -1.7393188 1.8832587 0.11043532 1.9607481
TCGCCCAACC 2.4530487 1.6233935 -0.07411679 -0.64233756 1.6522553 0.30787334 1.2798581 0.67095846 -1.6722339 2.989788
GTTGGGCGAT 2.097048 0.80825615 -0.75486857 -1.5809103 3.0642848 0.39628136 -1.878046 1.5617571 0.22713502 1.8972775
ATCGCCCAAC 2.6135273 1.4894515 0.06734003 -0.49511993 1.6262989 0.48861536 1.3982923 0.7250889 -1.6268454 2.879269
CAGTACCTGG 0.543821 1.940963 0.64380324 0.55635923 3.8519673 -1.8026576 -0.45611757 2.2057927 -0.79517734 -0.3669815
CCAGGTACTG 1.6729094 -1.3288199 -0.0026460756 -1.17276 4.4307775 -0.22882225 0.78433233 -0.10046612 -1.5498048 -0.23960046
AAGATAAACA -0.99866325 -1.4242978 -0.25104904 1.3106409 2.5822453 -2.6926167 -0.5792175 -0.32477534 -2.161891 2.5156333
TGTTTATCTT 0.87797785 -0.9497096 2.9703705 0.09770413 4.0434995 -1.0141957 -1.0231512 0.06255636 -0.54372007 -0.8259956
GTCAGTACCT 0.8479255 2.1893396 0.65568453 0.41316888 3.701114 -1.5496813 -0.15064171 1.9278834 -0.6717763 -0.4397419
AGGTACTGAC 1.7607583 -1.4566245 -0.15012522 -1.1658708 4.2853823 -0.14902858 0.59714216 0.48607558 -1.3440585 -0.2380783
TCAGTACCTG 0.7448011 2.1641471 0.5085999 0.48236603 3.8577442 -1.7471997 -0.4333185 1.9315524 -0.8456737 -0.38899624
CAGGTACTGA 1.6614559 -1.438957 -0.088463224 -1.2804058 4.35479 -0.21500318 0.8377732 0.11654033 -1.3692569 -0.24166048
GGTCAGTACC 1.1833894 2.3405073 0.66157246 0.32226613 3.6602914 -1.4824717 -0.058022864 1.7994753 -0.731662 -0.4011017
GGTACTGACC 1.7286271 -1.5229526 -0.14999898 -0.8140134 4.216489 -0.12424128 0.42192185 0.6832111 -1.3976965 -0.30707905
TTGGGCGATG 2.0743353 0.5461171 -0.8742519 -1.5956686 3.0061512 0.23922168 -2.009531 1.3528211 0.11256355 1.8392081
CATCGCCCAA 2.7221234 1.4109005 0.24927877 -0.24072519 1.6690158 0.5614685 1.5779407 0.8045472 -1.5740982 2.7989688
TTTCATCGCC 2.6311424 1.44046 0.22877963 0.8351686 1.7272501 0.49828532 1.68899 0.80276173 -1.5112855 2.7859657
GGCGATGAAA 2.0055766 0.40534028 -1.0807828 -1.7134228 3.0779178 -0.4186322 -2.2566388 0.83256835 -0.037401505 1.3853211
TGGGCGATGA 2.0229504 0.6164014 -0.9870971 -1.6432341 3.1054552 0.034468982 -2.2085385 1.068822 0.16911009 1.7607453
TCATCGCCCA 2.6389277 1.4075983 0.30097565 0.11390951 1.6671354 0.54852325 1.7418232 0.8399596 -1.6205409 2.7662864
TGAAAGGCGA 2.3910375 0.2037715 -1.2353055 -0.56210744 3.4100397 -0.120502226 -1.9322457 0.47252706 0.00070190313 0.665599
TCGCCTTTCA 2.4203637 0.6684258 0.1974502 1.7117705 1.3361561 0.55362695 1.2027787 0.9975965 -1.2323484 3.255139
GGGTCAGTAC 1.3246564 2.4255354 0.7039834 0.29676458 3.5060055 -1.4118639 0.26077697 1.8575001 -0.6738675 -0.41691327
GTACTGACCC 1.7427442 -1.6722543 -0.11905037 -0.6259049 4.2252035 0.056784343 0.22938961 0.8962881 -1.3250247 -0.29587
GGGGTCAGTA 1.3857274 2.493443 0.8753513 0.3619937 3.4207568 -1.2978604 0.5429666 1.9772109 -0.5235689 -0.3200046
TACTGACCCC 1.7195365 -1.8265438 0.037615716 -0.25712365 4.1392374 0.080222145 0.04701422 1.0591902 -1.2524861 -0.28657115
GGGCGATGAA 2.000413 0.4779086 -1.0115334 -1.7505156 3.0708494 -0.34136048 -2.2512474 0.9181927 0.13282512 1.5337683
TTCATCGCCC 2.686044 1.3340354 0.2508877 0.47529468 1.7242489 0.6045609 1.7132622 0.80314463 -1.6068885 2.8349116
GATGAAAGGC 2.207648 -0.00963819 -1.1160347 -1.3558505 3.2012756 -0.4042713 -2.1482549 0.5481977 0.07671032 0.82188314
GCCTTTCATC 2.4466505 1.0592166 0.30851027 1.4721411 1.3093979 0.2522847 1.5169294 0.81496155 -1.5007079 3.0900307
GAAAGGCGAC 2.4393215 0.31075382 -1.4393132 -0.3275803 3.5049288 0.0020158812 -1.6398035 0.35094306 0.053007517 0.74453056
GTCGCCTTTC 2.3576016 0.48092392 0.17273884 1.8319628 1.3759274 0.7348724 1.1025094 1.0761576 -1.0922837 3.2565958
GCGATGAAAG 2.0496974 0.24805433 -1.0511358 -1.6302714 3.0856044 -0.54446 -2.216433 0.7538914 0.061839044 1.1618679
CTTTCATCGC 2.6562765 1.2460184 0.27793854 1.0650493 1.5413421 0.37522167 1.6812011 0.8281526 -1.5792269 2.8806243
ATGAAAGGCG 2.443367 0.21465105 -1.1387266 -0.7800666 3.3032064 -0.20354663 -2.056783 0.5374028 0.022763299 0.72340065
CGCCTTTCAT 2.4332304 0.87877697 0.21577846 1.5380778 1.4043193 0.4586093 1.3213742 0.961186 -1.3938544 3.1722991
CGGGGTCAGT 1.2939907 2.5429652 1.0699744 0.586672 3.3182266 -1.2647564 0.759206 2.0520866 -0.3955638 -0.19728933
ACTGACCCCG 1.7405158 -2.0577278 0.029539147 -0.063388795 4.2012672 0.07872848 0.11528906 1.1222892 -0.97335416 -0.3833729
GCGGGGTCAG 1.3590064 2.5091891 1.2095748 0.76390356 3.2166631 -1.1037784 0.7995684 2.1581128 -0.1865022 -0.034204517
CTGACCCCGC 1.6030138 -2.345101 0.09433273 -0.05092073 4.161225 -0.17582814 0.33484647 1.0199878 -0.6377619 -0.42797542
CGATGAAAGG 2.226609 0.07264508 -1.0513362 -1.4626961 3.0433114 -0.47308505 -2.19727 0.6537599 0.06346015 0.9738006
CCTTTCATCG 2.6076396 1.1510918 0.33401284 1.333846 1.4313332 0.26392534 1.6392577 0.74873155 -1.5895859 3.0248938
GGCGGGGTCA 1.3086443 2.4581318 1.309679 1.0159065 3.055667 -1.2379841 0.94502026 2.2756476 -0.062882826 0.06600982
TGACCCCGCC 1.4958521 -2.3674033 0.0010191998 0.16913435 4.0618334 -0.21815641 0.47345063 1.0797998 -0.63540596 -0.30776897
GGGCGGGGTC 1.4382175 2.433858 1.3328322 1.3364934 2.9811177 -1.32048 0.8524891 2.1487455 0.108401895 0.0013489579
GACCCCGCCC 1.4309262 -2.447741 -0.04963169 0.34686804 4.016179 -0.43474406 0.70804614 1.1581229 -0.52334034 -0.3572822
AAAGGCGACG 2.6846893 0.13218397 -1.4946793 -0.24783394 3.5917997 0.18960004 -1.5201589 0.17086554 0.13707343 0.84236616
CGTCGCCTTT 2.426324 0.32805893 0.28185442 2.0386436 1.3910317 0.73250884 0.88091224 1.0779347 -0.9389473 3.2880077
AGGGCGGGGT 1.4766718 2.2357345 1.2144717 1.5328163 2.9726698 -1.4542439 0.90829164 2.1223216 0.2890778 -0.00762007
ACCCCGCCCT 1.4867538 -2.344803 -0.27171978 0.47564965 3.8812702 -0.56088656 0.91476834 1.2169033 -0.60587573 -0.23324342
GGCGACGGTT 2.3234453 -0.32212454 -1.6634282 -0.028769681 3.8807034 0.24866894 -1.4227031 -0.30358586 0.24847823 0.969885
AACCGTCGCC 2.1602607 0.07225412 0.64723706 2.638069 1.4959596 0.7434761 0.81030744 1.4927269 -0.7505804 3.1902635
AGGCGACGGT 2.6190276 -0.06648806 -1.6813803 0.03260452 3.83538 0.3272044 -1.4102603 -0.043414026 0.05669605 0.9815084
ACCGTCGCCT 2.2834547 0.08274193 0.58024585 2.461844 1.4863449 0.8643904 0.78339094 1.4242549 -0.79167265 3.208061
CCGTCGCCTT 2.3933163 0.17869109 0.37561044 2.2163732 1.4304582 0.876675 0.770487 1.2535584 -0.8782148 3.283039
AAGGCGACGG 2.6963515 -0.020310624 -1.5549688 -0.047297504 3.65248 0.2687917 -1.4417422 0.08573921 0.15205671 0.87005126
GCGACGGTTC 2.2103233 -0.5771794 -1.6280708 0.042285897 3.8700268 0.15396653 -1.4494942 -0.3802252 0.2409913 1.0339593
GAACCGTCGC 2.020889 0.13505264 0.6071087 2.8400724 1.5738358 0.6002499 0.99519134 1.5126126 -0.6159365 3.0270603
AAGGGCGGGG 1.7111932 2.0433254 1.0122178 1.7166761 2.8649359 -1.5883843 0.92433524 2.0923276 0.5273683 -0.043498933
CCCCGCCCTT 1.401765 -2.2704687 -0.33226082 0.59192735 3.7398965 -0.6476886 1.1183475 1.4942085 -0.6306552 -0.15369888
CGACGGTTCG 2.148159 -0.862953 -1.5479702 0.18021798 3.869323 0.15566656 -1.5011878 -0.49185103 0.3123082 1.0546606
CGAACCGTCG 1.9689289 0.11961531 0.60699916 2.9044735 1.5117389 0.30930048 1.120735 1.3996726 -0.59233177 2.8906612
AAGCAGAGTG 1.2074186 2.1909974 1.7514951 -0.30431342 2.0762525 -0.27422765 2.213078 -1.3215343 0.8324644 2.2504022
CACTCTGCTT 0.008322501 -1.3459662 -0.7174422 -0.2233818 3.3459904 -1.869578 0.7116747 -0.8205678 2.8683407 1.0505456
GAAGGGCGGG 1.9353887 2.1353126 1.1055325 1.7530736 2.8075104 -1.6119342 0.75628257 1.7876431 0.7237361 -0.1272695
CCCGCCCTTC 1.4758765 -2.1723695 -0.45553908 0.45826998 3.6073706 -0.6975621 1.206014 1.6680367 -0.51635504 -0.016962381
GCGAACCGTC 1.8131844 0.13614635 0.7197553 2.999226 1.4719311 0.07407653 1.3024479 1.308659 -0.5733037 2.7397585
GACGGTTCGC 2.203336 -1.1497984 -1.4601471 0.21765032 3.8135746 -0.0036948486 -1.5783293 -0.65779793 0.505689 1.0026159
CAGAGTGTGA 1.1893733 1.7976619 1.3005422 -0.41727448 2.7090485 -0.11019069 2.2379065 -1.615016 1.4689511 2.3950038
TCACACTCTG 0.2655126 -1.265341 -0.11100539 -0.8133957 3.3929505 -1.2168822 1.2100682 -0.93700695 2.8283303 1.128359
GCCGGTCATA 2.2844758 1.8036072 0.5199911 -1.1363375 0.92089057 -1.8558782 -1.3493445 1.9908339 -1.316896 2.7238388
TATGACCGGC 2.1394005 -1.4191958 -1.2680621 1.0425818 2.5875196 -1.9649382 -0.98272336 1.3827702 -2.5437074 1.1364996
GGTCATACGC 2.4628818 1.8498105 0.8975782 -1.4966954 1.4296827 -1.4924864 -0.993049 2.163655 -1.7942322 2.089025
GCGTATGACC 2.0475802 -0.97495556 -0.68705904 0.99805266 2.4581842 -2.1482887 -0.80412185 1.5297295 -2.6279206 0.54474026
CGCCGGTCAT 1.9678867 1.6579756 0.44054535 -1.1710635 0.77760553 -1.996965 -1.4665868 1.8011165 -1.3785181 2.9990451
ATGACCGGCG 2.1387699 -1.3690385 -1.5413119 0.8562281 2.545949 -2.0698824 -1.1788107 1.2196484 -2.452284 1.356322
CCGGTCATAC 2.6073205 1.9562837 0.70248586 -1.1157627 0.9870749 -1.7957522 -1.1965563 2.1989613 -1.3730173 2.4874067
GTATGACCGG 2.182328 -1.3210096 -1.090717 1.2445382 2.5419214 -1.9038562 -0.89974844 1.4600605 -2.5288916 0.94423586
AGCAGAGTGT 1.2314624 2.0837586 1.500813 -0.36593917 2.3845613 -0.24829926 2.1716514 -1.4292796 1.0289959 2.304865
ACACTCTGCT 0.024848701 -1.3933718 -0.4466621 -0.37527224 3.3700385 -1.8259898 0.8138802 -0.9813093 2.8596709 1.0983258
AGAGTGTGAA 1.171598 1.6148996 1.2056322 -0.35881418 2.917604 0.055375263 2.301132 -1.6213555 1.8078954 2.4201915
TTCACACTCT 0.26105762 -1.2492629 0.11745239 -1.0234998 3.3505304 -0.9374404 1.2945753 -0.9207823 2.8732498 1.1385919
GCAGAGTGTG 1.1849717 1.9517788 1.3290851 -0.44039494 2.4215567 -0.18339674 2.2800915 -1.6329179 1.179362 2.4689713
CACACTCTGC 0.2125505 -1.3402829 -0.29464465 -0.57010007 3.3906581 -1.5488858 0.9784407 -0.9897054 2.8413768 1.0656904
CGGTCATACG 2.526234 2.0112302 0.7631832 -1.3000832 1.1798999 -1.6426039 -1.0721682 2.26147 -1.6072247 2.241217
CGTATGACCG 2.2144299 -1.1595925 -0.87637013 1.2104563 2.5035725 -1.9990284 -0.8516606 1.5401142 -2.5703936 0.66929615
GTCATACGCC 2.3676727 1.7894197 1.02147 -1.6661022 1.5847521 -1.37952 -0.82652134 2.0063775 -2.0463808 1.9996319
GGCGTATGAC 1.9700621 -0.7122091 -0.7462406 0.8839507 2.6201854 -2.3136415 -0.78745353 1.6859555 -2.6315718 0.35151878
AGCGAACCGT 1.6768663 0.1815928 0.6380977 3.204314 1.409273 -0.22011355 1.317869 1.1658492 -0.52309036 2.7072191
ACGGTTCGCT 2.1367733 -1.305202 -1.2923554 0.4004868 3.8347468 -0.086530454 -1.5609367 -0.7118836 0.5920708 0.9053156
ACGCCGGTCA 1.6262748 1.6167712 0.28777906 -1.300783 0.9414695 -2.055102 -1.6423569 1.6451561 -1.3179451 3.084177
TGACCGGCGT 2.0863261 -1.2720225 -1.5873413 0.64014095 2.4965 -1.8615514 -1.2250783 1.0422816 -2.5248077 1.6149455
GGAAGGGCGG 2.0902615 2.0628421 1.0698807 1.7528098 2.789043 -1.5971547 0.7081049 1.6851926 0.9832388 -0.1084665
CCGCCCTTCC 1.4244609 -2.1163561 -0.54968494 0.25550508 3.5062234 -0.9038512 1.3632742 2.0704553 -0.48739013 0.14386241
AACGCCGGTC 1.3812217 1.563735 0.2178224 -1.284761 1.1925083 -1.9225849 -1.7518195 1.6208241 -1.2339414 3.1385393
GACCGGCGTT 2.2119749 -1.223794 -1.6807437 0.35363787 2.46446 -1.8514944 -1.0759337 0.9856833 -2.5173874 1.6433426
TCATACGCCG 2.1116166 1.8851606 1.0519848 -1.7063226 1.6207044 -1.4523137 -0.7097912 1.7927871 -2.3202322 1.9034557
CGGCGTATGA 1.7714883 -0.659204 -0.45657468 0.8059695 2.7366786 -2.5014567 -0.8986184 1.7606083 -2.647133 0.21739224
TACGCCGAAA 1.7909036 1.622954 1.2659209 -1.086634 1.5827456 -1.3688086 -0.51342344 1.2118179 -3.0911036 2.263386
TTTCGGCGTA 1.0638021 -0.5768728 -0.32637173 0.56296515 3.2819867 -2.5483038 -0.8416498 2.0255435 -2.5378551 -0.18094702
ACGCCGAAAC 1.8605038 1.4681209 1.4504222 -1.0266069 1.3559144 -1.4245327 -0.45357323 1.0321492 -3.202696 2.3184273
GTTTCGGCGT 0.78191304 -0.7911772 -0.24125424 0.7502349 3.397939 -2.4898474 -0.8082608 2.0448046 -2.4169652 -0.12681748
AAACCCGTTG 2.8971117 0.7941249 1.9996086 -0.20486988 1.3987037 -1.1764333 0.4936921 0.9594693 -3.1142936 1.6235424
CAACGGGTTT 0.24756643 -1.4298747 0.9402791 1.9686016 2.7833564 -2.7182121 -0.43219903 1.9258581 -1.5672356 -0.015252261
ATACGCCGAA 1.759362 1.7458265 1.1511937 -1.4213399 1.6004808 -1.4104942 -0.5430063 1.4077722 -2.8434026 2.12883
TTCGGCGTAT 1.331787 -0.5531031 -0.46607533 0.68536776 3.1211503 -2.5090985 -0.8626724 1.9004965 -2.5822675 -0.16597326
GCCGAAACCC 2.1556008 0.9860373 1.8044301 -0.5979395 1.1389892 -1.4222702 -0.18933861 0.93893903 -3.3410795 2.4486363
GGGTTTCGGC 0.3412663 -1.212106 0.007106036 1.0714871 3.1174319 -2.7945485 -0.5748852 2.222811 -2.212117 -0.07349949
CGAAACCCGT 2.6543372 0.93523055 1.8860002 -0.3204405 1.0763233 -1.367785 0.04672921 0.9523863 -3.1956682 2.012391
ACGGGTTTCG 0.15364231 -1.6421745 0.44249544 1.671625 3.0218058 -2.5865128 -0.5451566 2.1762712 -1.9911419 0.14835961
GCAACGCCGG 0.71093476 1.6091897 0.14165181 -1.7665702 1.5807041 -1.9616044 -1.8181581 1.5512377 -0.8827471 3.026565
CCGGCGTTGC 2.5138814 -0.7842523 -1.8437281 0.12641811 2.3797462 -1.8630308 -0.9532149 0.5291958 -2.58 1.9347662
CAACGCCGGT 0.9743349 1.5450003 0.11936815 -1.5683974 1.4217734 -1.8280374 -1.8938885 1.608591 -1.1410394 3.226116
ACCGGCGTTG 2.375384 -1.0137311 -1.8562328 0.19915639 2.4787846 -1.8175203 -1.0110836 0.72305954 -2.530416 1.8418705
CATACGCCGA 1.9443549 1.7723988 1.1137019 -1.5797862 1.6954647 -1.4513997 -0.5810746 1.5646402 -2.5913808 1.9095783
TCGGCGTATG 1.5495424 -0.57314235 -0.4463868 0.63327795 2.9374065 -2.5426612 -0.94268125 1.7457138 -2.641297 0.093350306
CGCCGAAACC 1.8669833 1.1923155 1.6314284 -0.8276238 1.218372 -1.4277632 -0.3221955 0.9882142 -3.294866 2.5580533
GGTTTCGGCG 0.54185635 -0.9786424 -0.17956866 0.80660176 3.281301 -2.7406702 -0.7436532 2.1691594 -2.321931 -0.12073495
CGCCCTTCCC 1.5787488 -2.0762165 -0.53222716 0.33099967 3.3028696 -0.8497218 1.4718869 2.2598603 -0.44096732 0.12816274
GGGAAGGGCG 2.3024948 2.1110039 0.9551725 1.5795668 2.8277988 -1.4584755 0.58978474 1.4743536 1.2805437 -0.14279826
CGGGTTTCGG 0.20683359 -1.4547491 0.07258054 1.3691983 3.083457 -2.6611435 -0.4815169 2.3054333 -2.1711292 0.04663531
CCGAAACCCG 2.398389 0.9138453 1.9443692 -0.42708457 1.1120037 -1.3699322 -0.13190675 1.0361816 -3.3133771 2.3215048
GAAACCCGTT 2.7219799 0.7753632 1.8635204 -0.19875726 1.2748142 -1.2545273 0.22558795 1.0775869 -3.1537542 1.8049936
AACGGGTTTC 0.16942397 -1.6167619 0.7801042 1.7935537 2.9041154 -2.7145858 -0.49501306 1.943186 -1.9112077 0.038234282
ACCCGTTGCT 2.6649537 0.87417126 2.0440454 -0.1945921 1.6493638 -1.1399039 0.93908703 0.7981652 -3.1004543 1.2729121
AGCAACGGGT 0.5173631 -1.0918183 1.15277 1.7870163 2.6125233 -3.0474424 -0.47999218 1.8709732 -1.1547835 -0.23324876
CGCAACGCCG 0.61382204 1.807026 0.18520199 -1.8756765 1.7897586 -2.080756 -1.8255352 1.5072111 -0.66671443 2.8978593
CGGCGTTGCG 2.7394247 -0.68880403 -1.7783432 0.13607612 2.1724434 -1.6553572 -0.81463015 0.39226002 -2.511004 2.077263
AACCCGTTGC 2.7868216 0.8366611 2.0559375 -0.27124038 1.4700565 -1.1540349 0.7587806 0.97222924 -3.1135602 1.4748276
GCAACGGGTT 0.4198546 -1.1723276 1.1075658 1.934478 2.6847868 -2.896238 -0.56345886 1.8926631 -1.4283464 -0.1064943
GCGCAACGCC 0.5463454 1.8483112 0.1965737 -1.8894197 2.0008345 -1.9501687 -1.8308301 1.5015261 -0.33073914 2.8554711
GGCGTTGCGC 2.8949676 -0.5183723 -1.7999746 0.2157349 2.201914 -1.4465764 -0.6071401 0.187266 -2.4365685 2.162446
TGCGCAACGC 0.71254796 1.6335543 0.37579986 -1.7614324 1.896886 -1.7663999 -1.9854164 1.6045293 -0.08740422 2.5983684
GCGTTGCGCA 2.9591012 -0.8299351 -1.5717874 0.32434598 1.8295404 -1.3569384 -0.57365817 0.17590326 -2.280716 2.2232642
GCTGCGCAAC 0.9689327 1.2573923 0.48821568 -1.9300054 1.7515192 -1.8292123 -2.0587983 2.0240295 0.49637643 2.4772692
GTTGCGCAGC 2.850526 -1.0553235 -1.3617839 0.6995726 1.6713501 -1.2127978 -0.5454611 -0.1354236 -2.154824 2.592474
CTGCGCAACG 0.82649547 1.6097018 0.39681342 -1.9123267 1.8413655 -1.65991 -1.9656192 1.8093807 0.14318188 2.3679657
CGTTGCGCAG 3.020095 -1.0109215 -1.4111559 0.6058103 1.6687974 -1.2798285 -0.6068747 0.066430934 -2.2100947 2.3613517
CGGTTCGCTA 2.1418183 -1.4770807 -1.1729019 0.6714515 3.7642648 -0.1869619 -1.5662003 -0.7705707 0.6270849 0.81743926
TAGCGAACCG 1.5955268 0.11266486 0.5394225 3.2779434 1.4367372 -0.4251115 1.3020017 1.0104645 -0.4130202 2.7289698
CCCGTTGCTC 2.3639033 1.0118047 2.0914953 -0.261338 1.8017021 -0.97897696 1.1111213 0.56760514 -3.0306466 1.1389538
GAGCAACGGG 0.43249133 -0.9299917 1.1223532 1.7463887 2.6794357 -3.1992304 -0.39128172 1.8460237 -0.8254703 -0.4653765
GGTTCGCTAA 2.057097 -1.5103997 -1.1358527 0.9477775 3.7996566 -0.33249277 -1.4954718 -0.78994465 0.57531744 0.7196176
TTAGCGAACC 1.3449537 -0.05634716 0.4478038 3.4224424 1.4939185 -0.4532711 1.3465698 0.9060346 -0.39216995 2.7452173
CAGGCCTTAC 0.2789172 -0.3885813 1.1635604 2.0074422 1.8963246 -2.086958 -1.6650269 -1.6890935 -0.54234916 3.1488721
GTAAGGCCTG 2.3342988 2.610532 1.6098088 -0.21216603 2.707082 0.8918289 -0.60428625 0.41866618 -0.32030144 1.9252456
TGCTGCGCAA 0.91089547 0.87611514 0.5149283 -1.8939648 1.7999383 -1.7762316 -2.224513 1.936679 0.43936577 2.4169245
TTGCGCAGCA 2.7298167 -1.1854502 -1.3663213 0.68729913 1.5178838 -1.1995114 -0.506992 -0.21093933 -2.103707 2.7722433
CTGCTGCGCA 0.8750044 0.48903742 0.6325835 -1.8316349 1.6956148 -1.8072737 -2.3667955 2.060406 0.54207003 2.4166195
TGCGCAGCAG 2.5467217 -1.2904056 -1.4308162 0.71097195 1.4264543 -1.2124631 -0.5123057 -0.20170438 -1.9331323 2.976862
TGGGAAGGGC 2.462022 2.043794 1.0537024 1.412504 2.9043832 -1.2827386 0.6836004 1.3713964 1.5093545 -0.042664886
GCCCTTCCCA 1.7579275 -2.0679092 -0.57903636 0.2678399 2.9795964 -0.90367174 1.6344334 2.412293 -0.34914178 0.32607153
GCGCAGCAGC 2.2692208 -1.3291898 -1.474296 0.6647702 1.422817 -1.2969521 -0.60811657 -0.20007147 -1.8063238 3.2448606
GCTGCTGCGC 0.77604616 0.2902369 0.78222 -1.6853107 1.6577916 -1.7587831 -2.5229216 2.0020893 0.52958083 2.4563425
TGCTGCTGCG 0.6392018 0.16883744 0.8871173 -1.5144033 1.808113 -1.6048971 -2.6513402 1.8641728 0.527015 2.5281816
CGCAGCAGCA 2.2230115 -1.4354628 -1.4006351 0.40604368 1.304514 -1.3130839 -0.48933047 -0.09170221 -1.7314911 3.3929238
CCAGGCCTTA 0.13978441 -0.5795985 1.0740452 2.0408823 1.9514661 -2.097547 -1.6708251 -1.4614835 -0.44179168 3.2545235
TAAGGCCTGG 2.4497037 2.5860236 1.4253266 -0.19393021 2.6440456 0.8010068 -0.78908885 0.21969436 -0.13497633 1.8607751
CCGTTGCTCA 2.3096905 1.0166671 2.012066 -0.034244277 2.2301495 -0.9714307 0.9334307 0.39385396 -3.1183376 0.7786651
TGAGCAACGG 0.33601633 -0.69668 1.1329033 1.5766064 2.8170886 -3.3502793 -0.28016338 1.8080174 -0.70076895 -0.55639696
GTTCGCTAAT 1.975502 -1.6155584 -1.1343465 1.1111186 3.908201 -0.39207575 -1.3265007 -0.88097113 0.57214874 0.780813
ATTAGCGAAC 1.3692951 -0.20674726 0.41584253 3.4876094 1.5587648 -0.5921678 1.451457 0.80472285 -0.34724286 2.704236
ACCAGGCCTT -0.006823359 -0.6580607 1.2135518 2.0392008 1.9034213 -2.138464 -1.5142126 -1.3977802 -0.3402538 3.33106
AAGGCCTGGT 2.6326032 2.5322905 1.4591618 -0.2290619 2.7165215 0.7032934 -0.7965524 -0.0326271 -0.1396828 1.8650948
AACCAGGCCT -0.17505819 -0.72793686 1.1548599 1.9972421 1.8763086 -2.1407623 -1.463467 -1.2113445 -0.24636799 3.4540226
AGGCCTGGTT 2.587761 2.6379921 1.2273594 -0.2672045 2.6473868 0.5054213 -0.8327999 -0.24234498 -0.016060246 1.9251839
AGGCCTTACT 0.37085623 -0.44175887 1.1501889 2.2228503 2.2343302 -2.03563 -1.8931549 -1.8327962 -0.5466267 2.99469
AGTAAGGCCT 2.3066022 2.719182 1.7633238 -0.2045547 2.8269475 1.033522 -0.48200178 0.53712916 -0.39099005 2.1407952
GGCCTTACTG 0.5767604 -0.4045722 1.4378121 2.2226698 2.2747054 -1.8016572 -1.8350546 -1.8648493 -0.7284185 2.7873616
CAGTAAGGCC 2.1023324 2.7760406 1.7093426 -0.08105816 2.947746 1.0226915 -0.43619397 0.4954882 -0.5747148 2.1594808
GATGCTGCTG 0.52574176 0.26565132 0.9348619 -1.5907443 2.261733 -1.1300288 -2.8255184 1.6092714 0.4828217 2.4438486
CAGCAGCATC 2.0173492 -1.7287908 -1.4151336 -0.16043521 1.4130559 -1.1281583 -0.5686577 -0.21574068 -1.595955 3.6398463
ATGCTGCTGC 0.59290844 0.15545516 0.92593 -1.6035233 2.0428488 -1.3700746 -2.8472292 1.8140516 0.5901338 2.6007173
GCAGCAGCAT 2.0739138 -1.6886293 -1.4779359 0.06943506 1.4056755 -1.255694 -0.61940926 -0.23427886 -1.5330311 3.6410508
CGTTGCTCAC 2.174513 0.91422516 2.072727 0.090276845 2.4008784 -0.98140895 0.91791457 0.071395755 -3.2739108 0.71184486
GTGAGCAACG 0.33301878 -0.40894696 1.2796807 1.6088908 3.0027547 -3.445491 -0.2095131 1.6877246 -0.4787078 -0.57415223
ATGGGAAGGG 2.472639 2.071311 1.1815375 1.247243 2.8468976 -1.0760251 0.8001003 1.2169398 1.6258448 0.01711202
CCCTTCCCAT 2.023113 -1.932931 -0.4549486 0.40733707 2.8254147 -0.7443556 1.6188935 2.5704367 -0.18938287 0.40781504
GATTAGCGAA 1.2578778 -0.45279527 0.41314995 3.532004 1.5657194 -0.73160875 1.4826832 0.7034471 -0.35962078 2.7557805
TTCGCTAATC 1.9401289 -1.8146672 -1.1201508 1.0581939 3.8974485 -0.29763743 -1.1107773 -0.94955444 0.517126 0.9007424
TCGCTAATCA 1.947868 -1.8330696 -0.97433275 1.1768526 3.8179321 -0.10150734 -0.9854141 -0.8992122 0.6447679 0.95852804
TGATTAGCGA 1.3546364 -0.69934034 0.54192877 3.4131353 1.48769 -0.8323067 1.5734632 0.48702887 -0.3175809 2.7721405
GATGGGAAGG 2.4814987 2.0894666 1.215365 1.1132125 2.7907493 -0.915595 0.80987537 1.171763 1.7288839 0.13969834
CCTTCCCATC 2.2017305 -1.9089506 -0.2663349 0.5995811 2.7428796 -0.6449617 1.6897259 2.553511 0.0017606505 0.4846708
ACAGTAAGGC 2.0694983 2.8586915 1.7198035 0.06623605 2.9906116 0.94441664 -0.40427047 0.47756448 -0.90029055 2.1961248
GCCTTACTGT 0.64791673 -0.57520396 1.5217133 2.355227 2.4338586 -1.5723037 -1.8576616 -1.9035679 -0.76764005 2.6056025
CCTTACTGTT 0.7092542 -0.61821795 1.6030684 2.3814578 2.6746254 -1.3802848 -1.885978 -1.923914 -0.6994862 2.4793212
AACAGTAAGG 2.0456564 2.774315 1.3836238 0.19813332 3.013562 0.9705866 -0.48902774 0.49912822 -1.1443623 2.137897
GCTAATCAAA 1.8469137 -2.1417859 -0.707154 1.2273884 3.8092222 -0.037118174 -0.84147227 -0.9020437 1.1010085 1.07534
TTTGATTAGC 1.3686067 -0.98711145 0.93507195 3.526575 1.5735258 -1.098832 1.4928933 0.23588166 -0.36795217 2.4874382
CGCTAATCAA 1.8604293 -1.9853556 -0.8231709 1.1801826 3.7165506 -0.056121342 -0.93123436 -0.90200335 0.87780267 1.083767
TTGATTAGCG 1.2379359 -0.9183831 0.7174413 3.4808888 1.5969181 -0.9442019 1.5499101 0.4490266 -0.34089798 2.5702708
TGAACCAGGC -0.3232588 -0.6711801 1.5907497 2.144166 1.706817 -2.2595944 -1.2575444 -0.67849 -0.18123575 3.1291485
GAACCAGGCC -0.3738566 -0.6806219 1.4284779 1.9992862 1.6791437 -2.275077 -1.4097129 -0.9919597 -0.16387711 3.3088083
GGCCTGGTTC 2.6272469 2.5122206 1.1258389 -0.3782162 2.6257906 0.48340285 -0.86685073 -0.30791733 0.1577434 1.9750167
GCCTGGTTCA 2.8779285 2.2352448 1.0418265 -0.5034055 2.6869757 0.56217414 -0.95122415 -0.3762774 0.29914686 2.0357256
TGATGCTGCT 0.32490134 -0.1070396 0.98651016 -1.8457229 2.3823817 -1.1305152 -2.9514453 1.475557 0.53185266 2.2990253
AGCAGCATCA 1.8982269 -1.6855171 -1.2728177 -0.48929265 1.547941 -0.89328456 -0.58715135 -0.31327808 -1.5126644 3.6452663
CTAATCAAAG 1.725318 -2.2163167 -0.56723046 1.2425787 3.7335463 0.014399463 -0.78997296 -0.7966733 1.2698982 1.1860532
CTTTGATTAG 1.1914631 -1.0071055 1.0922327 3.5948853 1.6182667 -1.2860693 1.4536037 0.1416663 -0.2925868 2.2627106
CTTACTGTTG 0.8782506 -0.74269253 1.8101544 2.3237236 2.7542448 -1.1886202 -1.7287616 -2.1363864 -0.7507296 2.390663
CAACAGTAAG 2.2492936 2.6940951 1.3492559 0.47986406 3.0829875 0.96578366 -0.6371683 0.6792054 -1.2977264 2.1833193
GTTGCTCACG 2.0929368 0.8044603 2.0819507 0.3108289 2.429046 -1.0578308 1.0743903 -0.173696 -3.2704725 0.82320607
CGTGAGCAAC 0.27897865 -0.2247323 1.3126869 1.4228171 3.0783653 -3.5934818 -0.13536768 1.7238654 -0.28307948 -0.6670777
AGATGGGAAG 2.5381546 1.980147 1.3031988 0.9716041 2.7797377 -0.7989273 0.9811832 1.161831 1.8796072 0.30953342
CTTCCCATCT 2.2684991 -1.9836308 -0.19443205 0.7227697 2.5811448 -0.6186474 1.794657 2.4635894 0.26454854 0.64784175
ATGAACCAGG -0.35782653 -0.52069443 1.6673537 2.1975632 1.6226836 -2.3656902 -1.1912905 -0.46414724 -0.091160014 3.0715158
CCTGGTTCAT 3.0694299 2.040027 1.0548931 -0.658111 2.7313569 0.54000103 -1.0264555 -0.38714483 0.37610897 2.0637145
TCAACAGTAA 2.2851908 2.639327 1.3444874 0.6462548 3.1411393 0.89736307 -0.6820554 0.7008104 -1.5821335 2.058927
TTACTGTTGA 0.88175607 -1.0259703 1.9435853 2.3392575 2.8620021 -0.9771295 -1.6983025 -2.136854 -0.74855494 2.4629085
TTGCTCACGT 2.0961196 0.77138066 1.8804781 0.5208128 2.3451796 -1.1323717 1.1801264 -0.32482067 -3.166362 0.83458126
ACGTGAGCAA 0.22801122 -0.34425566 1.269344 1.4776392 3.1708298 -3.5495203 -0.008022903 1.648767 0.0046601812 -0.6497472
TAATCAAAGA 1.6818144 -2.3491893 -0.48874027 1.3144433 3.700347 -0.03995469 -0.73982716 -0.8106559 1.4002129 1.268466
TCTTTGATTA 1.2542158 -1.124459 1.1800314 3.5299084 1.6767093 -1.4314896 1.5541451 0.07541629 -0.32890496 2.0770357
CTGATGCTGC 0.30336416 -0.009138595 1.102157 -1.8706244 2.74537 -0.99711215 -2.8669748 1.29432 0.62520957 2.2400765
GCAGCATCAG 1.887918 -1.499427 -1.1251183 -0.6899366 1.530622 -0.6327872 -0.28656587 -0.25950992 -1.6449295 3.828878
TACTGTTGAG 0.912869 -1.2182462 1.8841525 2.0822284 2.8202932 -0.9024763 -1.7774807 -2.1350396 -0.8201225 2.431476
CTCAACAGTA 2.1544626 2.4688606 1.1260597 0.8813489 3.183249 0.8630091 -0.7772661 0.7237823 -1.6627023 2.003592
AATCAAAGAA 1.5884033 -2.560282 -0.30777714 1.2933979 3.5993605 -0.1301112 -0.69073474 -0.73229206 1.5021331 1.3662268
TTCTTTGATT 1.2703485 -1.1381801 1.329753 3.5111308 1.62587 -1.656643 1.6441967 0.008283772 -0.34002596 2.0317214
GATGAACCAG -0.4876314 -0.63613445 1.754274 2.146206 1.5575862 -2.5194645 -1.2144299 -0.14571159 -0.024671927 3.0852184
CTGGTTCATC 3.0687242 1.8428077 1.0018405 -0.73223686 2.755845 0.5794428 -1.0773588 -0.43626982 0.60655063 2.0053158
AAGATGGGAA 2.4484816 1.8108187 1.4147576 0.7956428 2.6054482 -0.8103072 1.1649792 1.2226223 1.9767709 0.45432082
TTCCCATCTT 2.2755847 -2.0602844 -0.27794588 0.8155787 2.3915536 -0.5793827 1.8408676 2.369976 0.40513068 0.86781275
CGATGAACCA -0.45708746 -0.55229044 1.9008256 2.2370994 1.4529097 -2.6038318 -1.1668752 0.07856934 -0.025553292 3.1772258
TGGTTCATCG 3.0000725 1.6756063 1.2078409 -0.87258327 2.8426018 0.60894746 -1.1938359 -0.52639186 0.87077737 1.9494314
TCAAAGAATA 1.309253 -2.6581905 0.055992264 1.2914878 3.5090334 -0.21784492 -0.6855656 -0.52621806 1.8309249 1.2632785
TATTCTTTGA 1.2442849 -0.89614207 1.4356183 3.321361 1.4618604 -2.0802305 1.6596805 -0.14644243 -0.4204462 1.8180434
ATCAAAGAAT 1.5139179 -2.5837991 -0.10984955 1.303973 3.5185764 -0.14002728 -0.68897724 -0.63334143 1.6619744 1.3209815
ATTCTTTGAT 1.2340902 -1.0477422 1.3833145 3.4558628 1.6089123 -1.9188416 1.7231857 -0.0743054 -0.37649795 1.853417
TGCTCACGTG 2.155737 0.81737036 1.7681243 0.73281145 2.2311003 -1.2660111 1.4025489 -0.41318357 -3.1639628 0.9844438
CACGTGAGCA 0.3614185 -0.2623992 1.4085869 1.4722544 3.2656348 -3.4599018 -0.025584983 1.5458413 0.21121871 -0.7624924
AAAGATGGGA 2.4843116 1.774667 1.6019866 0.76355016 2.6515694 -0.8859616 1.3568434 1.235984 2.1687593 0.5500938
TCCCATCTTT 2.4068131 -2.1001425 -0.32116878 1.0696936 2.2547393 -0.5363526 1.9060527 2.2042007 0.48754942 1.089126
TTGCTGATGC 0.41652802 0.23235941 1.6354996 -1.8115664 3.0173116 -0.58038396 -2.5285506 1.4187922 1.0473827 1.7379489
GCATCAGCAA 1.9415087 -1.7027482 -0.56302625 -0.7788389 1.351047 0.066845834 0.18760295 -0.21801636 -1.2945452 4.083412
GCTGATGCTG 0.15697177 0.072260946 1.3223096 -1.658234 2.858368 -0.8607209 -2.86422 1.2118975 0.8530003 2.1035473
CAGCATCAGC 1.9335666 -1.6019483 -0.8645232 -0.916942 1.4082468 -0.35230383 -0.07847789 -0.13787772 -1.5186964 4.0054393
CAAAGAATAT 1.1927924 -2.6396327 0.25277445 1.3579669 3.3482738 -0.27247846 -0.7449271 -0.49323657 1.9188572 1.2231838
ATATTCTTTG 1.2822077 -0.86851287 1.4566406 3.2009957 1.4036992 -2.2213283 1.7252371 -0.35582742 -0.43210387 1.7928684
ATGTGGCGAT 2.4080803 0.75663036 0.12203507 -0.6194109 1.4697593 -3.873108 1.0890307 0.6582742 -0.22265263 0.041389413
ATCGCCACAT 0.7213607 1.402799 -1.8609958 0.7424309 1.7728075 -1.6428527 0.061202884 -0.7937402 0.04358058 3.306427
ACTGTTGAGC 0.77651775 -1.3981965 1.9212985 1.78863 2.856319 -0.85458845 -1.7249861 -2.235914 -0.7731684 2.4441783
GCTCAACAGT 2.120558 2.473299 1.1107215 1.1154802 3.1403892 0.68542427 -0.7097284 0.6704721 -1.7731055 1.9999074
AGCATCAGCA 2.029231 -1.6831515 -0.7022982 -0.72112715 1.309331 -0.18026023 0.06282911 -0.18408734 -1.4134635 3.946008
TGCTGATGCT 0.37057725 0.1616323 1.4387276 -1.8047091 3.0425668 -0.6918046 -2.7509875 1.3315336 0.83901846 1.9158078
GTTTGTTATG 1.8910922 -0.86400557 2.3381593 -2.3751886 0.9634783 -1.8401899 1.0555598 1.7536365 0.64450425 1.5249373
CATAACAAAC 0.1255529 1.6917032 -0.036823694 2.7397404 2.964235 -1.4869248 -1.4649566 0.98626304 0.396003 1.5148784
CTGTATGTGG 2.1142414 0.7933783 0.8482343 -1.1856172 0.9913701 -3.9493058 1.0189905 0.69831467 0.045202874 0.5471395
CCACATACAG 1.1819052 1.8807349 -1.3991395 1.5248195 2.0483088 -1.0437346 -0.35666385 -0.8683551 0.44848964 3.077553
TATGTGGCGA 2.3793354 0.7884509 0.31560913 -0.75128126 1.304352 -3.951534 1.0967369 0.61647284 -0.12471416 0.24175148
TCGCCACATA 0.9183878 1.6797221 -1.7143822 0.95150065 1.8350656 -1.5667733 -0.17988382 -0.8048495 0.10325431 3.222689
TTTGTTATGT 1.7800796 -0.8373808 2.4034064 -2.444404 0.87481356 -1.9735929 1.0572022 1.5748315 0.54770714 1.6432412
ACATAACAAA 0.094072156 1.8709768 0.0046401685 2.6969345 2.9139643 -1.4708009 -1.3438604 0.7939652 0.47603616 1.5495874
CCTGTATGTG 2.0434573 0.5072123 1.1302358 -1.0735729 0.9123213 -3.8165119 1.1650604 0.8103624 0.16481112 0.5478079
CACATACAGG 1.2675769 1.9060756 -1.2210412 1.7189702 2.111418 -0.91489154 -0.47064546 -0.9808754 0.7135073 3.100845
TGTATGTGGC 2.3531036 0.6771293 0.6435111 -1.063528 1.079457 -4.0523443 1.0133404 0.66102964 -0.017681828 0.4905122
GCCACATACA 1.099368 1.848244 -1.4779055 1.3251351 1.8844256 -1.2068763 -0.23370233 -0.8163304 0.30276406 3.163267
GTATGTGGCG 2.4123557 0.7734571 0.43966076 -1.032707 1.186653 -3.97311 0.9670469 0.6276458 -0.07499464 0.38946092
CGCCACATAC 1.0180888 1.7793808 -1.6591684 1.1721362 1.8435903 -1.4395157 -0.19805036 -0.72633135 0.2270718 3.1862974
GCGATGAACC -0.55739224 -0.67079765 1.8696558 2.1627917 1.4888163 -2.744409 -1.1390791 0.28554052 0.08993753 3.2041266
GGTTCATCGC 3.032539 1.3373631 1.114548 -0.9121945 2.9400883 0.69708806 -1.0653808 -0.43587133 1.1146315 2.0564823
TTGTTATGTC 1.8656933 -0.78973746 2.3419456 -2.452713 0.7972902 -2.0974882 1.2461296 1.3557043 0.37482297 1.7291918
GACATAACAA 0.15374276 2.0628183 0.01536451 2.710952 2.9475093 -1.3761141 -1.1335398 0.5745097 0.46356556 1.6334172
GGCGATGAAC -0.47075897 -0.4967773 1.8316481 1.9555355 1.4643401 -2.9301999 -0.9077583 0.3234996 0.10714815 3.0963967
GTTCATCGCC 3.0231466 1.2184072 1.1607254 -1.095692 2.9329782 0.74095076 -1.2274295 -0.3748869 1.4339155 2.11779
GCTCACGTGT 2.2316766 0.77838635 1.664629 1.0317162 2.2251697 -1.3339342 1.6770147 -0.4547725 -3.0190165 1.0714148
ACACGTGAGC 0.3468834 -0.53801 1.4345785 1.5361713 3.1560206 -3.244099 -0.0859704 1.5594033 0.46957728 -0.78387415
CAAAGATGGG 2.354369 1.6708969 1.6127092 0.54507065 2.5033522 -0.8560333 1.5185739 1.2836052 2.2452197 0.6053321
CCCATCTTTG 2.5292475 -2.0728912 -0.37374398 1.3210008 2.2159045 -0.49904087 1.8724856 2.0464478 0.49937606 1.3604233
AAAGAATATT 1.1446117 -2.4846818 0.4002963 1.309961 3.288561 -0.248103 -0.7647057 -0.4442528 2.030462 1.1732546
AATATTCTTT 1.4342474 -0.76271385 1.3617598 3.032743 1.3364338 -2.303253 1.719977 -0.5147961 -0.4991991 1.8360242
CATCGCCACA 0.6773726 1.3152565 -1.9746484 0.71301 1.8002853 -1.81902 0.080642894 -0.72405756 0.055759966 3.3894453
TGTGGCGATG 2.4667332 0.66302925 0.0030250927 -0.32349917 1.5169451 -3.7916694 1.0801039 0.6884957 -0.21190645 -0.07090345
CTGTTGAGCT 0.84768116 -1.5649592 1.848058 1.5467819 2.8369877 -0.8238784 -1.6998866 -2.3882062 -0.90916973 2.42677
AGCTCAACAG 2.106744 2.4121108 0.8414011 1.385475 3.1461418 0.6157522 -0.7303603 0.58299434 -1.9595613 1.9527665
TGTTGAGCTA 0.794718 -1.5487767 1.9007808 1.3697908 2.948665 -1.0258039 -1.7516923 -2.242935 -1.0671836 2.3900547
TAGCTCAACA 1.9711872 2.3040216 0.74393797 1.3193992 3.1199443 0.5700846 -0.78886783 0.6888591 -1.9688058 2.050186
ATAGCAATCC 0.966749 1.618982 -0.4792055 1.2893366 1.9479275 -1.3914666 -2.454696 1.9268967 0.21196869 2.3603337
GGATTGCTAT 2.92591 -0.75498384 1.4822482 -1.2721345 1.4217412 -0.7270179 0.30731443 3.0808547 0.91218823 1.2049915
GATTGCTATG 2.9191563 -0.773055 1.576679 -1.4222201 1.4091753 -0.6760729 0.4779997 3.0020401 0.7729409 1.2507052
CATAGCAATC 1.0385743 1.7847011 -0.37167794 1.2761183 2.0782228 -1.4102939 -2.490115 1.7901044 0.16632931 2.1725318
TGGCGATGAA -0.4459911 -0.38932064 1.975271 1.9012424 1.3934081 -2.9853036 -0.86673 0.28962323 0.17942975 2.7489626
TTCATCGCCA 2.9079769 1.0376904 0.9878742 -1.1578835 2.7700105 0.7430163 -1.1525981 -0.23126425 1.5420252 2.192308
TTTGCTGATG 0.6770585 0.17263985 1.7869563 -1.6660265 3.0889657 -0.48264557 -2.5608075 1.6230711 1.0211152 1.5749639
CATCAGCAAA 1.9105886 -1.7219952 -0.39834198 -0.6741166 1.4811921 0.2189482 0.30284935 -0.43040687 -1.1695104 4.1458855
CTCACGTGTA 2.2075596 0.7349317 1.7009349 1.2576046 2.1415122 -1.2971439 1.9722008 -0.27139807 -2.7332585 1.2101674
TACACGTGAG 0.37581724 -0.73566437 1.3674827 1.5378169 3.1503832 -3.2104456 -0.0048332727 1.355855 0.76111865 -0.6763192
TGTTATGTCA 1.9514536 -0.6942473 2.3056462 -2.3930738 0.71160156 -2.1434302 1.3836963 1.1589581 0.33384344 1.7579412
TGACATAACA 0.10266345 2.1633961 0.12676941 2.7741628 3.0383554 -1.4341577 -0.9668751 0.385291 0.4067042 1.619471
GGCGATGGCG 2.57234 0.56866 -0.3774588 0.25558686 1.7766145 -3.774456 0.882353 0.85923356 -0.45458192 -0.28932598
CGCCATCGCC 0.897016 0.8916317 -2.2050402 0.14692841 1.7432209 -2.259454 0.045935884 -0.8427019 0.074508645 3.3049288
CCATCTTTGA 2.612898 -2.1037986 -0.3625473 1.385186 2.0451868 -0.6241329 1.8528572 1.93005 0.4866055 1.4860793
TCAAAGATGG 2.2446108 1.3605177 1.5646764 0.47509617 2.4930496 -0.8703635 1.6762806 1.3426126 2.3586826 0.71601516
ATAACAAACA 0.24525256 1.6090319 0.020439105 2.653942 2.7977817 -1.5266279 -1.7130297 1.1600142 0.36358467 1.519475
TGTTTGTTAT 1.9261003 -0.8486507 2.3126535 -2.4119885 1.0228461 -1.6700131 0.9321122 1.9150794 0.6835994 1.5000932
TCCTGTATGT 1.9047328 0.39773697 1.3752913 -1.192016 0.81027097 -3.9218185 1.1421472 0.8475609 0.29089424 0.7646367
ACATACAGGA 1.0770772 1.8519386 -1.076204 1.8800365 2.2294052 -1.0596964 -0.45765388 -1.1441729 0.7944871 3.0163746
GTGGCGATGA -0.50132763 -0.39282805 1.9451705 1.8484964 1.6049418 -3.3457725 -0.7520238 0.13852191 0.076101646 2.964619
TCATCGCCAC 2.8131506 0.84414446 0.7972676 -1.1191852 2.8564098 0.5826453 -1.1691425 -0.37832808 1.6088213 2.162502
GTTGAGCTAT 0.8855802 -1.4708881 2.0679932 1.1517185 2.7574792 -1.0640459 -1.6838243 -2.2008357 -1.2841853 2.1843846
ATAGCTCAAC 1.7502625 2.2092433 0.8594864 1.423552 3.033689 0.5741725 -0.6840669 0.8564374 -2.14032 2.04403
AAGAATATTC 1.0443745 -2.5023382 0.51110005 1.4032005 3.2585897 -0.19421276 -0.49846634 -0.24585174 2.1969194 1.2703636
GAATATTCTT 1.5953336 -0.7786331 1.266746 2.8426332 1.2687514 -2.4137497 1.723547 -0.7775092 -0.5320218 1.9509637
ATTTGCTGAT 0.94532055 0.15081187 1.8016305 -1.7017212 3.1328287 -0.3166987 -2.538606 1.7167791 0.9358216 1.5142738
ATCAGCAAAT 1.7806003 -1.7238524 -0.39760935 -0.5906386 1.4618099 0.2640428 0.2822063 -0.31557095 -1.0776726 4.2096267
GCAGGGATTG 2.689721 -0.4243993 1.3633962 -0.81071764 1.7105043 -0.8289561 -0.03642496 2.9873416 1.4703617 0.69051635
CAATCCCTGC 1.3308692 0.9487558 -0.48600647 1.6087002 1.5279459 -1.0081166 -2.39976 1.7114682 -0.04941557 2.8505409
GCAATCCCTG 1.2103559 1.1828386 -0.5920377 1.527354 1.6853755 -1.0447006 -2.3003347 1.829816 -0.022318266 2.7744288
CAGGGATTGC 2.7981944 -0.6271156 1.3785164 -0.9551432 1.6222277 -0.85541844 0.0019487572 3.0474885 1.3104397 0.7876626
GCGATGGCGG 2.5549405 0.55619663 -0.4582664 0.4840697 1.8812938 -3.7587726 0.8963041 0.7287681 -0.5410138 -0.2857455
CCGCCATCGC 0.8799105 0.72713727 -2.2706902 -0.04622454 1.8132926 -2.2976325 0.1880728 -0.86051345 0.09786047 3.352112
TCACGTGTAA 2.3243783 0.8182724 1.7423141 1.4972435 2.1693127 -1.26599 2.262303 -0.18749085 -2.5669515 1.1994313
TTACACGTGA 0.44885483 -0.8920705 1.2196624 1.6470567 3.0629687 -3.1915784 -0.037741736 1.2748874 1.0040268 -0.66828334
GCTATGTTTG 2.4616752 -0.8887704 2.1121814 -1.9391717 1.0966836 -1.0172272 0.75592005 2.324737 0.6677867 1.4731567
CAAACATAGC 0.43994117 1.6589197 -0.069041274 1.9065806 2.582092 -1.6966808 -2.318186 1.5440675 0.46505627 1.5993451
ATGTTTGTTA 2.0543594 -0.8142353 2.3417494 -2.244484 1.0571125 -1.4102247 0.9632549 1.9950535 0.703925 1.5037769
TAACAAACAT 0.2738428 1.5450107 -0.07525821 2.5693464 2.773218 -1.5740123 -1.8283565 1.210871 0.3533251 1.4731368
CTCCTGTATG 1.8751837 0.22217986 1.5147749 -1.254822 0.7970831 -3.9215262 1.2520262 0.76750875 0.34824315 0.7814113
CATACAGGAG 0.8393405 1.6516598 -1.0021542 2.1082861 2.3603468 -1.0778888 -0.5521397 -1.1534929 0.77556133 2.8635983
CACGTGTAAA 2.4721382 0.95775944 1.7339734 1.5603654 2.1823633 -1.2740785 2.362495 -0.15172869 -2.2696118 1.1738718
TTTACACGTG 0.47724292 -0.94424856 1.1410742 1.7310119 3.0032957 -3.1980255 -0.018394867 1.0147895 1.2296698 -0.5530418
GGCAGGGATT 2.6390884 -0.33839574 1.327426 -0.6961458 1.8040035 -0.9327961 -0.19518222 2.8841708 1.6194679 0.5229317
AATCCCTGCC 1.3452945 0.67126226 -0.44145074 1.6193423 1.5055346 -0.87698495 -2.4753206 1.6368837 -0.16813517 2.895021
CTATGTTTGT 2.320219 -0.95574653 2.2355385 -2.0757024 1.0895498 -1.167096 0.90985 2.2379003 0.6352408 1.4695653
ACAAACATAG 0.38754338 1.6134313 -0.13027261 2.1104212 2.7091324 -1.7444762 -2.1766646 1.4522308 0.48971617 1.4887611
GTTATGTCAC 2.032485 -0.5424072 2.2881625 -2.2946239 0.7240403 -2.2491744 1.5676633 0.9837012 0.25030008 1.6834277
GTGACATAAC 0.046220303 2.168199 -0.023591932 2.794955 2.991083 -1.4194316 -0.7766543 0.2613168 0.3233474 1.7345208
GATGGCGGTA 2.3429058 0.67687404 -0.62963957 0.70879054 2.1111453 -3.5710123 0.9224578 0.5708157 -0.7939216 -0.3195004
TACCGCCATC 0.9832343 0.47022822 -2.3026426 -0.5397118 1.824502 -2.5156882 0.28371817 -0.8384247 0.24026671 3.263436
TTCAAAGATG 1.9979428 1.2724576 1.6683433 0.39002192 2.3016086 -0.929236 1.6263593 1.4233766 2.4839242 0.85825294
CATCTTTGAA 2.7345448 -2.1154704 -0.32143137 1.2451621 1.8359559 -0.8611372 1.8425797 1.773798 0.573428 1.4263233
AGGGATTGCT 2.9045684 -0.7323446 1.3416487 -1.0176007 1.5611442 -0.7968888 0.06197837 3.1632261 1.0708184 0.9409842
AGCAATCCCT 1.1783121 1.3628793 -0.5435487 1.4165077 1.7200853 -1.2123761 -2.3631656 1.9904926 0.118323945 2.6752458
TATGTTTGTT 2.109861 -0.82932574 2.320715 -2.2192755 1.0663766 -1.3243896 0.8576231 2.1845367 0.61738795 1.5763459
AACAAACATA 0.36134103 1.5478672 -0.061829854 2.3300602 2.681315 -1.7073835 -1.9500349 1.3597345 0.5496242 1.4277747
CACTCCTGTA 2.2079837 -0.19653463 1.7131689 -1.5035089 0.85362893 -3.6726003 1.2950433 0.6150364 0.6074713 0.9042532
TACAGGAGTG 0.40138775 1.580549 -0.90589905 2.5553045 2.6989703 -1.3261659 -0.43827677 -1.1071134 0.19738257 2.5798013
ACTCCTGTAT 2.0583634 0.14762038 1.6222045 -1.3845004 0.8126373 -3.760702 1.210955 0.6660407 0.45122805 0.8344353
ATACAGGAGT 0.60057753 1.5829929 -0.90765476 2.361483 2.500481 -1.3755853 -0.4862791 -1.3118898 0.4596251 2.7369235
CGATGGCGGT 2.426044 0.60981905 -0.58117694 0.557465 2.0014954 -3.6519556 0.93045497 0.69856864 -0.6852871 -0.33825746
ACCGCCATCG 0.931956 0.6132518 -2.2763479 -0.3255128 1.8038013 -2.394098 0.24451299 -0.9040744 0.14922257 3.2620564
GGGATTGCTA 2.9534485 -0.67463154 1.3779172 -1.1133828 1.5321006 -0.7321814 0.20240434 3.1529315 0.9489366 1.0776932
TAGCAATCCC 1.1108096 1.5405977 -0.6591866 1.3008732 1.8827035 -1.3732486 -2.39412 2.05461 0.13943611 2.5902877
ATTGCTATGT 2.9171636 -0.7655814 1.7115214 -1.5858998 1.3232846 -0.635895 0.52677995 2.823378 0.7243803 1.385386
ACATAGCAAT 0.7952518 1.6889653 -0.13758557 1.3800329 2.285218 -1.4186065 -2.6090088 1.8102999 0.21090399 1.9828305
TATGTCACTC 2.144494 -0.3623714 2.324585 -2.1023273 0.74255234 -2.5766118 1.6823072 0.6609436 0.4438627 1.4903637
GAGTGACATA 0.019971086 2.155757 -0.11119582 2.8072903 3.001096 -1.5818166 -0.6321995 -0.25240588 0.28152016 1.9191468
ATGTCACTCC 2.1598957 -0.25875413 2.2403162 -1.9828728 0.807969 -2.8034694 1.6708776 0.53089535 0.54436773 1.2511103
GGAGTGACAT 0.0587424 1.9600273 -0.3712823 2.732571 2.9133642 -1.5175726 -0.6026841 -0.45177042 0.20170735 2.1028159
AGAATATTCA 0.99555695 -2.3498316 0.6492098 1.5543487 3.2540135 -0.18015634 -0.36560315 -0.24061033 2.3486705 1.3320475
TGAATATTCT 1.7307677 -0.7017493 1.2402464 2.7122834 1.1757817 -2.5473983 1.632829 -0.9359372 -0.61577713 1.9557122
TTGAGCTATA 0.86793387 -1.5564439 2.0608428 1.0420387 2.789672 -1.1012956 -1.7409762 -2.080751 -1.5114549 2.1932433
TATAGCTCAA 1.5973687 1.9726255 0.9563426 1.6157176 3.1152499 0.66174394 -0.57139 0.98017085 -2.2591906 2.0386972
AATATTCAGT 0.90253484 -1.9615617 0.9092547 1.7093489 3.1613927 -0.21129268 -0.31032807 -0.43961006 2.5954318 1.5064181
ACTGAATATT 1.8633008 -0.5245673 1.2966802 2.445079 1.0649947 -2.7034857 1.4037149 -1.001428 -0.83074266 1.7652612
GGTTCTGTGG 2.6387017 0.4926476 0.5439927 -1.0028211 2.5332937 -1.6358787 -0.6472852 2.2578971 2.0564013 -0.04135079
CCACAGAACC 1.1413984 -0.67236805 -0.07902475 1.4087758 1.4761039 -0.076796085 -2.3244145 1.101465 -0.7335585 3.4545226
TGTGGCAGGG 2.7048938 -0.06351253 1.2262969 -0.5481362 2.1088586 -0.89360785 -0.3882992 2.6263318 1.7857783 0.18490812
CCCTGCCACA 1.5299424 0.118723996 -0.46673733 1.6767172 1.5133642 -0.5540393 -2.450879 1.3796914 -0.31949365 3.102758
TTGCTATGTT 2.6073208 -0.8195083 1.8793256 -1.7144408 1.2876494 -0.76374996 0.6443012 2.6485834 0.77584445 1.3169204
AACATAGCAA 0.7037124 1.6718612 -0.20380713 1.5371976 2.4015148 -1.4933907 -2.4982088 1.6637434 0.24953389 1.7781805
TGTCACTCCT 2.1930625 -0.21310179 2.1521175 -1.8313332 0.7915705 -2.9488688 1.6384177 0.5253396 0.58764046 1.1722435
AGGAGTGACA 0.17332181 1.8821065 -0.439426 2.7500827 2.9019208 -1.4322497 -0.57855844 -0.66785973 0.15296948 2.1983943
ATATTCAGTC 0.8111815 -1.8021854 1.0929472 1.8546612 3.036574 -0.32372525 -0.3511494 -0.5147629 2.7212825 1.5885583
GACTGAATAT 1.8720866 -0.41828766 1.5586249 2.3343594 1.1388221 -2.8957531 1.2477028 -1.1573116 -0.89260477 1.6415712
GTTCTGTGGC 2.5890486 0.39048514 0.6656369 -0.8909648 2.413258 -1.390088 -0.5448295 2.3114586 1.9765556 -0.034357905
GCCACAGAAC 1.1969945 -0.40698516 -0.14631839 1.455096 1.5358338 -0.14988536 -2.4082778 1.0665458 -0.65841174 3.3932252
CTGTGGCAGG 2.706352 0.0023599768 1.0486814 -0.59852797 2.1499243 -0.9893901 -0.45761043 2.4677541 1.8108588 0.0128403455
CCTGCCACAG 1.378998 0.0058677616 -0.3494654 1.6519413 1.5517567 -0.4082316 -2.4982708 1.2155657 -0.39408377 3.1374261
TTATGTCACT 2.019279 -0.4568694 2.3060071 -2.2300436 0.72807354 -2.4031389 1.6529121 0.77178 0.2932415 1.5949526
AGTGACATAA 0.018449502 2.2307584 -0.04995988 2.7935088 3.015422 -1.5327895 -0.6948705 0.01550374 0.3630213 1.8357059
TCACTCCTGT 2.216067 -0.122585334 1.8763443 -1.7447513 0.8658329 -3.4682279 1.4683661 0.4793706 0.57032627 0.99537003
ACAGGAGTGA 0.33980253 1.6786864 -0.7186734 2.6842809 2.757496 -1.3854901 -0.49152356 -0.96980566 0.14329712 2.5221953
TATTTGCTGA 1.0121659 0.08226022 2.031397 -1.3614854 3.0378144 -0.18273239 -2.561017 1.755591 0.8846724 1.3461348
TCAGCAAATA 1.5130762 -1.7612939 -0.50158733 -0.38944808 1.4825164 0.31655255 0.19778185 -0.20916587 -0.87851816 4.46449
GAATATTCAG 0.9321579 -2.193151 0.8179277 1.6801178 3.1294014 -0.18231766 -0.37082636 -0.32698318 2.532819 1.4061812
CTGAATATTC 1.7597641 -0.6466671 1.2764372 2.5604105 1.1250688 -2.697699 1.502355 -0.9018332 -0.80389816 1.7477869
AAACATAGCA 0.5650648 1.6462597 -0.08749024 1.7441162 2.4675348 -1.6259028 -2.43291 1.6558659 0.31740832 1.6613288
TGCTATGTTT 2.5411627 -0.89873296 1.9730738 -1.8248888 1.1693624 -0.83527726 0.6878295 2.5449302 0.7141796 1.4273765
GTCACTCCTG 2.2089899 -0.18666258 2.0507255 -1.8113093 0.85324794 -3.1960752 1.5391692 0.44398427 0.6070373 1.0842029
CAGGAGTGAC 0.15912373 1.7541869 -0.5812504 2.7503178 2.8758285 -1.4598788 -0.53655875 -0.83230686 0.12513214 2.3354595
TCTGTGGCAG 2.7164137 0.092009105 0.9512927 -0.71296585 2.2786114 -1.1300727 -0.45576933 2.4547734 1.8648428 -0.017869974
CTGCCACAGA 1.373405 -0.17407115 -0.32363272 1.5239712 1.451331 -0.3861739 -2.4706495 1.1957966 -0.5336003 3.2534492
GTGGCAGGGA 2.600122 -0.20105194 1.3056489 -0.49382493 1.9526329 -0.98211336 -0.37038475 2.8098838 1.7844586 0.29739416
TCCCTGCCAC 1.5241157 0.35204723 -0.44890228 1.6661023 1.4920638 -0.72419155 -2.5068884 1.4920187 -0.27113655 3.095114
ATGGCGGTAA 2.2979226 0.7411887 -0.785548 0.82572967 2.2463057 -3.523897 0.95961237 0.56375545 -1.0392212 -0.27217805
TTACCGCCAT 1.0274638 0.38666424 -2.4482288 -0.7800121 1.9007186 -2.5873873 0.33304194 -0.6466937 0.41356793 3.1696956
TGGTGGCGAT -0.60432893 -0.4365054 1.9314868 1.6807395 1.8210135 -3.4822276 -0.5329632 -0.01261526 0.34132865 3.021312
ATCGCCACCA 2.5627334 0.47046536 0.4329119 -0.9637944 2.8665562 0.36896816 -1.2603649 -0.64876235 1.9091434 2.1227598
ACGTGTAAAT 2.4763908 1.1156236 1.7204174 1.4536724 2.0972228 -1.2159959 2.547048 -0.19365735 -2.0871198 1.1594267
ATTTACACGT 0.5796555 -1.1512426 1.2275662 1.7750919 2.996796 -3.2731261 0.14918575 0.8229061 1.3937608 -0.48788843
CTTCAAAGAT 1.8930357 1.2030998 1.7473277 0.333031 2.1720145 -1.0333185 1.5742267 1.4148418 2.6539912 1.0277001
ATCTTTGAAG 2.7141433 -2.1178334 -0.46747482 1.1381876 1.6143805 -1.145396 1.8564005 1.7057015 0.594593 1.5927958
TTCTGTGGCA 2.5795674 0.2039028 0.9302667 -0.78639334 2.352495 -1.3206897 -0.5712879 2.350044 1.9573061 -0.049921006
TGCCACAGAA 1.3586746 -0.32108143 -0.24307846 1.5414926 1.5069288 -0.2742258 -2.4371781 1.1748258 -0.5839305 3.3794987
CTGGTGGCGA -0.77798563 -0.5729371 2.1001182 1.2867726 1.928598 -3.1512136 -0.42686847 0.022967778 0.61436564 2.917783
TCGCCACCAG 2.6212127 0.24662623 0.46927986 -1.1357121 2.9269133 0.3739613 -1.3089904 -0.7600232 2.194095 2.205589
TGAGCTATAC 0.88879573 -1.4831474 2.1597145 0.8466871 2.7325358 -1.0556971 -1.8263698 -1.9739027 -1.7533832 2.146542
GTATAGCTCA 1.3778367 2.0562816 0.920532 1.7058433 3.125915 0.5243337 -0.34809297 1.0412157 -2.3715947 1.9141018
TATTCAGTCG 0.8945316 -1.5078163 1.164873 1.7998154 2.875049 -0.38039258 -0.49864283 -0.6579431 2.638641 1.6248338
CGACTGAATA 1.9068402 -0.37861714 1.6994381 2.2320724 1.1136204 -3.0723357 1.1433148 -1.0797819 -0.99415475 1.4508121
TGGCAGGGAT 2.6251738 -0.23490705 1.3611536 -0.62188953 1.8879522 -0.94919586 -0.2606857 2.9350476 1.6428647 0.3888348
ATCCCTGCCA 1.525778 0.48390958 -0.53617024 1.6590655 1.5271161 -0.79040647 -2.4329329 1.6066436 -0.21309532 3.0395443
ATTCAGTCGT 0.909559 -1.4646411 1.3758754 1.7526544 2.8034167 -0.50020695 -0.6957062 -0.8301421 2.7322342 1.781016
ACGACTGAAT 1.9628991 -0.20713586 1.9116011 2.1041923 1.1572219 -3.1863537 1.199237 -1.1880015 -1.0258754 1.4862981
CGTGTAAATG 2.5240116 1.2047819 1.6346688 1.3667864 2.273119 -1.2381676 2.723222 -0.17912483 -1.8529717 1.0660295
CATTTACACG 0.7188155 -1.0775669 1.2149638 1.5831755 3.0302947 -3.3585389 0.2920364 0.65822554 1.5012922 -0.43225744
GTGTAAATGA 2.5210555 1.5065196 1.5473223 1.3782278 2.4071548 -1.1423752 2.6150768 -0.30323112 -1.6950401 1.0001738
TCATTTACAC 0.6593345 -0.9189648 1.1610618 1.5285648 3.1073964 -3.3829992 0.34193945 0.392779 1.6245438 -0.5366123
TGGCGGTAAC 2.154668 0.9164352 -0.74913347 0.87901056 2.3800812 -3.4060476 0.8388936 0.44779232 -1.1416047 -0.27455923
GTTACCGCCA 0.9823465 0.32113025 -2.3474472 -1.0282708 1.8904705 -2.5272918 0.42470092 -0.6089813 0.5050445 3.1057496
AACTGGTGGC -0.9437908 -0.84597856 2.3678608 1.1119219 2.1269639 -2.95522 -0.23803946 0.12357314 0.77467716 2.9339533
ACTGGTGGCG -0.8475588 -0.77068514 2.2488847 1.1775465 1.921249 -3.2043278 -0.3220741 0.02264342 0.5694089 2.9507394
CGCCACCAGT 2.6381793 -0.016483553 0.3634821 -1.1247354 3.0510485 0.3315326 -1.3410435 -0.71549016 2.1803753 2.0561056
GCCACCAGTT 2.6624298 -0.27334625 0.3068655 -1.1029699 3.0321956 0.24470252 -1.3499908 -0.6655978 2.1279147 1.9938419
TGTAAATGAA 2.3444517 1.7313764 1.3829112 1.1991634 2.50924 -1.1375941 2.7093267 -0.45564908 -1.5538704 0.98887473
TTCATTTACA 0.7354647 -0.85396063 0.9667371 1.2914014 3.243442 -3.2555406 0.38580805 0.2989945 1.6425649 -0.536052
CCTTCAAAGA 1.8347842 1.0499625 1.7356306 0.17604543 2.2466261 -0.93127954 1.4557143 1.3733436 2.8145454 1.1929007
TCTTTGAAGG 2.879855 -2.0366669 -0.5253263 0.9093001 1.5417378 -1.25528 1.8844866 1.6736082 0.60715914 1.6885995
TCGGTTCTGT 2.4780169 0.8250667 0.49889976 -1.2275815 2.6521397 -1.6026219 -0.70262873 1.9959707 2.2248433 0.06520427
ACAGAACCGA 0.9851319 -0.87411207 0.18776436 1.3554933 1.5884237 0.14198348 -2.2379203 1.0404533 -0.9292837 3.6007087
CACAGAACCG 1.0996983 -0.7599451 -0.020486297 1.3768399 1.5903496 0.010280072 -2.2774708 1.0503899 -0.8814345 3.4952354
CGGTTCTGTG 2.5464802 0.65519094 0.53770596 -1.0737481 2.59763 -1.5449443 -0.6882228 2.0836565 2.2053947 0.01653832
CTATTTGCTG 1.2427436 -0.08407293 2.13219 -1.1669383 3.106407 -0.07977176 -2.5237775 1.7751093 0.793464 1.2919601
CAGCAAATAG 1.3712091 -1.9480504 -0.50142795 -0.5869393 1.6020408 0.28655356 0.14676885 -0.015858805 -0.74412817 4.4813604
TTCAGTCGTA 1.0038319 -1.2697084 1.4503089 1.6529571 2.6706188 -0.52307516 -0.93233484 -0.7697404 2.7106595 1.8201842
TACGACTGAA 1.8391205 0.019758811 2.0815666 1.949505 1.122645 -3.1968377 1.1181533 -1.0260801 -0.964389 1.352196
TAGCGTTACA 0.9469294 0.38228542 1.8749076 1.787977 2.9738061 -1.0286645 -1.4794112 -0.34758118 2.4104795 0.79498494
TGTAACGCTA 1.3057399 1.5607047 1.723247 1.3075215 1.0964773 -3.8325143 0.06712523 -0.40867645 -0.85547674 1.2145121
GAGCTATACT 0.8774543 -1.675663 2.326076 0.70998275 2.6852915 -1.1102443 -1.8799412 -1.8391945 -1.76659 2.1860688
AGTATAGCTC 1.2547271 1.7381871 0.92712677 1.7869973 3.0886323 0.5358846 -0.34852982 0.99750155 -2.5547018 2.0204113
TCGTAGCGTT 1.010458 -0.28493157 1.6532763 1.7458454 2.617186 -1.0084134 -1.5772794 -0.35839367 2.6422877 1.286461
AACGCTACGA 1.4888577 1.2035139 2.0283456 1.5294651 1.1556449 -3.6533697 0.689608 -0.742571 -0.7866793 1.1805238
CGTAGCGTTA 0.9357695 -0.0972921 1.7328203 1.7074425 2.64796 -1.0204207 -1.6231453 -0.3194426 2.5721834 1.0967672
TAACGCTACG 1.36925 1.2905383 1.8914992 1.486514 1.095796 -3.708807 0.5106822 -0.59824365 -0.80181307 1.1805127
GTAGCGTTAC 0.9322912 0.16452299 1.8068109 1.7180016 2.7364352 -1.0611228 -1.58371 -0.32112548 2.5052555 0.92104656
GTAACGCTAC 1.2583497 1.4642617 1.7725203 1.3205107 1.0602874 -3.7329078 0.3460657 -0.5036385 -0.7993357 1.2279567
TCAGTCGTAG 1.0312986 -1.1492947 1.5831833 1.6521455 2.6187878 -0.6368794 -1.1237864 -0.6819372 2.8029406 1.8036711
CTACGACTGA 1.7523177 0.2691155 2.1446645 1.8333249 1.1126235 -3.3411899 1.0795922 -0.97007185 -0.89691406 1.3136077
AGTCGTAGCG 1.0643736 -0.7597391 1.5946997 1.5984696 2.5517964 -0.788183 -1.4373893 -0.54832256 2.6254435 1.5057778
CGCTACGACT 1.4934639 0.7018362 2.155678 1.7263948 1.1238639 -3.4091344 0.8982655 -0.77143043 -0.8281749 1.1917129
GGCGGTAACC 2.0434299 0.9652024 -0.8378249 1.0290363 2.5704062 -3.30162 0.8405963 0.30594516 -1.2955287 -0.29702842
GGTTACCGCC 0.97312903 0.4150816 -2.257564 -1.2907581 1.8910775 -2.4959705 0.39636454 -0.4547158 0.6764322 3.0249083
TCTATTTGCT 1.5025239 -0.42663634 2.2152915 -1.2097769 3.0023744 0.13685478 -2.453378 1.8123386 0.67696923 1.2907665
AGCAAATAGA 1.163694 -2.0865855 -0.48146525 -0.5592746 1.868575 0.37959868 0.07384304 -0.032361023 -0.5283932 4.65905
GTAAATGAAT 2.1702402 1.7425294 1.2903087 1.1737808 2.567055 -1.1391726 2.7772639 -0.5542271 -1.397282 1.075459
ATTCATTTAC 0.7644525 -0.6866362 0.8701128 1.1402284 3.3148081 -3.2546043 0.2865094 0.21861899 1.8128 -0.6855835
CAGTCGTAGC 1.0313148 -0.9750152 1.6367152 1.6336657 2.5395734 -0.7652364 -1.3603139 -0.6626482 2.7344239 1.6498716
GCTACGACTG 1.6330768 0.49462762 2.2396321 1.816694 1.1296451 -3.4651406 0.9430646 -0.96902084 -0.87719905 1.1673044
ACGCTACGAC 1.4859805 0.96524274 2.067245 1.6965413 1.1732366 -3.4772348 0.75644964 -0.6847548 -0.8578685 1.2171977
GTCGTAGCGT 1.0172279 -0.540696 1.5938776 1.7325484 2.578542 -0.8923177 -1.5177405 -0.45619842 2.6457152 1.3453935
CAGAACCGAC 0.7362689 -0.9331605 0.38003692 1.3829868 1.6229582 0.104413554 -2.2460535 1.0222228 -0.89341694 3.475061
GTCGGTTCTG 2.3484821 0.96251976 0.5791511 -1.3514811 2.584767 -1.6436032 -0.6502587 1.832664 2.2346773 0.1066684
TAAATGAATT 2.0764508 1.9374726 1.1958771 1.1758121 2.5994022 -1.2267817 2.861381 -0.6991384 -1.2414767 1.3069537
AATTCATTTA 0.92067677 -0.6231986 0.8142149 0.8664318 3.4202867 -3.15062 0.35026538 0.12805147 1.9405715 -0.66291314
AGCGTTACAG 1.0474991 0.6442498 1.8177752 1.8198916 3.0009625 -1.015572 -1.522063 -0.41965455 2.3501406 0.7775186
CTGTAACGCT 1.1734117 1.5147945 1.6437355 1.2252884 1.0506921 -3.860486 -0.106768064 -0.17707029 -0.86072105 1.1780128
GTTAACGCTG 1.1601576 1.1323063 1.3007486 0.803865 3.967017 -1.2596911 -1.1685861 -1.0299642 0.74416476 -0.5686358
CAGCGTTAAC -0.43662807 1.1130934 0.14362216 0.99476564 1.4629166 -4.0291224 -0.81728965 1.0631787 -0.8162699 1.8466446
GCGTTACAGG 1.1962999 0.8245143 1.6252345 1.8177993 3.0622468 -1.0741254 -1.6306161 -0.5472052 2.278268 0.80251336
CCTGTAACGC 1.1969581 1.5142404 1.6020355 1.1765893 1.0160971 -3.9309316 -0.2569858 -0.026389929 -0.8907403 1.2432286
TAACGCTGGT 1.025656 1.0402657 1.3130709 0.5309619 4.263071 -1.1474054 -0.85023284 -1.1605387 0.526053 -0.71536493
ACCAGCGTTA -0.54684305 0.83904535 -0.26346007 1.1182783 1.5851544 -4.0317774 -0.8796793 1.0612589 -0.7618388 1.9439392
AGCTATACTG 0.9069229 -1.6579509 2.3802903 0.6993558 2.6273339 -1.0435566 -1.9474955 -1.5032799 -2.0836606 2.1284142
CAGTATAGCT 1.1527389 1.586543 0.8210291 1.7742053 3.137345 0.47534466 -0.24851307 1.029603 -2.66781 2.0539734
ACCTTCAAAG 1.6870568 0.999499 1.7859441 0.008964456 2.1906037 -0.9510117 1.4043655 1.4067936 3.0265946 1.2599795
CTTTGAAGGT 3.004499 -2.018188 -0.5291312 0.7243736 1.390596 -1.3435245 1.7876935 1.6336428 0.5911986 1.7253891
TTACAGGGGT 1.5386586 1.1136385 1.262858 1.582211 3.3068094 -1.2747557 -1.7859982 -0.88636434 1.8879699 0.43313387
ACCCCTGTAA 0.8014896 1.5886437 1.3520023 1.1043818 0.9783183 -3.807148 -0.5991347 0.60124993 -0.9899686 1.4068774
GGGTTAACGC 1.4013805 1.2125955 1.3441315 1.0321544 3.6833591 -1.4878602 -1.6074321 -0.9366603 0.809704 -0.44252384
GCGTTAACCC -0.322395 1.463076 0.6022228 0.9894087 1.340638 -3.9208832 -0.82624865 1.1545038 -0.8483927 1.8516961
TTAACGCTGG 1.0871451 1.0318091 1.343532 0.68541855 4.0691967 -1.1612861 -0.94971174 -1.0977365 0.6309333 -0.6698081
CCAGCGTTAA -0.4483641 0.9875199 -0.060616974 1.0215175 1.50421 -4.0012336 -0.86485505 0.92240286 -0.7619188 1.8308015
ATCTATTTGC 1.3782299 -0.629538 2.230462 -1.2851715 3.0161297 0.2835536 -2.2793849 1.7422858 0.62579316 1.2005508
GCAAATAGAT 0.875979 -2.167223 -0.53853464 -0.5856519 2.0299182 0.361402 -0.072049834 0.09797679 -0.51200515 4.5497127
TTTGAAGGTC 3.1125274 -1.8343228 -0.587999 0.57356966 1.3088195 -1.3302927 1.7202059 1.6009431 0.597003 1.9243605
GACCTTCAAA 1.6153467 0.84503376 1.9364939 -0.074643925 2.163929 -0.85495824 1.4534392 1.3055682 3.0418923 1.2962893
CGTTACAGGG 1.3585072 0.9612594 1.5337261 1.8745533 3.1777651 -1.098887 -1.620139 -0.76013577 2.1676438 0.732337
CCCTGTAACG 1.0450753 1.5945197 1.5790216 1.0642625 1.0093992 -3.8933566 -0.4613244 0.17646767 -0.9253435 1.2688411
AACCCCTGTA 0.60597366 1.6618917 1.3004891 1.1063083 0.9401368 -3.793516 -0.63324887 0.80883926 -0.9585013 1.5013489
TACAGGGGTT 1.5694324 1.1682168 1.3679339 1.4578328 3.3346527 -1.3382124 -1.788915 -0.99580055 1.7296268 0.28533453
GGTTAACGCT 1.2446069 1.1202353 1.2788174 0.9055117 3.8477516 -1.3585486 -1.3840698 -0.96825427 0.73789066 -0.51022136
AGCGTTAACC -0.3999084 1.303977 0.4020266 0.96385455 1.3503718 -3.9320283 -0.8581099 1.0380867 -0.7654255 1.8129537
GCGGTAACCG 1.9029443 1.0166553 -0.82834715 0.9138486 2.6948547 -3.1883907 0.87949383 0.22000791 -1.3118267 -0.3570125
CGGTTACCGC 0.9382461 0.20000093 -2.269813 -1.5947162 1.913206 -2.4776018 0.49940002 -0.37128943 0.71549225 2.9800012
GTTACAGGGG 1.4023924 1.0666726 1.4419528 1.729128 3.189547 -1.1904573 -1.6228925 -0.8636793 2.0181007 0.56061095
CCCCTGTAAC 0.9961447 1.5221632 1.4113992 1.1206924 0.9436923 -3.8512876 -0.48912802 0.3898713 -1.0011852 1.3814155
GCTGGTGCTG 1.2018286 0.50394535 1.6283425 0.12348323 4.286015 -1.2896018 -0.98353875 -0.8876418 -0.28123805 -1.0177442
CAGCACCAGC -0.83587027 -0.036579747 -0.6157588 1.3794756 1.941537 -3.6877053 -0.6061554 0.86580086 -1.2326163 2.034186
CTGGTGCTGT 1.2557286 0.22538003 1.6598158 0.0063042175 4.203486 -1.4055746 -1.0404353 -0.7929067 -0.37371618 -1.1202918
ACAGCACCAG -0.83327204 -0.19135949 -0.5997693 1.3463877 2.0524447 -3.630233 -0.5895277 0.7347187 -1.414327 2.0508633
TGGTGCTGTT 1.2284645 -0.08711318 1.7463368 0.03155826 4.204429 -1.3510207 -1.0400498 -0.70851105 -0.48254922 -1.0646939
AACAGCACCA -0.8979874 -0.4222147 -0.6077014 1.2777642 2.1016593 -3.4948113 -0.5130336 0.6484345 -1.3775223 2.0069792
CGTCGGTTCT 2.2431467 1.1498024 0.64202017 -1.4955429 2.6261988 -1.6239884 -0.6780822 1.6080846 2.281219 0.20590153
AGAACCGACG 0.6603894 -1.013187 0.60298115 1.3575222 1.6260325 0.17571642 -2.15351 0.9033455 -0.9470306 3.5127
CAACTGGTGG -0.9527537 -0.9539839 2.55437 0.86555725 2.2798193 -2.9044821 0.03168273 0.15859334 0.88286495 2.681984
CCACCAGTTG 2.6201155 -0.5189267 0.14108086 -0.97075605 3.0383935 0.12604637 -1.3230941 -0.5519508 2.1748111 1.9795086
TATCTATTTG 1.5437814 -0.930437 2.2533615 -1.3386698 3.0972946 0.4531523 -2.1332023 1.7236193 0.49596784 1.2247844
CAAATAGATA 0.56146437 -2.173316 -0.56948817 -0.6944232 2.3469758 0.436661 -0.19225745 0.19063646 -0.48856518 4.5261497
AACGCTGGTG 1.0035836 0.95529085 1.3076358 0.3036073 4.376114 -1.0944891 -0.69889617 -1.1468459 0.31554714 -0.7782277
CACCAGCGTT -0.5231988 0.55700225 -0.3685581 1.1179028 1.6723349 -3.9420848 -0.8040772 0.96311206 -0.7411967 1.9577324
AGCACCAGCG -0.79395556 0.28134066 -0.5629907 1.4107203 1.8508765 -3.7186182 -0.6933544 0.97985333 -1.2239137 2.0228958
CGCTGGTGCT 1.1534021 0.7402876 1.4971893 0.17625487 4.239603 -1.2540134 -0.95184195 -0.9321598 -0.11186682 -0.9702158
GCTATACTGT 0.8790492 -1.7249511 2.4357662 0.6194233 2.5113053 -1.2304335 -1.78593 -1.3260856 -2.144151 2.037935
ACAGTATAGC 1.0768406 1.3997289 0.48184887 1.8316567 3.1170926 0.5175344 -0.21857737 1.0646106 -2.665163 2.1712718
ACAGGGGTTA 1.6303989 1.2108479 1.246116 1.4033364 3.3753018 -1.508973 -1.854812 -1.012008 1.5280535 0.17874438
TAACCCCTGT 0.41145006 1.702294 1.1946292 1.1549618 0.9561173 -3.80651 -0.54530483 1.0032377 -0.9146658 1.5813009
AGGGGTTAAC 1.6269001 1.1906211 1.289266 1.092392 3.4609776 -1.6336912 -1.9258813 -0.8967564 1.1360884 -0.112756856
GTTAACCCCT -0.005161281 1.6071594 0.9702481 1.0522826 1.1051575 -3.8145576 -0.80897003 1.1819317 -0.9135414 1.7802966
TGCTGTTTAT 1.0354133 -0.58877784 2.0864193 -0.09930209 4.1321855 -1.1806045 -0.9674373 -0.56820804 -0.50286716 -0.9955557
ATAAACAGCA -0.878041 -1.0561105 -0.8077758 1.1794891 2.325827 -3.238689 -0.439785 0.30143017 -1.4357345 1.979829
TTATCTATTT 1.349222 -0.91972274 2.2112195 -1.3511187 3.2043998 0.5598701 -1.7554283 1.5649664 0.511394 1.1679163
AAATAGATAA 0.46347463 -2.0915132 -0.65561074 -0.6338776 2.4609888 0.57823247 -0.08480365 0.19158745 -0.47067803 4.532595
GGTGCTGTTT 1.1634059 -0.22997129 1.8222243 -0.06525616 4.25323 -1.3466014 -1.0673507 -0.6562563 -0.54693425 -1.0933105
AAACAGCACC -0.95998824 -0.6663572 -0.82271934 1.259681 2.2375023 -3.4758408 -0.45196736 0.6125451 -1.3174872 2.0209095
ACGCTGGTGC 1.1181042 0.8843894 1.478411 0.22905256 4.2295527 -1.1336799 -0.8240774 -1.0357115 0.078430414 -0.900683
GCACCAGCGT -0.62492627 0.42987218 -0.42500174 1.3398468 1.7594206 -3.7402105 -0.76684225 0.95242727 -1.1213899 1.9561914
CTGTTTATCT 0.8948281 -1.056846 2.2287383 -0.018842924 4.0848227 -1.0575962 -0.9737804 -0.3893426 -0.48885593 -0.8485535
AGATAAACAG -0.7787081 -1.3507876 -0.96040195 0.9713248 2.415678 -2.8566306 -0.46863335 0.16601905 -1.5631576 2.041902
TCAACTGGTG -1.0195502 -0.84783244 2.748003 0.84449804 2.476088 -2.7855241 0.22390568 0.040124655 0.90747213 2.5996268
CACCAGTTGA 2.505018 -0.7623548 0.024287105 -1.1873229 3.046732 0.023964517 -1.3161855 -0.6434316 2.4173138 2.076142
GGGGTTAACG 1.5301765 1.2170377 1.2763193 1.1199777 3.54318 -1.5864265 -1.7649088 -0.9892136 0.9694694 -0.30250388
CGTTAACCCC -0.20741704 1.4846636 0.761863 0.997779 1.192038 -3.82183 -0.7680024 1.1255436 -0.88032115 1.8062758
GTGCTGTTTA 1.0760529 -0.4961615 1.9625225 -0.09149103 4.1871314 -1.2236096 -1.1269698 -0.6377835 -0.5892789 -1.0240371
TAAACAGCAC -0.89979863 -0.8522924 -0.7791717 1.2827063 2.2574975 -3.3545256 -0.3729528 0.49111813 -1.4046198 1.9574271
GCTGTTTATC 0.8746463 -0.8993503 2.0276394 0.002924354 4.101722 -1.1009485 -0.9852337 -0.50805885 -0.47553137 -0.8666994
GATAAACAGC -0.8425287 -1.1980758 -0.9181614 0.97044426 2.3954399 -3.1494915 -0.49759737 0.2028919 -1.5181723 2.012415
GAAAATCGTC 1.9425186 1.4793037 0.69994706 -2.3152156 2.6887393 -1.302021 -0.20857768 0.71571213 2.0022683 0.5264997
GACGATTTTC -0.32062486 -0.9235468 1.5386738 1.2590379 1.9567641 0.21439983 -2.0423486 0.7150542 -0.7996332 3.404417
CGGTAACCGC 1.8379711 1.0250705 -0.850211 0.9425467 2.9122736 -3.1694713 0.9269675 0.09360082 -1.3764023 -0.39796057
GCGGTTACCG 0.8310796 0.09654522 -2.161105 -1.7476287 1.9738194 -2.470603 0.56088334 -0.28466967 0.7724108 2.8943152
CAGGGGTTAA 1.6655291 1.2513776 1.258326 1.2887373 3.4055972 -1.5761219 -1.9198501 -0.998228 1.3160019 0.039312087
TTAACCCCTG 0.21958442 1.6833665 1.0906774 1.1698233 1.0073665 -3.8364182 -0.68853164 1.1892098 -0.8109198 1.6938765
TCGTCGGTTC 2.072786 1.3516049 0.6500406 -1.6457739 2.6716173 -1.8093483 -0.6784522 1.5133946 2.3773038 0.26362655
GAACCGACGA 0.57068485 -1.0976182 0.8602274 1.3434974 1.6611117 0.23304267 -2.1565742 0.86542237 -0.8826503 3.580422
CTATACTGTG 1.0005125 -1.7106043 2.5133097 0.57099366 2.5103304 -1.1746233 -1.6667838 -1.1463584 -2.3765602 2.0440872
CACAGTATAG 1.1083963 1.1371061 0.43640307 1.8838167 3.0643187 0.45032993 -0.23749943 1.1390709 -2.8942468 2.2341037
AAATGAATTC 1.8411751 2.033812 1.3404242 1.3049543 2.536023 -1.1987957 2.6481025 -0.8040575 -1.085496 1.435104
GAATTCATTT 1.1052347 -0.6669789 0.46492684 0.7370244 3.4266443 -2.987569 0.33405474 0.30730346 2.0919538 -0.81805825
CTGAAAATCG 1.9351566 1.430716 0.63431466 -2.5630128 2.7212064 -1.0457424 -0.038232233 0.34136173 1.8820852 0.6413877
CGATTTTCAG -0.68521047 -0.9393952 1.8179703 1.2873096 2.052873 -0.035758823 -1.8035607 0.561737 -0.8962034 3.406535
ATCAACTGGT -1.1993841 -0.9577739 2.7828944 0.5193208 2.6245613 -2.6674004 0.46759206 0.29391253 0.9145871 2.4619763
ACCAGTTGAT 2.4773104 -1.0185868 0.004034985 -1.1584184 2.9263928 -0.00626556 -1.2076683 -0.37925592 2.3302548 2.0049398
TGAAAATCGT 1.9452611 1.4861275 0.6167886 -2.4798775 2.6983962 -1.1675858 -0.07649442 0.5368998 1.8775437 0.5721453
ACGATTTTCA -0.49235737 -0.974963 1.6546265 1.2351114 2.026708 0.17703637 -1.9208707 0.6616231 -0.82707465 3.3278239
AATCGTCGGT 1.9897746 1.5358548 0.73668283 -1.8583463 2.673344 -1.5141336 -0.5843432 1.1395023 2.1731064 0.3298695
ACCGACGATT 0.25453958 -1.1076695 1.1508709 1.3811814 1.8109999 0.28596017 -2.1159334 0.793588 -0.7966469 3.4986718
TTTATCTATT 1.1511998 -0.9746775 2.3887527 -1.2124577 3.2265668 0.784803 -1.6155111 1.414592 0.6097509 1.1918108
AATAGATAAA 0.3625773 -2.1886523 -0.6079483 -0.5226377 2.588568 0.46164232 -0.14470114 0.43153885 -0.54047644 4.4225883
TTGAAGGTCG 3.2289174 -1.8685405 -0.50492287 0.36655957 1.2020198 -1.1815687 1.7424413 1.4217963 0.5874229 1.8528588
CGACCTTCAA 1.6819233 0.5583138 1.9785988 -0.14492741 2.081948 -0.73689264 1.4102112 1.298889 3.016115 1.4048058
ATCGTCGGTT 2.036774 1.4942571 0.64417994 -1.7464089 2.7150955 -1.6300702 -0.65473104 1.2276397 2.2632513 0.28619045
AACCGACGAT 0.4384142 -1.1241012 0.98568255 1.3980981 1.7341921 0.34532827 -2.0564063 0.8162387 -0.9005917 3.6056864
AAATCGTCGG 1.9680029 1.4664793 0.64627117 -2.0499911 2.6977015 -1.4363592 -0.40641984 0.9426358 2.13738 0.41661823
CCGACGATTT 0.040222153 -1.0163177 1.3025794 1.36954 1.856125 0.26821634 -2.0870972 0.74740714 -0.83494365 3.4749582
GTAACCGCGC 1.7358698 0.7049444 -0.68606126 1.1270477 3.1782722 -2.971421 1.0038023 -0.30441388 -1.1995319 -0.57906437
GCGCGGTTAC 0.5759645 -0.17059122 -1.8383405 -1.942366 1.9390385 -2.4907417 0.8625714 -0.5821538 0.48850152 2.7976677
GCTGAAAATC 1.8851577 1.3980979 0.6511196 -2.671036 2.6977718 -1.0720993 0.037684087 0.1461648 1.8161205 0.7180233
GATTTTCAGC -0.8252686 -0.93195945 1.8463392 1.241499 2.121301 -0.032463193 -1.5926855 0.54687524 -0.97105914 3.2993226
GGTAACCGCG 1.7870033 0.803534 -0.7355743 1.0237544 3.037592 -3.0701575 0.9954863 -0.08953678 -1.2955682 -0.52476674
CGCGGTTACC 0.74567103 -0.06264945 -1.9919502 -1.8989635 1.9383054 -2.4147599 0.7335722 -0.42949462 0.53818077 2.8427725
GTTTATCTAT 1.0970402 -1.0240965 2.5087411 -1.1220626 3.3222878 0.9232947 -1.4223999 1.3929255 0.6837839 1.2405475
ATAGATAAAC 0.34472975 -2.2522159 -0.4162701 -0.30612466 2.6315558 0.756745 0.043525238 0.53029 -0.5403607 4.3288884
TCGACCTTCA 1.6238428 0.50832295 1.9868135 -0.29096636 2.0465932 -0.58078074 1.3019779 1.2712327 2.9430156 1.5477757
TGAAGGTCGA 3.2238102 -1.6954315 -0.5250969 0.29709542 1.1341994 -1.172803 1.6759336 1.2708153 0.7680345 2.0652843
AAAATCGTCG 1.9269351 1.5861981 0.61198324 -2.232614 2.7643583 -1.4734294 -0.38654277 0.84968996 2.1564224 0.47837368
CGACGATTTT -0.068397865 -0.9397689 1.4948212 1.3326674 1.8973669 0.22019559 -2.0517044 0.7237931 -0.784694 3.4482212
TATACTGTGG 0.95730495 -1.8950684 2.468721 0.5375275 2.4474192 -1.146252 -1.6497166 -0.92985046 -2.4481072 2.113275
CCACAGTATA 0.9906758 1.1002359 0.43985114 1.8475978 2.8735504 0.2713053 -0.4423891 1.0423111 -2.9599354 2.3294828
TGAAATCGCT 1.7913405 1.1203303 1.4331526 -2.9269633 2.597954 -0.44424057 0.5652989 -0.8558514 1.3545867 1.3980556
AGCGATTTCA -1.4372864 -0.3352019 2.4351616 1.3902177 2.6308467 -0.19702598 -0.35396647 0.067004256 -1.0802093 2.8249242
TCGCTGAAAA 1.7877593 1.3823539 0.8442574 -2.821954 2.6456492 -0.87182355 0.23132606 -0.095533974 1.6426669 0.88280886
TTTTCAGCGA -1.083401 -0.62577945 2.0775793 1.2921491 2.2092652 -0.15855555 -1.3812937 0.45110017 -0.90910846 3.2188914
TAACCGCGCC 1.6225964 0.60911083 -0.63849396 1.2670249 3.2721002 -2.8856888 1.0512707 -0.4098312 -1.2403932 -0.58072835
GGCGCGGTTA 0.5365206 -0.30948892 -1.7307369 -2.1105266 2.0446644 -2.5640907 0.8580046 -0.647837 0.5611065 2.7258053
AACCGCGCCT 1.5559069 0.59388244 -0.58134484 1.4346602 3.383259 -2.8763006 1.0864246 -0.55425066 -1.2337215 -0.5787238
AGGCGCGGTT 0.4360002 -0.36556345 -1.555855 -2.2287085 2.0087197 -2.5102313 0.82071906 -0.6589171 0.623244 2.6467068
AATGAATTCA 1.7947356 2.1267803 1.5950396 1.5647154 2.49339 -1.121049 2.4659383 -1.0286849 -0.7734029 1.4750838
TGAATTCATT 1.4345543 -0.8515809 0.23029138 0.5711798 3.5609026 -2.8325074 0.43294662 0.39213705 2.0999587 -0.83653265
GAAATCGCTG 1.792239 1.1809257 1.3162906 -2.9129496 2.5350726 -0.61037695 0.51919436 -0.74432534 1.4280856 1.3551838
CAGCGATTTC -1.4805369 -0.45562375 2.476684 1.4461241 2.5034206 -0.30545706 -0.5350884 0.17179771 -1.0034227 2.8309147
ATTTTCAGCG -0.96891326 -0.83282757 2.04531 1.2853141 2.143019 -0.101361975 -1.4249452 0.42220703 -0.8895315 3.367069
CGCTGAAAAT 1.8638028 1.3652279 0.76171076 -2.782216 2.6970894 -0.9916936 0.14204061 -0.090164736 1.6934426 0.81042445
TCGTTTATCT 0.9099318 -0.86217237 2.7582169 -1.0889409 3.2715678 0.9011176 -1.0546639 1.2016493 0.9360315 1.2126944
AGATAAACGA 0.17815945 -2.3915253 -0.31084496 0.13988663 2.6253197 0.87373114 0.17588107 0.5531463 -0.54901433 4.0032225
GTATGAAATC 1.711322 0.84978133 1.6434487 -2.8590727 2.520912 -0.07396318 0.7131241 -1.0683507 0.88519037 1.7299523
GATTTCATAC -1.4309677 -0.13375062 2.51136 1.2183474 2.761861 -0.2974149 0.23023176 -0.46847054 -1.3721905 2.7018678
AAATCGCTGA 1.7857288 1.280923 1.1239976 -2.936227 2.6090367 -0.6374402 0.5089796 -0.5497875 1.364436 1.2516012
TCAGCGATTT -1.3482494 -0.50715053 2.3749702 1.3725487 2.449954 -0.29307634 -0.76617676 0.27615783 -0.9581066 2.9486704
CATCAACTGG -1.3725204 -1.217396 2.8596275 0.08052583 3.0569932 -2.585643 0.9041722 0.45860097 0.97353494 1.9404875
CCAGTTGATG 2.5256886 -1.017914 -0.15773533 -1.106458 2.7843862 -0.044471607 -1.1027234 -0.07994926 2.3494449 2.0891402
ATGAAATCGC 1.7360573 1.0707786 1.5154797 -2.8585198 2.6203415 -0.4302168 0.62564325 -1.0324324 1.1857747 1.4762777
GCGATTTCAT -1.4854281 -0.26965448 2.417393 1.3377999 2.696556 -0.23366517 -0.08665698 -0.10414454 -1.1482937 2.6825416
AATCGCTGAA 1.7978128 1.2984384 1.0669761 -2.9144716 2.645922 -0.7410351 0.395849 -0.47477955 1.4838747 1.1036543
TTCAGCGATT -1.291779 -0.49913323 2.3032744 1.373358 2.3097486 -0.26426846 -0.9217378 0.33142743 -0.9363654 3.0728831
TTTCAGCGAT -1.2267482 -0.6527728 2.2113743 1.3046514 2.2465675 -0.24361081 -1.1058401 0.34969762 -0.91862285 3.1877975
ATCGCTGAAA 1.8001285 1.3161077 0.9732034 -2.9009657 2.6225812 -0.8358794 0.33269972 -0.36005464 1.6124479 1.0920072
ACCGCGCCTG 1.4034064 0.5720218 -0.42493144 1.5659474 3.5386355 -2.8163786 1.151741 -0.70334375 -1.2265764 -0.5020381
CAGGCGCGGT 0.3743388 -0.47808003 -1.43664 -2.4161582 2.1198907 -2.5224946 0.6087483 -0.7546378 0.8033953 2.5208719
CCGCGCCTGC 1.2610509 0.55006325 -0.29969853 1.5568854 3.500575 -2.766446 1.2438991 -0.834255 -1.1586806 -0.5025334
GCAGGCGCGG 0.22609735 -0.45963266 -1.2330502 -2.3391142 2.088839 -2.3869252 0.5141118 -0.86065674 0.78575414 2.491217
TCATCAACTG -1.4016355 -1.1899629 2.8519096 -0.49606225 3.3438966 -2.3598332 1.1019493 0.5809536 1.0632665 1.8154689
CAGTTGATGA 2.5796103 -1.3474455 -0.17361757 -1.1814269 2.7736707 -0.12944545 -1.07098 0.081833355 2.4024959 2.1383204
ATCGTTTATC 1.029901 -0.9254159 2.9087422 -1.0313302 3.1715698 0.93392146 -0.8463356 1.214522 0.9687966 1.2410506
GATAAACGAT 0.03250484 -2.1216578 -0.24016616 0.3369992 2.6697793 1.0095994 0.2573272 0.4759414 -0.39600304 3.90264
CGTTTATCTA 0.99605703 -0.9272971 2.6018121 -1.2130834 3.2992945 0.99171317 -1.1822966 1.3070627 0.79885364 1.1896892
TAGATAAACG 0.26381552 -2.448464 -0.2846586 -0.058059525 2.577642 0.750682 0.12986678 0.5667506 -0.56147414 4.059901
CGATTTCATA -1.4690871 -0.2570665 2.459808 1.2882094 2.7550275 -0.23070903 0.004561487 -0.25067323 -1.2403139 2.620837
TATGAAATCG 1.7817051 1.0142986 1.5658413 -2.906243 2.5873637 -0.22206795 0.73911434 -1.0208755 1.031881 1.622768
ATACTGTGGG 0.93262744 -2.133778 2.4577985 0.4628434 2.5512505 -1.0383068 -1.6086437 -0.73364437 -2.5104995 2.209642
CCCACAGTAT 0.9741853 1.0498447 0.09045363 1.9380199 2.8497643 0.16719054 -0.3999829 0.9553234 -3.0087967 2.4238904
CTCGACCTTC 1.454335 0.5419295 1.9919631 -0.34015223 2.0064123 -0.36321446 1.3511654 1.3224385 2.8614986 1.6750331
GAAGGTCGAG 3.2036648 -1.7191324 -0.39575535 0.093990706 1.0436549 -1.2086729 1.6570481 1.1608787 0.7791323 2.1774502
GTTTATCTTC 0.7969512 -1.3587071 2.2854187 0.02320959 3.92269 -0.89875585 -0.90168655 -0.27571023 -0.6299139 -0.648077
GAAGATAAAC -0.7502493 -1.6971201 -0.98670673 0.79387814 2.5514483 -2.6892326 -0.34259278 0.19446889 -1.6611943 1.9952308
CGCGCCTGCA 1.0889089 0.66458666 -0.25677416 1.4871963 3.440493 -2.6957524 1.3114351 -1.0638797 -1.1438982 -0.34477735
TGCAGGCGCG 0.083836116 -0.4282064 -1.0685486 -2.3985748 2.1585622 -2.300379 0.3625478 -0.975514 0.8357853 2.5643601
CGCCTGCAAT 0.83117616 0.6878827 0.017706776 1.2935398 3.5211272 -2.6751819 1.3709707 -1.3828441 -1.0226394 -0.21829826
ATTGCAGGCG -0.11212903 -0.36639902 -0.7665362 -2.5156784 2.2754838 -2.0653908 0.30889806 -1.0980723 0.85987425 2.6841733
