2490 100
AAAACCCCAG 0.75025856 0.8995196 -0.25673214 0.563637 0.0264397 -0.5867618 -0.4071627 -0.39696363 -0.09559206 0.24243774 0.7544566 0.3953338 -0.5858753 -0.119017355 0.21960942 -0.63519657 0.44742322 -0.38092586 -0.3820015 -0.07671283 0.4332158 1.2183294 -1.0315711 0.32200077 -0.9846016 -0.31648955 0.6488161 -0.2876607 -0.41612485 -0.74576706 -0.18089889 0.8755301 -0.7258085 -0.2268684 -0.10868764 0.4253907 0.66719407 0.21917368 0.7371221 -0.023915334 0.3924093 0.21357033 -0.38024828 0.15004551 0.4409689 -0.2619724 0.729338 0.43767154 -0.14685479 -0.011578159 0.5967369 -0.2156604 0.07714373 -0.6024069 -0.05322546 0.6537782 -0.34046444 0.087160185 0.46176514 -0.107751645 0.21802467 0.27160725 0.49624777 0.7733151 0.49211997 -0.30745047 0.10038454 -0.480159 -0.6309991 0.36397257 0.32854506 -0.016370777 -0.5955262 -0.21582362 -0.74530154 0.271381 0.6352123 0.30435237 0.5711532 0.2838899 -0.52488005 0.05927533 -0.3527015 0.5762298 -0.20739867 0.09244315 -0.3135636 0.7278739 -0.17323253 1.4955151 0.31847402 0.96245795 0.2641848 -0.13837375 -0.19011946 0.07017403 -0.022354472 -0.28230864 0.2727812 -0.8538228
CTGGGGTTTT -0.4388172 0.6158908 0.20634685 -0.026112793 -0.18377182 -0.23182695 -0.44306225 0.34835756 -0.6865986 0.31583875 0.42217332 0.6880931 -0.6429369 -0.4018602 0.24492069 0.54487675 0.27468556 0.14692155 -0.16103233 -0.90956104 0.26899323 0.23924932 -0.18762673 0.50226563 -0.40947303 -0.04766982 0.48409298 0.18956058 0.91764164 -0.53034115 0.45496878 0.86750215 -0.020627141 -0.5696078 -0.32432327 0.21102878 0.18020426 0.5092937 0.37729323 -0.33429992 0.08463795 -0.023979602 0.27040428 -0.07074112 -0.25493297 -0.7908668 0.12553626 -0.2936759 -1.0094136 -0.6257452 0.22644526 0.20099431 1.1619897 0.33961523 0.13597232 -0.7418003 -0.2599703 0.2205921 0.013093514 0.018714473 -0.40912446 0.36893383 -0.033939674 0.13234268 0.5541659 -0.55127776 0.103553325 -0.75015926 -1.2116153 0.2597558 -0.6698293 -0.9757904 -0.29183242 0.38963565 0.30387774 0.20767435 0.15043755 0.2620422 0.4160985 0.47673365 -0.09375899 -0.21658686 0.20272352 0.3629147 0.016952414 0.038286548 -0.5256119 -0.04321356 0.021527413 0.7367593 0.49645388 0.468741 -0.81727296 -0.49064818 0.8898554 -0.3456981 0.29102424 -1.0084084 0.20763609 -0.45039967
GTGGCGATGG -0.6305071 -0.08323508 0.3264358 -0.8809968 -0.15916608 0.120302975 -1.2001203 -0.024595935 0.24989253 0.14886637 -0.23388393 0.7668272 0.21485288 -0.9464692 0.61896276 0.012305283 0.81083673 0.22890767 -0.409583 -0.54523206 0.5216198 -0.2961746 0.30909455 0.14376935 -0.6571239 -0.8583158 0.17217873 0.9059721 -0.20697142 0.20619372 0.076125376 0.9169773 -0.08214987 -0.16507593 -0.13571471 0.0016347172 0.4488339 0.7925401 -0.27595174 0.36348045 0.75356597 -0.53802425 -0.08369041 -0.20643169 -0.14632028 -0.33338925 -0.5450393 -0.4052102 -1.2416812 0.18715955 0.39171013 0.17360689 0.617947 -0.3783512 0.22256197 0.3066573 -0.20523667 0.41216144 0.19284834 0.35009393 -0.73556024 0.6848511 0.70733076 -0.39904168 0.14925987 0.29739174 0.9041655 -0.44589943 -1.0217391 0.3306351 -0.840778 -0.355337 -0.6004094 -0.013254156 0.38242626 -0.43040204 0.1928017 -0.4066043 -0.44159612 -0.053341147 0.24763553 0.10667072 -0.2066946 -0.4211 0.3203661 0.87393785 -0.10925114 -0.48418248 0.22919033 -0.3019549 -0.019604713 0.50772756 -0.8448945 -0.43694058 0.5664221 -0.49635196 -0.74049956 -0.32597396 -0.9716759 -0.4570234
TGGCGATGGC -0.587413 -0.00565875 0.30903313 -0.99628997 -0.009560412 0.09776736 -1.1893529 -0.054872494 0.35856223 0.25030196 -0.24492656 0.7811421 0.20662932 -0.91891605 0.66736734 0.08961758 0.7360563 0.19010486 -0.41493538 -0.6202969 0.5322954 -0.23414701 0.33293986 0.02226383 -0.6671865 -0.7820822 0.22396219 0.9178382 -0.2271209 0.22490068 0.112990156 0.89018834 0.05569485 -0.10382 -0.050946914 0.032540653 0.47152838 0.83386564 -0.24881959 0.28296807 0.74151593 -0.68486226 -0.05963408 -0.24438976 -0.18507253 -0.32194686 -0.5270122 -0.44931445 -1.2703254 0.20371617 0.44151068 0.17837301 0.76471525 -0.4877966 0.30827278 0.38069573 -0.2891738 0.36144793 0.14269936 0.32123938 -0.6528355 0.8650351 0.7690088 -0.4452107 0.20898272 0.35529146 1.1160592 -0.41650072 -0.9485415 0.46204114 -0.90314823 -0.4330677 -0.6344412 -0.020801648 0.43178 -0.41957334 0.29020932 -0.43664184 -0.38202065 -0.028078586 0.2070983 0.08659448 -0.18204722 -0.39677036 0.17016587 0.82461435 -0.1932139 -0.3934222 0.15832897 -0.29009217 -0.032063194 0.5337716 -0.7823755 -0.49782905 0.6724098 -0.5265159 -0.7295417 -0.26313347 -0.88915 -0.37172395
GCCATCGCCA -0.43800375 0.7877857 -0.0066413004 0.21052165 -0.13387732 -1.0207913 -0.7373306 -0.099918574 -0.9339693 0.66264623 0.06315236 -0.14644063 -0.4330753 -0.31834072 -0.12395045 0.0015589352 -0.29143688 0.75475496 -1.4399366 0.96002865 0.58955353 0.56614727 -0.35630432 0.39758766 -0.4047849 0.27391872 0.7797519 0.34422678 0.02772042 -0.9984677 0.32232186 -0.032843966 0.51148474 -1.2737314 -0.40725935 0.7664882 -0.0077892737 0.53688407 0.64135337 0.42728105 0.011128334 -1.0757412 -0.18541202 0.33746928 0.26579955 0.39736927 -0.09467777 0.39183396 -0.12361916 0.021544306 -0.27303216 -0.6034842 0.5282621 -0.32111287 -0.082044505 0.53743196 -0.6609321 0.051863648 -0.5366801 0.42452937 -0.10303611 -0.15934412 0.8335366 -0.09413656 0.054267026 0.10473826 0.1346478 -0.27505288 -0.8040184 -0.23608588 -0.11098987 -0.91503763 -0.36551943 -0.42107603 -0.5390153 -0.35160342 0.37561545 0.3966429 0.34383678 0.6021988 -0.68756056 -0.26691017 -0.6768283 0.23629656 0.8702558 -0.6668302 0.41424707 0.77911955 0.4147602 0.9744456 0.051447842 0.3361962 0.7919726 0.3238703 -0.10652061 0.5194041 0.25690684 -0.06225886 0.4875441 0.17708893
CCATCGCCAC -0.37875903 0.6371056 -0.13989995 0.29442656 -0.2145354 -0.8679041 -0.55617636 -0.10170639 -0.7697099 0.7031924 0.07086541 -0.16310737 -0.42554975 -0.4049928 -0.06553731 0.18815039 -0.19022158 0.7739156 -1.4884285 0.85186905 0.46613508 0.5700171 -0.37451828 0.4536614 -0.37721148 0.21828273 0.81300455 0.39904943 0.14962189 -0.9524738 0.42235553 -0.048943084 0.5435183 -1.2884289 -0.37036687 0.76092595 0.045094803 0.5481236 0.5815387 0.29552588 -0.053706612 -1.1409109 -0.26854008 0.37587625 0.3448854 0.32794467 -0.2630598 0.32910696 -0.08109233 0.19769114 -0.34519398 -0.6476733 0.6332896 -0.3391308 0.015600773 0.5155999 -0.5962484 0.1149758 -0.60302293 0.40199414 -0.13937375 -0.25024295 0.82369685 -0.19207124 0.012254627 0.036129814 0.11815003 -0.41148522 -0.6855609 -0.1938042 -0.015759975 -0.8983527 -0.3912331 -0.3678692 -0.4133377 -0.4593023 0.4938775 0.2579489 0.4129172 0.60153323 -0.7218981 -0.27387235 -0.68238014 0.24924538 0.7349189 -0.64104664 0.347025 0.9161284 0.4180714 0.90901756 0.12386097 0.45946562 0.68872035 0.2169725 -0.06195276 0.5510851 0.17208984 0.079486944 0.5836425 0.30794257
CATATTCCCT 0.3683988 0.62690395 0.49498436 0.0865228 0.67392087 -0.14219399 -0.7334794 -0.48503485 -0.20824674 0.5624168 0.096576676 0.06916784 -0.03279366 -0.13415514 -0.12152744 0.48621127 0.60243577 -0.9681126 0.11154276 -0.4660754 0.1827726 0.08354948 0.4301373 0.1288295 0.23514096 0.3475094 0.29085955 -0.21331564 -0.0014155292 -0.113074675 0.51853895 0.9002531 -0.47337148 -0.09089267 0.16469193 -0.53298044 0.57033324 0.4634324 -0.2893041 0.0917186 0.68887734 -0.29536507 0.52836955 0.43339652 1.2239335 -0.084799446 -0.25696597 0.058958627 -0.64100426 0.4216631 0.039423358 -0.27869853 0.7763327 -0.32431564 -0.604569 -0.058468767 -0.36885557 -0.72632 -0.016733324 0.40021375 -0.50907713 -0.16800295 0.8147281 -0.008353608 0.27128685 0.0051039797 0.8295302 0.1483709 -1.2061265 -0.13998656 -0.7908455 -0.5205368 -0.47940782 -0.45822948 -0.04369213 -0.13219057 0.49485886 -0.5209458 0.21503374 -0.61779374 -0.6017199 0.29332733 -0.50496393 0.36403498 -0.22894698 0.8928768 0.67111605 1.0371134 -0.17847878 0.091367856 0.40234452 0.4928569 0.0672807 -0.25534973 0.31964824 -0.14338508 0.18280153 -0.27373162 0.5197764 -0.13024247
AGGGAATATG -0.9459299 -0.39481065 0.33222982 -0.12574321 0.16140951 -1.0031291 -0.8361765 0.055317108 -0.6550254 0.094098456 0.25461283 0.44184124 -0.7234827 -0.52034956 0.8449308 -0.06982415 -0.42769226 0.7951555 -0.26104012 -0.31690916 -0.28903714 0.024252756 -0.25820482 -0.19111422 -0.0026447487 -0.683693 -0.17675665 0.52391064 0.029197907 -0.024603348 0.13028151 0.50919694 0.72808236 -0.8168328 -0.9167843 0.5655427 -0.035708893 0.6776089 -0.014097027 -0.029272262 0.21842794 -0.5778541 -0.51951003 -0.23615871 -0.5456806 -0.116781384 -0.41844496 -0.32369015 -0.71333396 -0.30255842 0.9431187 -0.31969213 0.20878078 -0.25830963 0.114977404 -0.113024436 -0.43084636 -0.4244416 -0.77629864 -0.06235992 -0.50152785 1.0323101 -0.09023704 0.13074097 -0.14650804 0.4338035 0.38248223 -0.11455518 -0.76359886 -0.36779603 -0.7742573 -0.82714164 0.1064915 -0.25900215 -0.08062628 0.061763044 0.19377194 0.31732687 -0.7825243 0.5868267 -0.1973458 0.041704673 -0.411051 -0.13053901 0.20352492 0.45871806 0.35374686 0.289909 0.38024217 0.5565235 0.6175571 0.32586375 -0.24893658 0.00949202 0.7753818 -0.22855282 -0.4775151 -0.39586717 0.2093715 0.7476426
GGCTTATCTC 0.7974306 0.36199743 -0.750204 0.7164113 -0.13863795 -0.34587243 -0.744158 -1.1140856 -0.36492673 0.13947466 -0.54513574 0.027995773 -0.7531551 -0.78542346 0.06116854 -0.21049608 -0.2967822 -0.3341279 -0.8918095 -0.08965959 0.106548525 0.5611587 -0.15555423 0.45937645 -0.09574299 0.15064129 0.2309784 -0.31184912 -0.058471713 -0.44807762 -0.46621677 0.7279501 -0.32773077 -0.3851224 -0.3209298 0.3338793 0.057340864 0.41995484 0.3679321 -0.37812486 0.49147734 0.16029811 -0.00051719556 0.27262366 0.5705155 -0.23226394 -0.013144071 0.085337 -0.31935838 0.38723877 0.048655458 0.19063245 -0.32875437 -0.67968243 -0.55914366 0.22862025 -0.31234327 -0.15251994 0.36434445 0.5007214 0.30453497 -0.269266 0.3891274 0.19524238 -0.40470988 0.40332255 -0.09541916 -0.40943745 -0.93797994 -0.2821029 -0.35716766 -0.41281906 -0.17705117 -0.7176729 -0.715104 -0.65942955 0.2522037 0.008685012 -0.55459994 0.60416836 -0.002932789 -0.27204037 -0.39640978 0.47748435 -0.34030718 0.45328733 0.5924355 1.4190454 0.40472016 0.86140984 0.46175927 1.0209283 0.45098576 -0.4027717 0.021229392 0.17617099 -0.4496856 0.09530351 0.29811436 -0.013377909
GAGATAAGCC 0.028696233 0.37883446 -0.14494322 -0.02083513 -0.7013851 -0.6160924 -1.2475075 -0.2829061 -0.24754927 0.49785358 -0.29892963 0.33831784 0.026819836 -0.18690816 0.0780268 0.12189672 -0.04057172 0.3845187 -0.78564215 -0.6102323 0.13667862 -0.4849034 0.05964751 0.2174235 -0.37396452 -0.6141685 0.33515075 0.7482457 0.18556225 -0.5691451 -0.02979603 0.96522045 0.34226394 -0.7018484 -0.42062137 0.23966564 -0.19746023 0.5176858 0.40324083 0.3023186 0.37520212 -0.37800443 -0.40100843 0.4251773 0.27244252 -0.5195062 -0.33108562 -0.08703929 -0.63223946 -0.32587042 -0.25864714 0.3018621 -0.43617484 -0.123078994 -0.017579097 -0.20589039 -0.7088508 -0.15308623 -0.58739513 0.5087009 0.19083254 0.61067134 -0.3096097 -0.15527038 0.50921535 0.7388114 0.2708571 -1.3417106 -0.5592656 -0.22953884 -0.19406162 -0.86485213 0.3698501 -0.6052071 0.43410635 -1.166105 -0.36239943 -0.13190404 -0.14032133 0.71241134 0.57351625 0.40806586 -0.4686997 0.5015343 -0.34511444 0.8495 0.40367052 -0.09658849 0.36266539 0.66535777 0.08881358 0.226103 -0.21697102 -0.38761485 0.16596316 -0.065239124 -0.44282776 0.06907965 0.15815195 -0.021569753
TGGACCTACT 0.4341378 0.41691265 0.30830798 0.2959666 0.11234809 -0.8442957 -0.639377 -0.8237374 0.09689125 0.23649466 -0.3599228 0.42169353 -0.39706308 -0.93959063 0.09549597 -0.1684815 -0.18055367 -0.74613404 -0.13136573 0.45206302 0.20825699 0.6660901 -0.14683783 0.46821818 0.1933574 -0.6662617 0.0722264 -0.72882557 0.06575046 -0.20650429 -0.4453605 0.7797161 -0.4630761 -0.259057 -0.1431771 0.092817694 0.44950852 0.7825561 0.4167003 0.58486867 0.52218324 -0.7412763 0.3053637 0.26886618 0.5043682 0.057108775 -0.5087796 0.09498388 -0.5335924 0.5394113 0.21352172 0.40539318 1.3042125 -0.66062313 -0.4802748 0.4033481 -0.61979693 -0.16989908 0.7043904 0.63378114 -0.22062457 0.18814819 0.23874363 -0.10642169 -0.065971434 0.08000431 0.48612243 -0.88630813 -1.3391246 0.13791884 -0.7213876 -0.35399145 -0.43091008 -0.37465578 -0.33160973 -0.40744656 0.24452606 0.001199811 -0.41729352 0.14069396 0.108488575 -0.17013635 -0.14946073 0.24377255 0.56295156 0.54670215 0.31734353 0.5745269 0.3659381 0.14004458 0.35157233 0.9306518 -0.06258153 -0.62992907 0.113082215 0.10931886 -0.314139 -0.21185161 -0.24220093 -0.28613767
AGTAGGTCCA -0.09316465 -0.11952546 -0.5470549 -0.20087303 -0.5197161 -1.3882785 -0.07962579 -0.06932927 -0.13342315 0.1775323 -0.37208956 0.3400641 -0.39151484 -0.11517368 0.43991795 0.6812923 0.22497 0.7868663 -0.49775183 -0.18517643 -0.00042972382 -0.24428606 -0.17682603 0.14715151 -0.38887116 -0.42932767 -0.20605294 1.2890801 1.0093052 -0.18341655 -0.643814 0.6164598 0.30378184 -0.51674384 -1.0001372 0.63047314 0.102460645 1.0895947 0.45340344 -0.015750082 0.079917975 -0.9688286 -0.040281165 0.32207945 0.1634102 -0.21274507 -0.45425674 -0.4954719 -0.6267956 -0.46133754 0.05477315 0.060313992 0.1655852 -0.0979464 -0.066874996 0.093782485 -0.41184902 0.17786461 -0.52045524 0.596519 -0.31027067 0.3326356 0.40331066 -0.2794962 0.0028588334 0.19910221 0.09144911 -0.6239431 -0.254859 0.042792097 -0.2388661 -0.8472105 0.31707782 -0.35292768 0.7173049 -0.8984114 0.21059848 -0.05855839 0.016173897 0.73323417 -0.3262434 -0.089566566 -0.32358688 0.3300498 0.19837372 0.1417834 0.0031671585 -0.09416242 0.039590284 0.48732352 0.71005917 0.93454134 -0.32259262 -0.5354873 0.553633 -0.104948595 -0.49628818 0.14929289 0.09423562 0.2933591
ACTGGGTGGT 0.20686427 0.70242554 0.99429506 0.015886677 0.25053605 -0.559395 -0.70513266 -0.6025369 -0.32642162 0.25591657 0.1310717 0.519837 -0.36290607 -0.7055491 -0.27498746 -0.093379244 0.4333442 -0.7391354 0.28277317 0.14257532 0.33619398 0.31880388 0.045873933 0.34393275 0.0026693675 -0.21846095 0.06156546 -0.61225414 -0.083589494 -0.16705899 0.16888164 0.886846 -0.77230674 -0.13279666 0.19461673 -0.09246887 0.41753787 0.6707839 -0.064560786 0.52901036 0.422536 -0.5863968 0.5330043 0.18475392 0.8030767 0.046005663 -0.1799025 0.10263678 -0.49808013 0.46099296 0.17708802 0.13770032 0.9323776 -0.32232338 -0.57995874 0.42988682 -0.5232749 -0.16327319 0.49827492 0.50673455 -0.292741 -0.16153283 0.25604612 -0.4540571 -0.050028622 -0.16196509 0.42628106 -0.4143378 -1.6685969 -0.03968188 -0.888967 -0.42720634 -0.3818625 -0.30266994 -0.23176378 -0.28654703 0.32942098 -0.09376252 -0.08561287 -0.47326067 -0.43189853 0.38473016 -0.41832718 0.30500385 0.6267997 0.7840819 0.32431665 0.8625559 0.41688275 -0.07809771 0.28289875 0.38804775 -0.0061320583 -0.4412143 -0.08079213 -0.17366101 -0.19779843 -0.37816054 0.050277278 -0.5486709
ACCACCCAGT -0.58133173 -0.32328302 -0.17775576 0.023118488 -0.14889967 -1.483404 -0.18536767 -0.013337642 -0.5568036 0.29317147 -0.03837478 0.32231036 -0.7513982 -0.44412687 0.4215913 0.2915581 -0.01914889 1.1140008 -0.41413596 -0.14651491 0.14442797 -0.19825082 -0.15522742 0.09330779 -0.33638254 -0.5372033 -0.42971307 1.0139499 0.5256346 -0.2967857 -0.22257397 0.369726 0.7031346 -0.5779024 -1.1174738 0.8940553 0.16562194 1.1672288 0.07087284 0.026187273 0.18645772 -0.7011607 -0.17449585 0.102574095 -0.100773044 0.03795848 -0.45758244 -0.785486 -0.95198524 -0.02269707 0.6169815 -0.4085519 0.1613928 -0.041132607 -0.06444755 0.14682703 -0.45276037 0.2350651 -0.51560974 0.3081719 -0.5157688 0.8831518 0.43238264 -0.14339386 -0.35805345 0.1470551 0.25361317 -0.48690048 -0.41157392 -0.11975516 -0.478784 -0.63500684 -0.0070696655 -0.1861699 -0.1416718 -0.5066942 0.5965952 0.19039652 -0.1590937 0.3339676 -0.72491086 -0.008557581 -0.088323414 -0.25532612 -0.16037042 0.10012764 0.24372236 0.19507037 0.16656825 0.16685645 1.0097286 0.52566403 -0.37006897 -0.11508345 0.42432934 -0.035053235 -0.6332764 -0.014204241 0.2459245 0.5675406
TACTGGGTGG 0.11603803 0.61937195 0.8788231 0.23932219 0.15707892 -0.72888273 -0.593707 -0.74254346 -0.5378804 0.14391907 0.08263249 0.43297306 -0.42402422 -0.63263434 -0.12830402 -0.051281083 0.4786593 -0.7439715 0.1004698 0.20936003 0.093745895 0.24549264 -0.06197045 0.40011066 0.21107979 -0.24414776 0.03333584 -0.5249498 -0.1514052 -0.1440348 -0.04411795 0.64240044 -0.7036917 -0.16361818 0.23480943 0.027659776 0.35842672 0.53679335 0.08726768 0.5606521 0.5368224 -0.48465627 0.47071764 0.340655 0.7924987 0.052060623 -0.28737193 0.025238916 -0.55224586 0.5682013 0.24238074 0.020647582 0.65106803 -0.35455313 -0.55995464 0.33753204 -0.51035875 -0.19737697 0.3355146 0.68691814 -0.3332992 -0.13774464 0.011661275 -0.37481222 -0.04929303 -0.09594439 0.45363772 -0.3254952 -1.7079087 -0.05483236 -1.1290647 -0.60899776 -0.595073 -0.3024929 -0.35902455 -0.4306025 0.36198542 -0.04773471 -0.10511989 -0.37556162 -0.42276302 0.37007412 -0.47454634 0.30142584 0.62534904 0.7490835 0.33128527 0.81498164 0.25562444 -0.3426971 0.40146273 0.42176682 -0.21030785 -0.6859395 -0.15605667 -0.23058991 -0.23158805 -0.5267164 0.06681826 -0.76400316
CCACCCAGTA -0.46474522 -0.20382376 -0.27748597 0.11992274 -0.14094451 -1.4313574 -0.13794425 0.029814577 -0.546636 0.13598774 -0.054872368 0.336322 -0.85283065 -0.48150814 0.70967937 0.21869615 0.16015433 0.8882988 -0.4923148 -0.20216523 -0.12602508 0.039532557 -0.10543701 0.17676154 -0.27714717 -0.32277802 -0.48945108 1.1732353 0.7006084 -0.36524895 -0.11330454 0.35502547 0.5060404 -0.5124767 -1.0081882 0.71173894 0.19011216 1.0372242 0.2273407 -0.18096651 0.29190704 -0.69404894 -0.017701639 0.11758063 -0.09017975 -0.013438426 -0.45537975 -0.8789463 -0.9887088 -0.27904382 0.60146046 -0.34652436 0.071432024 -0.086377814 -0.113912046 0.22880302 -0.3032403 0.117984295 -0.78178257 0.33796853 -0.5656977 1.0843444 0.4339589 -0.070915915 -0.47365758 0.08360721 0.3875113 -0.25840583 -0.29203412 -0.0828641 -0.32128403 -0.71713644 0.1376099 -0.43233076 0.0881735 -0.38576874 0.48209634 0.123300195 -0.19971457 0.27508456 -0.58702993 0.015091706 -0.082214676 -0.054117143 -0.01610665 0.072834365 0.035512112 0.06336764 0.08423247 0.3255862 0.812791 0.7947152 -0.40983433 -0.1387728 0.49023065 -0.050429106 -0.6449583 -0.041857198 0.22611982 0.58260006
GTGGACCTAC 0.38660944 0.4371216 0.18690318 0.4170087 0.0412125 -1.2380235 -0.6820669 -0.70208067 -0.15197742 0.35409135 -0.33369353 0.44453737 -0.6014857 -1.1231003 0.011079482 -0.09765547 -0.14788932 -0.5804062 -0.18969603 0.30160856 0.05248964 0.37998778 0.03397704 0.59420985 -0.056210183 -0.45200527 0.028108655 -0.703457 0.16027284 -0.23322946 -0.50026774 0.65134764 -0.42608917 -0.2868684 -0.44558105 0.23925447 0.22799394 0.8996332 0.4243756 0.5473757 0.40421996 -0.6488068 0.22575077 0.078561135 0.56090677 0.05667414 -0.51004493 0.16705498 -0.7729885 0.6864054 0.19599184 0.30158874 0.93907833 -0.45826924 -0.42261863 0.2612425 -0.77993554 -0.3409376 0.5732107 0.6112131 -0.15314221 0.19387363 0.181388 -0.14572763 0.007859781 0.19304407 0.5603039 -1.1525818 -1.2213427 -0.0428213 -0.6022182 -0.4610892 -0.21623048 -0.3821444 -0.49934053 -0.4925764 0.09294523 0.1394004 -0.59847325 0.28837323 -0.07051274 -0.0782488 0.028165052 0.13682492 0.748395 0.45506445 0.46475798 0.70468104 0.35973722 0.12951472 0.624756 0.78620106 -0.13741322 -0.61161345 -0.13865063 0.16063318 -0.4782838 -0.2419993 -0.15897185 -0.43481302
GTAGGTCCAC 0.17732689 -0.08558965 -0.64590794 -0.035898756 -0.52337044 -1.2366682 -0.13814312 0.041847773 -0.17669798 0.10148153 -0.25060254 0.59159887 -0.43947887 -0.35596323 0.38088897 0.35724744 0.41622064 0.88591135 -0.49515355 -0.31794655 0.17473873 -0.30493933 -0.13851991 0.15087613 -0.52730656 -0.42261285 -0.2652453 1.2904042 0.9148268 -0.40103242 -0.3100966 0.91960514 0.17507902 -0.72080094 -1.0420694 0.5964243 0.11078307 0.99992985 0.5924998 -0.029805144 0.068101555 -0.6539438 -0.0022512346 0.4124122 0.2986139 -0.078063235 -0.39076748 -0.67669296 -0.57681197 -0.36490917 0.16327323 0.08953273 0.20365772 -0.1165519 -0.2222901 0.008889502 -0.38711786 0.14323173 -0.45401606 0.6310774 -0.2838671 0.5373363 0.26392773 0.0018819794 -0.3018183 0.26201254 0.24821724 -0.5574947 -0.14989606 0.16641651 0.10820263 -0.81679195 0.29237458 -0.54345846 0.7524015 -1.2111815 0.1527366 -0.5248177 0.27516946 0.44938672 -0.11982507 0.10907353 -0.15045738 0.2420968 -0.06420029 0.5448192 -0.035383053 -0.23923698 0.0015394994 0.7930069 0.629925 0.80677724 -0.63520443 -0.3625789 0.37215966 0.103599705 -0.36417577 0.026508588 -0.16416508 0.34729365
GGTGGTGCAT 0.56173676 0.58565986 0.8023004 0.3724774 0.47134328 -0.5057441 -0.7462491 -0.6298044 -0.3023693 0.4411608 -0.09020139 0.49544325 -0.61133313 -0.5319844 0.11542279 0.48384553 0.8415678 -0.9900126 -0.23953725 -0.052109156 -0.019982282 0.13145152 0.06480481 0.72126985 0.45075816 -0.41960546 0.14478819 -0.4025047 0.09096527 -0.15446886 0.4258025 0.953022 -0.5984135 -0.24635658 0.24945061 -0.22526151 0.5488029 0.36318737 0.1963956 0.50253814 0.48289362 -0.44868308 0.4285262 0.3550865 0.6253694 0.20881866 -0.4616162 -0.11067585 -0.51866513 0.63343877 0.0756431 -0.12405805 1.2976502 -0.58371675 -0.37224802 -0.012494461 -0.5088955 -0.31341386 0.07898596 0.6085378 -0.46299365 -0.22490892 0.55698264 -0.29281482 0.29541796 -0.06766071 0.59900916 -0.6597446 -1.4572963 -0.076710165 -0.69982797 -0.37218836 -0.34447306 -0.27444762 0.07278888 -0.40692225 0.18727042 -0.5184804 0.06321646 -0.40770477 -0.27538577 -0.0081182 -0.3661293 0.50115496 0.47269395 0.6095433 -0.04597439 0.83075386 -0.0417406 -0.1556343 0.31907576 0.72977686 -0.15235451 -0.5975223 0.05284873 0.22766514 -0.16892442 -0.14882362 0.018452909 -0.42680162
ATGCACCACC -0.65091175 -0.52240574 -0.08655487 0.19799697 -0.15457688 -1.3406805 -0.3161552 0.06888645 -0.4037009 -0.12636971 0.18049145 0.58116883 -0.7533437 -0.53725225 0.38594896 0.20699525 0.021012247 0.80136764 -0.13952023 -0.09282551 0.0509903 -0.31150323 -0.35760128 0.00845492 -0.12015707 -0.30969235 -0.54077655 0.9020041 0.47365612 0.025039583 -0.4322762 0.37034056 0.49402997 -0.7411462 -1.3789926 0.8928242 0.05564818 0.99308765 0.22883676 -0.14962754 0.0027363505 -0.75075644 -0.0718411 -0.17891599 -0.30501318 -0.09016321 -0.29189903 -0.454424 -0.2978156 -0.32808533 0.7607201 -0.3678874 0.2844964 -0.342523 0.089935705 -0.018897412 -0.43804753 -0.0062190937 -0.4792522 0.12395577 -0.43596518 0.32277307 0.1917567 -0.20652016 -0.47336274 0.2855565 0.08122419 0.17278229 -0.5612313 -0.18463574 -0.62152505 -1.0189524 0.2672697 -0.22040953 -0.08010957 -0.6012885 0.43392044 -0.059827488 -0.14977601 0.65363836 -0.41418046 -0.084546946 -0.39342162 -0.0675448 0.26100275 0.28490934 -0.02130969 0.4205826 0.42399064 0.36522597 1.1316556 0.6995993 -0.39584666 -0.24625432 0.42053798 -0.12685053 -0.49259496 0.021714706 0.2985141 0.60846454
GTGGTGCATA 0.5130841 0.59068507 0.7477849 0.3638108 0.52955896 -0.50765914 -0.71803707 -0.49802393 -0.08828354 0.33651027 0.14485893 0.28581846 -0.6701744 -0.17850408 -0.03744234 0.51893115 0.7797183 -1.3371451 -0.0072936327 -0.14196083 0.19958438 0.17192283 -0.057667367 0.44934982 0.4918179 -0.3547605 -0.051733114 -0.3405731 -0.0366425 -0.0688999 0.11915244 0.9576809 -0.639333 -0.24945703 -0.04943012 -0.23550634 0.5110382 0.48403528 0.005435462 0.47728708 0.6045108 -0.44800934 0.6687676 0.4720228 0.6638682 -0.008008017 -0.36404836 -0.04745735 -0.56516165 0.45960602 0.030611476 -0.08474197 1.170223 -0.45745656 -0.263512 -0.015765935 -0.4909196 -0.36177897 0.22582152 0.5476687 -0.44695273 -0.35944167 0.6677176 -0.27954838 0.4901109 -0.32177743 0.5008117 -0.7017533 -1.3795298 -0.03904744 -0.7065316 -0.34027246 -0.45770225 -0.08697724 0.10306919 -0.40261602 0.3638993 -0.40910447 0.20021941 -0.43127486 -0.44149828 0.22460242 -0.37410188 0.4495521 0.31321284 0.9172286 0.1912784 0.7745471 0.21233884 -0.11146649 0.30480722 0.7887556 -0.18073608 -0.4259164 -0.021732815 0.31185937 -0.20320907 -0.05742295 0.24393749 -0.28716278
TATGCACCAC -0.62031204 -0.4686308 -0.11124473 0.11743966 0.056008756 -1.2201229 -0.5370229 0.2554146 -0.43840963 -0.023353634 0.32848436 0.6638433 -0.75251377 -0.71692604 0.2568621 0.2681129 0.13295475 0.8070737 -0.11961343 -0.21661527 0.12800187 -0.31027585 -0.19076286 0.04205511 -0.30337358 -0.3072133 -0.50587493 1.0455427 0.37967122 0.102238365 -0.24344192 0.04490487 0.65749216 -0.9267117 -1.4651872 0.60623395 -0.10832423 1.0344938 0.18602723 -0.071756355 -0.051195774 -0.5046108 -0.33024678 -0.2848883 -0.4128391 -0.18945123 -0.31035623 -0.57900196 -0.38645265 -0.17376566 0.76416093 -0.56511533 0.43334794 -0.24130538 0.21780522 -0.20605728 -0.41235694 -0.18539426 -0.4807727 -0.091877654 -0.33681318 0.38459122 0.2182685 -0.22239324 -0.26557922 0.30915207 0.32241634 0.04482856 -0.5363298 -0.023901954 -0.5465167 -0.90669 0.2165017 -0.10404172 0.104662806 -0.5427524 0.4188955 -0.3650525 -0.056385353 0.69854105 -0.19625084 -0.20189798 -0.30805796 -0.050721463 0.21022995 0.19777991 -0.029791031 0.47118622 0.46688098 0.49118882 1.0113196 0.7234585 -0.4057772 0.0011004289 0.598996 -0.12725443 -0.65212226 -0.19283031 0.12314315 0.62227684
ATATTCCCTA 0.4525194 0.54156786 0.336767 0.19592519 0.69848114 -0.038774468 -0.84083563 -0.35219264 -0.22218437 0.56451213 0.12830092 -0.061843734 -0.25607207 -0.019435082 -0.19631748 0.5195922 0.534644 -0.83279437 0.12726949 -0.47301972 0.275626 -0.19521517 0.34923694 0.27065393 0.15251653 0.14316095 0.20018478 -0.15725069 0.10569086 -0.2832342 0.68758374 1.1769713 -0.46124768 -0.099337265 0.022232188 -0.25960058 0.6699498 0.4293126 -0.40786213 0.013202619 0.55901587 -0.119129874 0.5204044 0.3685808 1.2766868 -0.023905164 -0.05241019 0.06931047 -0.7154693 0.40848085 0.054558758 -0.29404014 0.80800915 -0.32921132 -0.61053234 0.0030292044 -0.34161314 -0.77047795 0.19476117 0.31864887 -0.52717584 -0.21433519 0.9173943 0.08486622 0.3260633 -0.063918464 0.4595324 -0.06100159 -1.0200033 -0.10607317 -0.6222657 -0.5206605 -0.45359865 -0.39014006 -0.13972948 -0.17272504 0.39935634 -0.4755732 0.17975982 -0.62166387 -0.70705897 0.24195842 -0.61266965 0.26666844 -0.31398797 1.0859936 0.6939005 1.0370466 -0.14418274 0.24211814 0.2979445 0.47354746 0.16388811 -0.11498468 0.22496758 0.010400922 -0.045188934 -0.0872141 0.5600559 -0.10971397
TAGGGAATAT -0.6757391 -0.4741777 0.27709308 0.11692383 0.1336171 -0.8279815 -0.834115 0.11705877 -0.7825703 0.15291949 0.35550025 0.6713441 -0.73671556 -0.6585894 0.6002892 -0.17103119 -0.3471645 0.5380566 -0.13281962 -0.5384274 -0.03329947 -0.287272 -0.20780894 0.1959697 0.104873896 -0.4915213 -0.36526483 0.44110665 0.0847305 -0.076743595 0.16874959 0.7048061 0.6059289 -0.8796311 -0.84274477 0.64353985 -0.1951831 0.8338569 0.25779128 -0.1898234 0.25260758 -0.3194243 -0.28571644 -0.38981557 -0.6296977 0.030628702 -0.37309632 -0.44534168 -0.5319518 -0.22871777 1.0184985 -0.5291567 0.16186802 0.010495703 0.09291096 -0.1726089 -0.44122365 -0.4051191 -0.5785531 -0.10044915 -0.3828957 0.86362994 -0.38423485 0.09909904 -0.28100622 0.26813248 0.20512088 -0.1278579 -0.8542777 -0.5328212 -0.80715406 -0.75252473 0.31841525 -0.44088084 -0.11761277 -0.03766059 0.10464232 -0.010697454 -0.51920986 0.5191342 -0.032625508 1.1294556e-05 -0.38583025 -0.19052716 -0.0876469 0.6520219 0.33926323 0.14983572 0.2989032 0.54243314 0.50548047 0.36623445 -0.13437742 0.16770361 0.44118413 -0.21891434 -0.86349446 -0.34600666 0.1696702 0.90827805
TGGTGCATAT 0.42394915 0.63681597 0.79371136 0.2839482 0.50779235 -0.5626136 -0.8504912 -0.5319923 0.046829764 0.5625978 -0.041489128 0.45901635 -0.5237035 -0.5095791 -0.29078588 0.36255547 0.5707753 -0.9909188 0.03592186 -0.6715981 0.35956806 0.010152654 0.12702459 0.32296616 0.5398475 -0.27493244 -0.07178795 -0.060639646 -0.14065662 -0.25974515 0.38561755 1.0269613 -0.5645005 -0.12953736 -0.3480894 -0.16548899 0.467682 0.36130038 -0.31590047 0.40269762 0.67483807 -0.4569406 0.73028266 0.4154274 0.7041477 0.15062277 -0.50843805 -0.36059725 -0.66764605 0.39024085 0.06559154 0.0026956247 1.0523332 -0.5396146 -0.3269629 0.09605157 -0.42384183 -0.53459024 0.35707688 0.34952834 -0.65391666 0.07418754 0.80897003 -0.18734081 0.34290344 -0.16385882 0.48811564 -0.7305018 -1.2407453 0.24055377 -0.9261134 -0.2432862 -0.4781582 -0.39064103 0.0033098822 -0.36555412 0.2826258 -0.54523575 0.031861328 -0.49901992 -0.63732225 0.12583393 -0.58069706 0.2826644 -0.06274354 0.8928439 0.29778513 0.5907082 -0.009698569 -0.3904247 0.21033783 0.6049511 -0.07788083 -0.49528608 -0.1035338 0.2803448 -0.33787042 -0.054614924 0.35918558 -0.32148105
ATATGCACCA -0.69944996 -0.4430748 0.24810831 0.1332044 0.07647961 -1.2540128 -0.45430344 0.26350138 -0.2494953 -0.050021544 0.30250323 0.91403955 -0.78835917 -0.7871611 0.27164093 0.02223831 0.10276095 0.53092086 -0.2792965 -0.29691336 0.24598433 -0.08838414 -0.3467016 -0.068183124 -0.08334258 -0.526716 -0.4991107 0.8242953 0.12234599 -0.009764162 -0.16301021 0.24366054 0.47489676 -0.8658061 -1.4839278 0.7113801 -0.07471223 0.89919984 0.29787275 -0.043263536 0.10012472 -0.5684259 -0.1415775 -0.12507541 -0.58995974 -0.11810078 -0.4680265 -0.66952777 -0.4272487 -0.09444377 0.87627 -0.43847734 0.47311357 -0.40919134 0.35651422 0.021909611 -0.42701212 0.034062963 -0.56159365 -0.14542513 -0.42212453 0.6666344 0.046498045 -0.23536849 -0.19487484 0.35631222 0.48305115 0.04140795 -0.6389896 -0.09658391 -0.49251014 -0.7995122 0.20634803 -0.07675151 0.0038276115 -0.47090247 0.35061848 -0.18693611 -0.0008618665 0.4678856 -0.41138443 0.113093294 -0.16072519 -0.18209681 0.24065913 0.3555902 -0.062324792 0.48201606 0.57647866 0.3700757 1.0145668 0.6092502 -0.32699347 -0.13346672 0.39253744 -0.012145558 -0.56604636 -0.2315705 0.22136548 0.7410925
GGACCTACTG 0.31658608 0.536475 0.45580664 0.17583424 0.032792643 -0.8769162 -0.5251819 -0.6541003 0.10290468 0.28995493 -0.32832262 0.16183746 -0.34895715 -0.8314254 -0.056468025 -0.11596169 -0.2605713 -0.9450375 -0.077838056 0.4052023 0.42062268 0.50009567 -0.14963739 0.32394293 0.10327749 -0.46011934 -0.021494066 -0.53116363 -0.014691095 -0.31377086 -0.7675624 0.88905305 -0.35391325 -0.17807364 -0.12177373 0.041071597 0.46451423 0.8364306 0.20195498 0.6177159 0.64027745 -0.8908066 0.5544961 0.23498896 0.6691689 0.03736223 -0.50800467 0.09824196 -0.76790977 0.33031073 0.15875345 0.3510084 1.0123452 -0.5160566 -0.59118384 0.6013899 -0.649007 -0.04254143 0.52955765 0.6591303 -0.31709546 0.1804879 0.4005884 -0.2502734 -0.15019171 -0.14494571 0.58145374 -1.0363483 -1.5170169 -0.060028702 -0.82729137 -0.30227768 -0.5584311 -0.39089492 -0.41346553 -0.50976604 0.2426165 0.10582291 -0.25195274 0.025568508 -0.32767475 0.11870807 -0.24277897 0.165867 0.43487936 0.8194029 0.51367825 0.5347275 0.61824214 -0.21562947 0.26472285 0.8110716 0.11209039 -0.6781962 -0.08094898 0.14941823 -0.40526125 -0.28046247 0.0067242295 -0.313136
CAGTAGGTCC 0.0581639 -0.13857257 -0.42943218 -0.25214812 -0.12539315 -1.3799648 -0.075744614 0.14624237 -0.20134562 0.27479166 -0.19285691 0.55019087 -0.65251577 -0.45822713 0.44648698 0.58127385 0.18327309 0.6981675 -0.5347805 -0.31709525 0.09743359 -0.09169688 -0.11279638 0.24049842 -0.45010686 -0.46453735 -0.28568256 1.2746891 1.0148726 -0.14604098 -0.36847138 0.5522282 0.37651637 -0.6486085 -1.0643952 0.30816293 -0.019549819 1.2054925 0.43757376 -0.009802937 0.20342863 -0.7011393 -0.1344127 0.26556742 0.06787008 0.0027306674 -0.6327128 -0.892992 -0.83862424 -0.31302142 0.16278261 -0.14898872 0.44995782 0.049401212 -0.09725193 0.011455913 -0.39196986 0.019580338 -0.5871277 0.4582825 -0.36141405 0.8060159 0.45714593 -0.21658361 0.053092323 0.17688887 0.38443258 -0.70662594 -0.13665141 0.20347698 -0.12863046 -0.7145658 0.31481728 -0.3316676 0.7863353 -0.7256496 0.117543034 -0.13667083 0.08865902 0.54221773 -0.31149474 -0.14626561 -0.032518808 0.34931076 0.08694936 0.272506 0.13673148 -0.19770916 -0.041455932 0.75886476 0.59671503 0.9216839 -0.38180873 -0.30944446 0.7230018 -0.077195935 -0.67760795 -0.13162786 -0.17103198 0.48097366
TGCATATTCC 0.502914 0.5158025 0.4569987 0.13242759 0.67457277 -0.4394375 -0.69650936 -0.3277073 -0.2302658 0.49659607 0.083316796 0.16313529 -0.11095279 -0.16601877 0.23240794 0.5223711 0.625463 -1.115103 0.082663424 -0.5887355 0.14288323 -0.13468325 0.31731218 0.27686203 0.34562397 -0.049396075 0.1332698 -0.21407594 -0.058512896 -0.31983605 0.60073346 0.95259595 -0.3835821 -0.121507175 0.19960374 -0.37115425 0.4965361 0.61549205 -0.2167935 0.3486865 0.74284923 -0.32993433 0.46571228 0.36049148 0.9738004 -0.0059700236 -0.41736192 -0.21226272 -0.91393626 0.63979197 0.20294823 -0.40149587 0.89899296 -0.31363812 -0.50224525 -0.09784988 -0.5458333 -0.7433225 0.108419485 0.45211318 -0.43446073 0.30485374 0.7890501 -0.1656511 0.46920556 -0.019019552 1.016318 -0.2505066 -1.1638865 -0.03881448 -0.7836877 -0.34600708 -0.5077 -0.42690435 0.099298716 -0.08379381 0.25634417 -0.54729426 0.24220426 -0.54848677 -0.52685744 0.14736935 -0.36981836 0.14851761 -0.23244776 1.0031756 0.5161828 0.48243523 -0.38417935 -0.10890811 0.20650844 0.4120229 -0.1155624 -0.2263602 0.08293027 0.13751966 -0.2800659 -0.25436506 0.24826919 -0.08678513
GGAATATGCA -0.70745397 -0.3960033 0.28537062 0.13259852 0.21865393 -0.9552185 -0.7586464 0.30270037 -0.49889347 -0.11156381 0.44051993 0.7074868 -0.9534545 -0.5017259 0.65671957 -0.070724204 -0.14432031 0.553564 -0.18132107 -0.41005668 -0.18150315 0.12771723 -0.26262826 -0.40517437 0.081959605 -0.38414618 -0.48058578 0.5763699 0.1597853 0.22709887 0.13203193 0.53954005 0.44199303 -1.021584 -1.1535624 0.49398118 -0.13120754 0.57760304 0.19961394 -0.12506887 0.30284595 -0.41367397 -0.15884095 -0.38536677 -0.25687924 0.0006836943 -0.28341067 -0.54454046 -0.53470963 -0.24950561 0.8463518 -0.1801934 0.49343854 -0.23963119 0.17008068 -0.27059692 -0.31482452 -0.3449207 -0.7830621 -0.0011973226 -0.46090275 0.62620664 0.20952342 0.20225094 -0.1852288 0.39590356 0.6753921 0.22521171 -0.6091829 -0.37095663 -0.63908947 -0.94695246 0.35624906 -0.13755497 0.042642403 -0.2252002 0.31275427 -0.18228255 -0.3972535 0.4246356 -0.1319311 0.06873129 -0.37862378 -0.11394132 0.24905974 0.7347353 0.17281868 0.5857083 0.31914046 0.44057143 0.9929841 0.7303932 -0.49607927 0.052033573 0.592297 -0.17689484 -0.4409368 -0.42308426 0.4122635 0.8806391
CTGGGTGGTG 0.21511605 0.62304974 0.87102103 0.06924482 0.3106166 -0.28275606 -0.8914059 -0.34373328 -0.45314938 0.29912415 0.025496049 0.40410224 -0.5344239 -0.67024577 -0.3025387 0.0764486 0.38552335 -0.7810846 0.1580701 0.11289104 0.24980694 0.0036746387 0.15278994 0.5139148 0.043604452 -0.20293356 0.05145985 -0.55265296 0.14017557 -0.31135425 0.3537735 1.1060749 -0.482398 -0.25698143 0.2875224 0.015355937 0.4534776 0.49080986 -0.16496782 0.40644982 0.4179704 -0.5441726 0.47473392 0.1175891 0.8252819 0.13103847 -0.20791905 0.07028979 -0.60663074 0.58757585 0.12526467 0.1512847 1.1571594 -0.30790967 -0.6971191 0.2492897 -0.56123525 -0.2349354 0.47651717 0.49516356 -0.34252852 -0.31365687 0.42499396 -0.4050386 0.054898087 -0.27086598 0.24992773 -0.7361942 -1.6040785 -0.20308559 -0.9042806 -0.598892 -0.2926506 -0.3073949 -0.2574889 -0.35381544 0.11298126 -0.13696839 -0.071595974 -0.4238062 -0.38201782 0.15768321 -0.36906552 0.25144136 0.6646933 1.0156399 0.27212793 0.85307693 0.46802458 -0.28789577 0.03987244 0.42683548 0.107182525 -0.41561273 -0.0952694 -0.08395214 -0.2485484 -0.35346693 0.061888758 -0.44006965
CACCACCCAG -0.47125947 -0.4489635 -0.22262649 0.28467378 -0.20248437 -1.2967533 -0.31669244 0.056961652 -0.49010107 0.19084892 -0.011212985 0.47682476 -0.67291677 -0.5547904 0.34861887 0.024240332 0.07097291 0.8373001 -0.37254387 -0.17246 0.2486219 -0.36431745 -0.15139164 0.2682104 -0.12829314 -0.4098332 -0.58571917 0.96531695 0.46132442 -0.33470887 -0.39430502 0.38663578 0.52805996 -0.7604607 -1.3751363 0.855557 -0.016317233 1.0599191 0.32288322 -0.13836926 0.2708201 -0.64418375 0.014973724 -0.048512228 -0.13946879 0.20174748 -0.4827218 -0.84491533 -0.624138 -0.10381181 0.6352942 -0.642714 0.24630646 -0.08912694 -0.13180459 0.17494892 -0.5393541 0.1770412 -0.40478557 0.40720826 -0.5056028 0.81509805 0.19750626 -0.2276392 -0.3976129 0.27731743 0.058881372 -0.20681253 -0.409173 -0.20495631 -0.3368574 -0.8045101 0.22617711 -0.3781764 -0.22230631 -0.41938186 0.5204705 -0.05342462 -0.0416538 0.28153732 -0.5298385 -0.14048268 -0.07771398 -0.25695577 -0.2621616 0.20565496 0.25547364 0.13512461 0.23640224 0.2787524 0.98889464 0.6505761 -0.16451277 0.049178407 0.13739118 -0.013138743 -0.8782691 0.10493625 0.24436001 0.7034128
GGGAATATGC -0.65475416 -0.4832809 0.21491697 0.14528291 0.090473615 -1.1090022 -0.7486891 0.14129713 -0.5887849 -0.03499369 0.25061157 0.54471344 -0.82007825 -0.5813871 0.6928181 0.020127233 -0.33405465 0.5698748 -0.25618598 -0.32111508 -0.36314255 0.10448298 -0.26608136 -0.24046753 0.14912476 -0.5398398 -0.3088177 0.5281896 0.13183776 0.062567644 0.18485238 0.46974674 0.5745843 -0.8682673 -0.98212034 0.3965576 -0.1692359 0.7446825 0.30106795 -0.029323082 0.41152018 -0.51825047 -0.18594594 -0.26501188 -0.42738143 -0.07382785 -0.496816 -0.4361226 -0.65357167 -0.1455229 0.8506301 -0.3231901 0.20511977 -0.2547927 0.16695061 -0.19747926 -0.3723643 -0.6183298 -0.78990513 -0.041597314 -0.48330787 0.8315319 -0.124478936 0.28289577 -0.14668486 0.31751066 0.66759425 0.0661387 -0.70753664 -0.35489216 -0.63676107 -0.8824147 0.26824492 -0.31688544 0.02335055 -0.17506799 0.07753772 -0.022348182 -0.68409973 0.61750025 -0.08258524 0.051841836 -0.40954247 -0.15615484 0.2615795 0.60850865 0.3525974 0.29299504 0.32098937 0.4188936 0.7147479 0.7244292 -0.41696194 0.06410551 0.6814206 -0.18330906 -0.5475493 -0.3093654 0.31366104 0.93833834
GCATATTCCC 0.39251176 0.47582093 0.5838587 0.21063401 0.6525931 -0.3981399 -0.6626376 -0.45859587 -0.35757527 0.53602344 0.14419775 0.19011883 -0.17369202 -0.12780216 0.026831241 0.52551913 0.7205436 -0.94436634 -0.01851022 -0.58811754 0.13761102 -0.12267586 0.23154236 0.13173361 0.352176 0.105016746 0.1618155 -0.08115189 -0.106233776 -0.15268408 0.5567004 0.88517845 -0.37202656 -0.11094438 0.11655476 -0.29128027 0.4800662 0.4463952 -0.2704534 0.2551633 0.74573386 -0.19526288 0.52340394 0.41647223 1.0069957 0.03963688 -0.400779 -0.2584792 -0.8355098 0.5340895 0.16965476 -0.3151734 0.64300615 -0.3148083 -0.4042902 -0.18509217 -0.468088 -0.6812343 -0.022412296 0.47584227 -0.5901807 0.19246362 0.70794415 -0.11581557 0.36247027 0.09149086 0.91937417 0.0013654768 -1.1179302 0.03538219 -0.9108242 -0.49740505 -0.5741245 -0.4055104 -0.028102577 -0.24718003 0.39963895 -0.40932736 0.25967842 -0.5303382 -0.74184084 0.32978043 -0.56026834 0.2060413 -0.3170763 0.9367813 0.59009063 0.7478898 -0.34348953 -0.15855855 0.37858 0.3568267 -0.13647786 -0.36549044 0.18053904 -0.033317264 -0.090653844 -0.19112061 0.42913276 -0.2586848
AGATAAGCCA 0.037247714 0.34886962 -0.35219434 -0.018144613 -0.8618022 -0.58204204 -1.2128644 -0.23655452 -0.21906088 0.3517462 -0.1422752 0.19339372 0.11276716 0.052792884 0.5896284 -0.021219676 -0.0033473987 0.35980865 -0.7652499 -0.7889773 -0.0028728158 -0.37070432 0.100047015 0.06604799 -0.5094263 -0.5237461 0.19407028 0.9694371 0.09892296 -0.62642115 0.056730814 0.68876743 0.20432974 -0.6598204 -0.621288 0.031302255 -0.46198457 0.7223903 0.5348966 0.12618914 0.30790687 -0.4580407 -0.3540451 0.29154137 -0.035150845 -0.5291106 -0.08650736 -0.004776965 -0.6123858 -0.37876952 -0.18635395 0.25496826 -0.7721604 -0.05457849 -0.05206518 -0.35666963 -0.592953 0.12208127 -0.551813 0.34419113 0.3345445 0.57489103 -0.33225814 -0.2253548 0.5145973 0.5717786 0.51572275 -1.0377505 -0.6500212 -0.41611746 -0.521109 -0.78538615 0.4896285 -0.49983656 0.3548893 -0.92268723 -0.06745839 -0.16062687 -0.1428565 0.46290618 0.48572403 0.39918628 -0.5603734 0.20673084 -0.699364 0.7094405 0.34038264 -0.0013555044 0.2914219 0.85902226 0.114644356 0.32893232 -0.2851299 -0.0071054376 0.21111767 0.044789683 -0.4947316 0.18334468 0.5087168 0.3738052
TGGCTTATCT 0.7835795 0.435886 -0.7625471 0.6494491 0.061609287 -0.488003 -0.76243305 -1.1910942 -0.38874817 0.091910124 -0.49482146 0.09005106 -0.63310623 -0.69320935 0.13664174 -0.27117234 -0.24013437 -0.2907058 -0.72183454 0.04806694 -0.023740103 0.63947845 -0.19591926 0.38919413 -0.003748623 0.37816858 -0.0046817153 -0.21542403 -0.28738323 -0.44371584 -0.40825287 0.66715074 -0.62553066 -0.37809125 -0.38936326 0.11219241 0.08786043 0.42827326 0.4052794 -0.22611284 0.4164221 0.25331503 -0.012106236 0.4514189 0.6595188 -0.1797403 0.005211375 0.16307975 -0.24751426 0.35577747 0.057165686 -0.026985481 -0.47451955 -0.66104597 -0.6297509 0.18563937 -0.2514885 -0.09476779 0.3528389 0.57721496 0.34907383 -0.28442162 0.32511237 0.23182143 -0.51201 0.5086209 0.0004631692 -0.1004077 -0.8448792 -0.14541982 -0.36544037 -0.35624304 -0.22973509 -0.65316194 -0.58923113 -0.64786977 0.42875436 0.07419782 -0.5531923 0.4255662 0.045159046 -0.122521825 -0.3845684 0.4187138 -0.26541927 0.47391677 0.78594315 1.3623796 0.32462448 0.94147235 0.48993894 0.93888575 0.30701166 -0.3306004 -0.031442855 0.08522274 -0.46919218 0.050911102 0.22479533 0.09454084
TGGGTGGTGC 0.22685891 0.5354628 0.9954 0.34885135 0.41124594 -0.3259971 -0.7918841 -0.50095993 -0.6249048 0.24695504 0.0674232 0.5402133 -0.81718 -0.68253595 0.06113879 -0.14793232 0.65783054 -0.913219 -0.23789266 0.052870255 0.19228329 0.13563564 0.09223165 0.7092624 0.28605562 -0.25660574 -0.013754712 -0.42706656 0.051931407 -0.3283827 0.5325808 1.1608781 -0.6648257 -0.21945742 0.28807896 -0.04990557 0.20817511 0.6301787 -0.038911857 0.21297152 0.76338965 -0.43666187 0.6261654 0.31699336 0.51880103 0.1526277 -0.41041097 -0.22679712 -0.574837 0.6623371 -0.17516209 0.029231317 0.95417184 -0.27848542 -0.51435614 0.2863665 -0.37868017 -0.0011254133 0.36946705 0.58961624 -0.37315512 -0.12618838 0.51072454 -0.6079449 0.0030569327 -0.23930016 0.36859754 -0.64870477 -1.6034243 -0.08835627 -1.0071676 -0.4831885 -0.23750004 -0.3481438 -0.22390804 -0.23184744 0.018586658 -0.115233 -0.051882718 -0.6101066 -0.4944536 0.16652158 -0.29577655 0.18342227 0.7049758 0.91308296 0.064146526 0.79451215 0.19918224 -0.34172335 -0.014148062 0.6012622 0.025335887 -0.5146202 -0.1965424 -0.10060888 -0.42897305 -0.1784474 0.15035923 -0.30558616
GCACCACCCA -0.43401206 -0.3418853 -0.23515747 0.41464376 -0.21721894 -1.54518 -0.28599563 0.21790412 -0.5198409 0.079977736 0.19756244 0.52584034 -0.80100113 -0.41026855 0.39448565 0.09593001 0.15539569 0.69427186 -0.31232116 -0.042865813 0.07753077 -0.25129643 -0.11416524 0.09252719 -0.23514865 -0.16110457 -0.604538 0.89756334 0.35804123 -0.174576 -0.4958762 0.37904468 0.40429458 -0.7661817 -1.4618434 0.7769084 -0.055954758 1.1135801 0.38587695 -0.0023692476 0.17779456 -0.63397986 -0.05899854 0.06443567 -0.03379906 0.21300721 -0.32327557 -0.7943082 -0.56930363 -0.11835202 0.61887354 -0.5468436 0.123672724 -0.078404345 -0.25743863 0.09598705 -0.5523932 0.12261259 -0.4250756 0.40945548 -0.3357839 0.5403659 0.16040596 -0.2315782 -0.4179308 0.2617066 0.3636269 -0.18990149 -0.66120845 -0.19928978 -0.3734731 -0.8545126 0.26620767 -0.26589277 -0.28184268 -0.51690006 0.520442 -0.15240236 -0.035712626 0.4018908 -0.4582396 -0.017812662 -0.06416934 -0.23990236 -0.022966089 0.275025 0.279383 0.33288193 0.35172868 0.28153765 1.234532 0.6467281 -0.3193171 -0.045056257 0.12230251 -0.067298666 -0.6676788 -0.047274146 0.39370224 0.5387215
ATTCCCTATC 0.6872522 0.43121338 0.53292656 0.44998473 0.6483435 0.012530933 -0.82097054 -0.4417932 -0.41049156 0.6350858 0.07172792 0.13434695 -0.4213676 -0.09906037 -0.102020234 0.34887844 0.90659577 -0.6252303 -0.048077814 -0.77764726 0.16946603 -0.19140075 0.14609168 0.5800493 -0.05305165 0.109862745 0.30122924 -0.018194929 0.22371747 -0.42111248 0.81376565 1.4225067 -0.71476364 0.07209291 0.10466961 -0.1977758 0.66973794 0.3071771 -0.234761 -0.18715622 0.74000746 0.057095826 0.50643325 0.26083106 1.0758141 -0.035669226 -0.110323645 -0.0597054 -0.61574614 0.32280192 -0.076566674 -0.25612572 0.3841203 -0.1635596 -0.6095875 -0.0049372464 -0.3669206 -0.61874115 0.12782007 0.29630923 -0.6224493 -0.18000737 0.955548 -0.01457165 0.27324915 0.069517694 0.21841325 -0.25739956 -0.6827868 -0.15042262 -0.58954203 -0.45452687 -0.30160007 -0.5321193 -0.1579583 -0.18378013 0.41345656 -0.22079642 0.29856744 -0.81898826 -0.8435868 0.36535114 -0.5967524 0.30471814 -0.37991354 0.8749715 0.56096154 1.0270792 -0.3294615 0.4962068 0.17340083 0.6488838 0.15983 -0.33033755 0.06682541 0.03235608 -0.10868895 0.22784673 0.53976834 -0.3602061
GATAGGGAAT -0.7032866 -0.43438128 0.48964912 0.32381275 -0.10205132 -0.83669734 -0.75716376 0.13207732 -0.89360875 0.041124545 0.39969784 0.5328094 -0.87346375 -0.6911405 0.5181169 -0.31075513 -0.3208676 0.52418536 0.089344926 -0.35590336 -0.045139283 -0.0564762 -0.20960245 0.2315885 -0.18324968 -0.4055728 -0.36938363 0.15718357 0.150502 -0.11364869 0.055821646 0.82574123 0.5871521 -0.68362826 -0.7532066 0.7151186 -0.064753026 0.88441217 0.31441084 -0.2691123 0.27777442 -0.1750601 -0.22180565 -0.32116774 -0.49829566 -0.24385709 -0.045831386 -0.25790375 -0.60150903 -0.29856876 1.1632345 -0.28328505 0.080355674 0.10597908 -0.12532838 -0.24527363 -0.55962306 -0.14148484 -0.2529054 -0.09349006 -0.32923838 0.71138406 -0.6090755 0.1586017 -0.3855474 0.15801355 0.19074579 -0.20716217 -1.1675835 -0.39126796 -0.942582 -0.9015915 0.20461966 -0.28548986 -0.44886136 -0.18140838 0.14311637 0.1681867 -0.5799035 0.45579374 0.076217905 0.13636373 -0.2989787 -0.18969038 0.07778869 0.82282925 0.14883143 0.21789797 0.6096415 0.46405023 0.731248 0.2979768 -0.26724333 -0.0807017 0.3665143 -0.27207345 -0.5885465 -0.4510485 0.1930256 0.62142634
GACCTACTGG 0.18036589 0.52470416 0.54137015 0.09727244 0.008261512 -0.5727099 -0.7679594 -0.6134063 -0.036284532 0.40987048 -0.36554772 0.33919877 -0.16071683 -1.0460293 -0.25805318 -0.30201405 -0.10451565 -0.61171126 -0.04245653 0.10242302 0.46237433 0.3993913 0.09169324 0.35340658 -0.01221536 -0.493512 0.06587017 -0.5329058 0.04301415 -0.25804988 -0.3000267 1.0542139 -0.44574457 -0.04902124 -0.02184137 0.058528703 0.42708945 0.801144 0.034690302 0.4968406 0.78063506 -0.6214727 0.53176975 0.14592747 0.7920277 0.051673207 -0.52051663 -0.055069704 -0.742034 0.50690395 0.11997486 0.44100505 1.0067482 -0.42108268 -0.6619252 0.44489938 -0.60097617 -0.2621624 0.708123 0.5637501 -0.4401872 0.25065336 0.3703873 -0.23194028 -0.13696998 0.102692895 0.3827677 -0.8756422 -1.3733546 0.12091188 -0.88112813 -0.56648195 -0.42963722 -0.5985858 -0.6045242 -0.5351063 0.18240201 0.010269787 -0.36881164 -0.08824486 -0.20574126 0.005984807 -0.21536016 0.06833534 0.35939646 0.85345054 0.64230293 0.52307266 0.43128332 -0.37874535 0.10286149 0.7014141 0.0118063195 -0.6998661 -0.07060422 -0.079516105 -0.34511912 -0.28218237 -0.08019913 -0.45501807
CCAGTAGGTC -0.0049212505 -0.13488232 -0.2895375 -0.225703 -0.2553044 -1.6834778 0.17859414 0.05575687 -0.24606141 0.2021904 -0.306776 0.74389446 -0.65791595 -0.52647626 0.3931436 0.35510528 0.14760578 0.50878924 -0.52519166 -0.27038655 0.08143068 -0.018905887 -0.16364266 0.06106868 -0.15701783 -0.5220927 -0.41006613 1.0648179 0.86289734 -0.26449972 -0.3523495 0.8730477 0.15260418 -0.54166436 -1.0734051 0.61083376 -0.026121877 1.1188562 0.38360098 -0.06510706 0.32444108 -0.8844553 0.10377544 0.42285562 0.09623831 0.18887578 -0.7986726 -0.8470917 -0.62057906 -0.20846258 0.2833502 -0.15387015 0.32081202 -0.01915102 -0.13652763 0.28393608 -0.48137313 0.09489454 -0.4882214 0.5665212 -0.57340956 0.83156675 0.30817914 -0.26245713 0.010323297 0.22362766 0.3137943 -0.7585429 -0.21113925 0.020309495 -0.32411155 -0.60203123 0.25502312 -0.31092393 0.7243806 -0.5020131 0.24068305 0.046761867 -0.005865397 0.5331902 -0.5574967 0.091886364 -0.047856327 0.078195274 -0.01918282 0.36392075 0.27025577 -0.07098268 -0.060230717 0.4143325 0.6498251 0.9754975 -0.27157962 -0.51201457 0.55891657 -0.0463255 -0.56350785 0.017197466 -0.005218239 0.61020154
CTACTGGGTG 0.27912295 0.5710048 0.74860376 0.08264276 0.054728135 -0.6563199 -0.6524275 -0.82322377 -0.5475062 0.14403321 -0.27677 0.3631775 -0.0071027586 -0.8059193 -0.021753093 -0.042668056 0.30571675 -0.6569995 0.038738675 0.2764571 0.036780596 0.15595695 0.0032457449 0.44018468 -0.014091863 -0.39114872 0.10752835 -0.6169109 -0.098991916 -0.32903957 0.038797256 1.0222672 -0.83359027 -0.084950864 0.58359396 0.07353801 0.3815844 0.67894876 0.14805232 0.79895043 0.47412094 -0.7189392 0.36605734 0.38814124 0.88249505 0.09871534 -0.42955315 0.009892822 -0.5495112 0.5803645 0.32570624 -0.023739662 0.7612384 -0.28789854 -0.7870725 0.31453237 -0.6691567 -0.20784111 0.57077295 0.68272877 -0.36562732 0.0679263 0.09985999 -0.342759 -0.04132417 -0.05021188 0.659259 -0.497002 -1.6294438 -0.08219482 -0.95845103 -0.41852307 -0.6605335 -0.45803776 -0.10873266 -0.5134893 0.2917702 0.006496945 -0.33591214 -0.26676172 -0.34735423 0.23358603 -0.5117759 0.08060599 0.4650336 0.7212788 0.662946 0.6667176 0.1445915 -0.26490957 0.12051097 0.37045556 -0.14696956 -0.71983546 -0.0568865 -0.13032934 -0.4313601 -0.33761218 -0.27672198 -0.42161632
CACCCAGTAG -0.35952532 -0.16757222 -0.35105926 -0.09853014 -0.185748 -1.3609557 -0.1645276 0.0579037 -0.48271528 0.17176145 -0.038844448 0.5300735 -0.8084681 -0.4923639 0.71591496 0.21942289 0.24563341 0.9484608 -0.44099206 -0.33965057 -0.1390902 -0.1188031 -0.03137254 0.024573982 -0.3612959 -0.168962 -0.54674685 1.2800852 0.7930576 -0.2423271 -0.16254084 0.5766515 0.30303514 -0.49506062 -0.9681214 0.70817596 0.046543922 1.0355799 0.21722588 -0.3882668 0.27605912 -0.6618666 -0.005618861 -0.079493 0.18302014 0.21223164 -0.4691927 -0.8714707 -0.8568998 -0.20613667 0.47621003 -0.21896723 -0.0017732386 -0.017827725 -0.28690404 0.22942239 -0.2698857 0.14083284 -0.6396377 0.5533185 -0.52279097 0.89207566 0.50834525 -0.254825 -0.5951437 0.21200266 0.42228684 -0.19002488 -0.29511625 -0.17609805 -0.5678974 -0.7090268 0.20869698 -0.3294616 0.34029916 -0.4911721 0.5970894 -0.14073533 -0.112189494 0.12248099 -0.4407621 -0.021640858 -0.1679041 -0.018646788 -0.15560865 0.38189113 0.10849077 0.12753153 -0.07276867 0.2072017 0.82324076 0.84747636 -0.43279746 -0.13684155 0.4984459 -0.01874685 -0.6185647 -0.042726777 0.1442303 0.5332107
GTGCATATTC 0.45688805 0.5973942 0.55576694 0.1878249 0.7070541 -0.43570608 -0.5960993 -0.1510213 -0.20762424 0.73022044 0.19611485 0.31700683 -0.3208081 -0.21593094 -0.12030131 0.36368918 0.7598795 -1.0339912 0.10603156 -0.5198736 0.40396565 0.10946731 0.3300658 0.301766 0.4278137 -0.105952986 0.16860719 -0.3351117 0.15044813 -0.15450963 0.5186716 1.2272958 -0.31831312 -0.21603 0.0073652808 -0.32386926 0.34984627 0.92281514 -0.03763438 0.29257187 0.9566963 0.1324951 0.42356312 0.36727315 0.7974044 0.13151526 -0.3265491 -0.19762838 -0.81035894 0.7129898 0.080490604 -0.356256 1.0754374 -0.1183885 -0.4735837 -0.28338513 -0.4231417 -0.64157957 0.24347934 0.33314928 -0.43821976 0.2505698 0.889167 -0.08390211 0.58322144 0.05433507 0.6534466 -0.5300782 -1.1859196 0.2547699 -0.7904705 -0.40016976 -0.4912873 -0.44886962 -0.12493832 -0.04043143 0.044168673 -0.4613485 0.47206634 -0.4082052 -0.61259127 0.079341605 -0.18900165 0.15479113 -0.1413719 1.0130535 0.45735854 0.2602088 -0.34134033 -0.21313821 0.2559537 0.46745196 -0.20563449 -0.31756485 -0.07399826 -0.0067996825 -0.28962016 -0.43181288 0.27313286 -0.37838638
GAATATGCAC -0.5544851 -0.5357214 0.3200267 0.2627802 0.12705259 -1.1144812 -0.6525942 0.33008033 -0.44539464 -0.18812571 0.33305645 0.6459571 -0.97589254 -0.61767954 0.6266912 0.0135437315 0.042924218 0.3401994 -0.13142525 -0.29235527 -0.113943666 0.10977437 -0.19276632 -0.10455703 0.035592187 -0.5098764 -0.51632243 0.47018543 0.13878755 0.23710483 -0.086926945 0.3290292 0.48832375 -0.88446563 -1.3582815 0.4561912 -0.13178378 0.7138835 0.20536657 0.039882675 0.31912252 -0.50368094 -0.07428596 -0.20169424 -0.50122267 0.047646474 -0.40369302 -0.5988249 -0.6258551 -0.00915034 0.8901838 -0.37779158 0.67824197 -0.30658856 0.28274563 -0.18750277 -0.4545803 -0.24400643 -0.5764387 0.016785737 -0.53826123 0.43869686 0.22312011 0.15887262 -0.096064515 0.14606887 0.62198573 0.00033621187 -0.69530696 -0.27477875 -0.6340263 -0.8812031 0.28935814 -0.12604786 -0.042529948 -0.11215578 0.23632811 -0.12437343 -0.30180314 0.4799401 -0.35683984 -0.066597514 -0.20979196 -0.34784922 0.44887844 0.5534804 0.15607287 0.36762562 0.3000588 0.35778195 1.0498523 0.8787647 -0.45669904 -0.103246085 0.47801545 -0.16217443 -0.59375036 -0.41309416 0.27125385 0.79384863
TAGGTCCACG 0.052250624 0.10495272 -0.4512093 0.08628922 -0.5503754 -1.3528851 -0.2738885 0.050969053 -0.31683072 0.24826105 -0.2581877 0.5460309 -0.3988057 -0.17622769 0.25719136 0.2861692 0.41769746 0.68384105 -0.53558755 -0.29891285 0.17873539 -0.2111548 0.07581292 0.2075428 -0.556255 0.007785566 -0.37965262 1.3964752 0.78753877 -0.36681274 -0.5221876 0.8229994 0.16244198 -0.58205485 -1.0131314 0.65031993 -0.13159001 1.2107264 0.7098746 0.08319556 0.25068724 -0.81693786 0.02022272 0.56932193 0.21733433 0.055831637 -0.4389309 -0.76701736 -0.5267333 -0.40257457 -0.09137909 -0.0016129515 -0.050845884 0.05548624 -0.37291512 0.045405656 -0.4724718 0.23684393 -0.4072365 0.7614842 -0.09745279 0.38489658 0.27879497 -0.2903435 -0.15374154 0.19386806 0.2962218 -0.922057 -0.33451566 0.17672467 -0.1161153 -0.76604664 0.32549807 -0.6209524 0.6763657 -1.2162982 0.17877005 -0.4438711 0.21317495 0.6346456 -0.15068464 0.03317221 -0.10556464 0.20867808 -0.038375344 0.32274422 0.09125001 -0.2852066 0.14737669 0.4609374 0.67219156 0.8311425 -0.4565129 -0.37736553 0.21826169 0.098726325 -0.54282767 0.06937488 0.0037591415 0.24092817
CGTGGACCTA 0.3782031 0.43549475 0.25082603 0.39714453 0.107788175 -0.95725733 -0.7006092 -0.90462655 -0.3048168 0.18596813 -0.359407 0.4849706 -0.79334885 -0.9816454 0.18403877 -0.7243732 -0.2729123 -0.6592521 -0.39919043 0.42980048 0.1628864 0.5231508 0.005822122 0.6964463 0.05881036 -0.4398749 -0.045498192 -0.5991475 0.08279479 -0.4448979 -0.14818506 0.83422005 -0.5411186 -0.3383888 -0.20910595 0.31809893 -0.11005638 0.9608725 0.481811 0.29785714 0.6514825 -0.73016846 0.29757524 0.2796871 0.30534 0.15721971 -0.5587141 0.051216178 -0.2727292 0.60874134 -0.13047595 0.2913761 0.7542907 -0.4693618 -0.5406265 0.5319434 -0.59709585 -0.004610272 0.7603484 0.64164466 0.07211086 0.30567893 0.15743996 -0.43842605 -0.19917029 0.34861016 0.32389817 -1.1277919 -1.3314664 0.025246127 -0.8659686 -0.36212626 -0.051236257 -0.46155116 -0.4786249 -0.4300504 0.11221699 0.088334374 -0.6311758 0.031610902 0.024512518 -0.038595553 -0.025853876 0.040282737 0.6714774 0.5872277 0.24857384 0.7763811 0.33849895 0.17341739 0.106766954 0.82387173 0.16916622 -0.45802656 -0.23080789 0.0668756 -0.56478477 0.043706615 -0.08622922 -0.07727962
GGGTGGTGCA 0.4291315 0.62861663 0.8199156 0.3274044 0.2769342 -0.70947874 -0.7924486 -0.5232869 -0.4873872 0.4810122 -0.09970932 0.61364526 -0.5868352 -0.5745813 -0.1235654 0.2743922 0.82614255 -0.8502374 0.006965897 -0.27946022 0.020529373 -0.13664323 0.17795466 0.6954706 0.174877 -0.18278272 0.13010561 -0.4372668 0.2246442 -0.3685972 0.34699824 1.0921408 -0.809322 -0.14735231 0.13423397 -0.08691325 0.3487363 0.5509469 0.07469879 0.45895678 0.53233844 -0.42696744 0.48079047 0.2483165 0.7624047 0.20074831 -0.47681785 -0.00738844 -0.6622731 0.57731473 0.030740255 0.024526704 0.88700163 -0.1417259 -0.52903455 -0.055139117 -0.76857746 -0.34637782 0.2040841 0.604197 -0.50533515 -0.23495784 0.44007954 -0.35492736 0.37694752 -0.037755698 0.42246908 -0.9939686 -1.4173611 -0.284173 -0.7239417 -0.43522185 -0.19788863 -0.3448678 0.063000515 -0.34298354 0.14073052 -0.21463278 0.018336559 -0.41605994 -0.39697576 0.2578652 -0.16826361 0.23722285 0.5617022 0.7556275 0.23495673 0.7238473 0.05227224 -0.1378795 0.367441 0.56724596 -0.21441543 -0.55631083 -0.21919736 0.10765751 -0.29490843 -0.1572504 0.062930696 -0.5747499
TGCACCACCC -0.46656764 -0.4346223 -0.24162064 0.36840564 -0.23284607 -1.422647 -0.22874734 0.1606026 -0.44953758 -0.12095802 0.2528101 0.629856 -0.8896641 -0.5302562 0.27991408 0.015621946 0.13558017 0.85289377 -0.25411212 -0.072567485 0.13619263 -0.13589288 -0.28783467 -0.051547818 -0.3432652 -0.4483391 -0.5593451 0.84227026 0.36693084 -0.046927296 -0.29015782 0.51947564 0.48272097 -0.78170705 -1.4425868 0.9657196 0.09799741 1.0332751 0.26424345 -0.15219606 0.11747762 -0.6241695 -0.0150092505 -0.039221264 -0.034031697 -0.057287622 -0.2039911 -0.7721196 -0.53773993 -0.09415759 0.8255125 -0.38096568 0.27645162 -0.21096402 -0.05405529 0.0009077035 -0.49887156 0.04581474 -0.26371562 0.3266275 -0.40587822 0.6226832 0.11743183 -0.027527014 -0.499696 0.2919518 0.2896993 0.017904388 -0.46270105 -0.0028334777 -0.3855882 -0.8782141 0.1784152 -0.23087877 -0.21217796 -0.68043506 0.5240473 -0.1584841 -0.038381543 0.4106384 -0.4825172 0.09386753 -0.197678 -0.21987125 -0.053883094 0.41547725 0.0070882277 0.34658372 0.3413632 0.46386173 1.233313 0.6159329 -0.4758466 -0.102648824 0.30393305 -0.074778624 -0.4189026 0.055611223 0.25776494 0.53974366
TATTCCCTAT 0.36206096 0.3666123 0.42877355 0.27410084 0.7649417 0.059170973 -0.81859577 -0.36853394 -0.39280525 0.4921673 0.23806801 0.033109184 -0.5126473 -0.15744415 -0.10175191 0.29249397 0.7437624 -0.7941391 -0.124429494 -0.5428286 0.27400324 -0.08681815 0.21812496 0.30568087 0.06893806 0.16648445 0.24371576 -0.058992658 0.052396074 -0.26672927 0.8852192 1.2195287 -0.5610804 -0.09326896 0.019992957 -0.23569155 0.43467733 0.4291783 -0.4171056 -0.22912118 0.7486665 -0.10306379 0.6116417 0.3457312 0.9631432 -0.15324637 -0.10166458 -0.19557145 -0.68132806 0.49018702 -0.20180634 -0.34060806 0.6882438 -0.31910437 -0.5039557 0.06559258 -0.1453843 -0.5717021 0.23960306 0.34303603 -0.55358744 -0.14514947 0.99151266 -0.12573381 0.35933587 -0.0072571 0.3776738 0.0008661765 -0.81503314 -0.0010817782 -0.7164048 -0.53292286 -0.44764286 -0.35953227 -0.23633283 -0.013283603 0.30587408 -0.2431282 0.15167417 -0.8390957 -0.9329325 0.2587395 -0.5389571 0.29718012 -0.2636165 0.98477936 0.5050354 1.1560812 -0.19970821 0.22063309 0.10677972 0.6235308 0.1989649 -0.05353699 0.1637231 0.042099018 -0.112277865 0.12777708 0.54617345 -0.08357636
ATAGGGAATA -0.80011207 -0.44568396 0.42666423 0.22866207 0.021415282 -0.86671895 -0.932157 0.17706567 -0.8082379 0.19415303 0.41088682 0.5603606 -0.74334866 -0.5860497 0.6767199 -0.21396708 -0.28912717 0.50372255 0.03578225 -0.37433213 -0.068292014 -0.28273955 -0.061760433 0.29352543 -0.04657278 -0.35217503 -0.37412828 0.3207759 0.09099762 -0.17545006 0.012918213 0.63535595 0.5722846 -0.85923386 -0.86263645 0.6021915 -0.16774154 0.88513285 0.27633056 -0.13287303 0.27791446 -0.21437526 -0.28935748 -0.2217484 -0.571963 -0.057291288 -0.2024083 -0.22477408 -0.6083011 -0.32015648 1.0079775 -0.32553682 0.14315516 0.10912689 -0.12303699 -0.15780629 -0.53018826 -0.23356606 -0.47479308 -0.12306858 -0.32377696 0.7225477 -0.48818588 -0.00613496 -0.3927952 0.17729291 0.2556892 -0.3027961 -1.1913095 -0.4752125 -0.8473573 -0.802196 0.25509018 -0.2115168 -0.30457023 0.0014262687 0.20390669 -0.0011751734 -0.6117055 0.43507355 0.13694863 0.10080617 -0.2795609 -0.2550982 0.050712697 0.5777699 0.3598724 0.2355554 0.55332816 0.4734745 0.6401744 0.29987103 -0.21612957 0.02413722 0.4017352 -0.31121126 -0.77260774 -0.49201953 0.32963243 0.6657823
GGACTGGCTT 0.7927495 0.5489692 -0.63984036 0.27528098 -0.15074964 -0.21735168 -0.6915978 -1.164305 -0.6464453 0.1091628 -0.52888685 0.19038852 -0.36688313 -0.6363175 0.15229727 -0.108466215 -0.0233935 -0.2003255 -0.545719 -0.07179374 -0.089341626 0.5275863 -0.16486605 0.25213203 -0.11517456 0.45988777 -0.036412504 -0.19004363 -0.3136749 -0.16358618 -0.5131443 0.971263 -0.25459164 -0.2615796 0.2679391 0.044361144 0.07664568 0.44381738 0.51952344 -0.19910222 0.5703182 0.69424605 -0.3774241 0.24359548 0.79490095 -0.49873847 0.024351712 0.15848888 -0.18597673 0.22943553 0.3967413 -0.15425317 -0.8909876 -0.44248548 -0.6676905 -0.25946304 -0.25876507 -0.14986303 0.024876624 0.503367 0.2886798 -0.41414422 0.117769256 0.20526262 -0.39026305 0.6305461 -0.15131137 0.097759835 -1.0640696 -0.2780185 -0.5633493 -0.6188581 -0.36422473 -0.89421946 -0.47402212 -0.98980534 0.36419016 -0.07723345 -0.21709168 0.712733 0.22673267 -0.13769148 -0.796995 0.62873054 -0.47595033 0.7079256 0.90401155 1.266735 0.39899617 0.6200493 0.22000687 0.7629338 0.16175902 -0.59990793 0.019201063 -0.3530192 -0.40029988 -0.44601163 -0.0149618955 0.11567136
AAGCCAGTCC 0.09480969 -0.15817714 -0.3205653 0.10938186 -0.36255687 -0.62820935 -1.4635484 -0.36783037 -0.4949214 0.62240887 -0.32147473 0.021264499 -0.11812828 -0.37805575 0.4365955 0.0096243005 -0.13872841 0.2245567 -0.6104163 -0.700531 -0.14431207 -0.5272734 0.17185467 0.28241143 -0.15770465 -0.33357906 0.18681622 0.6698047 -0.24237327 -0.47795618 0.121119455 0.67911553 0.4752208 -0.5087256 -0.44456226 -0.06581806 -0.20243816 0.41719085 0.24740219 0.22153239 0.6625676 -0.27165794 -0.44907612 -0.0081788 0.33546016 -0.25619575 -0.38461635 -0.084657304 -0.65838194 0.047107976 -0.10507734 -0.020623358 -0.75129527 -0.111099556 -0.03880083 -0.30363584 -0.7554339 -0.5348801 -0.68695486 0.3726176 -0.05825541 0.6025068 -0.14901388 -0.25266743 0.43503788 1.0296893 0.28206024 -0.8770546 -0.20291048 -0.5284548 -0.7238901 -0.9091907 0.21541874 -0.64659935 0.09050947 -0.83535486 -0.004100911 0.3124995 -0.7277516 0.54936665 0.4618761 0.35308847 -0.6385678 0.14633532 -0.41418916 1.1153619 0.85162663 0.30401152 0.19850996 0.5707048 0.08237765 0.52910644 0.062237546 -0.09430987 0.23033452 0.047033757 -0.72022325 0.41816393 0.60235435 0.49304226
ACTGGCTTAT 0.69181067 0.20218241 -0.8360554 0.611778 -0.020235674 -0.37807164 -0.64721894 -1.1600373 -0.5734301 -0.014144446 -0.4021255 0.11022052 -0.6006346 -0.5109894 0.27794784 -0.11962816 -0.14666407 -0.19742097 -0.59321076 0.08798209 -0.22084782 0.54889464 -0.12532826 0.6371481 0.10222567 0.40913174 0.140839 -0.37545273 -0.17975889 -0.40740317 -0.20124038 0.68427837 -0.44237944 -0.40739283 -0.26031616 0.27297017 0.03535576 0.52252054 0.5951361 -0.27468213 0.3918737 0.57999915 -0.40618727 0.5953157 0.633464 -0.3042764 0.12036427 0.21973157 -0.025031839 0.43967164 0.2768699 -0.14563711 -0.49554124 -0.593053 -0.6644496 -0.033471096 -0.23080316 -0.307978 0.20186187 0.41949263 0.29975337 -0.5029213 0.19100137 0.35759878 -0.3967532 0.29640195 -0.33658496 0.20729446 -1.0451542 -0.17691286 -0.40841246 -0.6798254 -0.33956778 -0.72034746 -0.61834043 -0.6037577 0.3966798 0.030637411 -0.5277599 0.7336205 0.25201318 -0.27431363 -0.68736416 0.5550983 -0.100407556 0.26302904 0.84376204 1.2852688 0.17915295 1.1617368 0.4269322 0.7102145 0.14345522 -0.3667317 0.04325301 -0.23038173 -0.36915404 -0.36829504 0.14713286 0.15873654
ATAAGCCAGT 0.13752536 0.09390698 -0.12438987 0.16509779 -0.66098905 -0.4706789 -1.6075113 -0.18840067 -0.6166411 0.5891397 -0.15848853 -0.0011155808 0.005583524 -0.0911393 0.40369278 -0.25060147 0.12852477 0.36758453 -0.73997694 -0.7877993 -0.0052091703 -0.2521968 0.0721444 0.20858906 -0.48052147 -0.5677546 0.43070126 0.91608125 -0.16968842 -0.6869068 0.26415005 1.133357 0.28966177 -0.7260282 -0.42394227 0.253142 -0.45902848 0.6021341 0.3569533 0.0036395642 0.54110944 -0.09603243 -0.21480931 0.1346772 -0.108356476 -0.33188814 -0.11377052 -0.082517855 -0.55977666 -0.032472663 -0.11667327 0.11624169 -0.7781336 -0.007852295 -0.050267298 -0.36997408 -0.47558087 -0.32594627 -0.55756295 0.29469377 0.040677298 0.5807691 -0.22128983 -0.17951581 0.4038191 0.8109287 0.049928866 -1.0755205 -0.30480972 -0.13737227 -0.5001562 -0.6832688 0.16993143 -0.8762149 0.16705853 -0.805943 -0.22852509 0.09281713 -0.41788933 0.57493794 0.43278718 0.22201498 -0.94424754 0.28261685 -0.3987631 0.9522382 0.36658293 -0.4807889 -0.102139615 0.7295977 -0.025649719 0.21387379 0.020350251 0.08301954 -0.0013585463 0.13576907 -0.6022952 0.20735735 0.28709468 -0.03935818
ACCTACTGGG 0.26444253 0.525503 0.69280386 0.16398449 0.010563827 -0.5087835 -0.49070355 -0.5924047 -0.2667819 0.28522265 -0.267074 0.2521449 -0.18415953 -0.77193457 -0.11301062 -0.09393226 0.117515005 -0.79312634 -0.036790594 0.426727 0.24229039 0.48276848 0.028092872 0.5534982 -0.01281149 -0.5817095 0.09102367 -0.70009506 0.23199604 -0.24069317 -0.23623325 1.0463805 -0.4858078 -0.06187547 0.28886244 0.10915817 0.48222342 0.90679485 0.36058834 0.48734766 0.806502 -0.5851275 0.57501984 0.22842667 0.73651206 -0.04948533 -0.5901532 -0.035335913 -0.63509446 0.5807254 0.18243468 0.22336826 1.0960159 -0.176566 -0.62753165 0.38661566 -0.5618334 -0.2003915 0.5882897 0.56539774 -0.42392316 0.113581516 0.38209808 -0.20183137 -0.012713311 -0.17001528 0.3451921 -0.7909798 -1.5416 0.034262948 -0.85663974 -0.6133333 -0.45204347 -0.46645024 -0.5348473 -0.42158663 0.14065635 0.09670236 -0.22647567 -0.06409185 -0.20219064 0.023045456 -0.20018178 0.12938401 0.5359621 0.65791184 0.57376873 0.48753977 0.33258894 -0.35681027 0.105645165 0.79181224 -0.05856947 -0.81235707 0.04599645 -0.32620162 -0.25064054 -0.48044756 -0.14352794 -0.45486623
CCCAGTAGGT -0.14200777 -0.21412085 -0.21842676 -0.13972029 -0.15124156 -1.5350863 0.068159014 0.16000214 -0.47417226 0.15314662 -0.14974356 0.7071237 -0.9602738 -0.5656979 0.4225799 0.2449713 0.23648492 0.6701754 -0.31445515 -0.32256502 -0.07584005 -0.099302985 0.03733087 0.16121894 -0.27043822 -0.34487116 -0.53494716 1.1162947 1.0246207 -0.06681802 -0.19808131 0.90669215 0.17319043 -0.49873084 -0.99862784 0.80964124 -0.053611808 1.1341943 0.123791926 -0.30607486 0.19134462 -0.7835598 0.13493581 0.13585995 0.161894 0.3966689 -0.58831626 -0.9195963 -0.6450196 -0.086093396 0.29344597 -0.01985843 0.320272 0.14691894 -0.27561072 0.2465956 -0.41094384 0.013195955 -0.3000805 0.6248593 -0.5811216 0.58454114 0.50376827 -0.2955073 -0.33100194 0.13801253 0.14093456 -0.76017183 -0.15014175 0.043974653 -0.5914266 -0.6215528 0.31087637 -0.34140933 0.59341663 -0.29520434 0.32223144 0.03658904 -0.19600414 0.4663834 -0.60879636 -0.020293377 -0.2797701 -0.025046257 0.14252408 0.3736003 0.12000169 -0.06082376 -0.24520662 0.31104693 0.7304782 0.9070658 -0.19642517 -0.3875439 0.5186256 -0.06386209 -0.6923782 -0.042692482 -0.05181558 0.3096455
TTCCCTATCT 0.7982631 0.41599813 0.40689838 0.5364409 0.65547717 -0.1210886 -0.7355187 -0.5596306 -0.4210138 0.5086657 0.019057576 0.07572157 -0.61997926 -0.06842794 0.29660052 0.56345284 0.94108105 -0.6826099 -0.34511206 -0.64208055 -0.071362674 -0.18447 0.03497817 0.69608754 -0.105949394 -0.08081466 0.32455415 0.1081058 0.22270359 -0.3793369 0.87572265 1.3112241 -0.5521451 0.041797824 0.18877041 -0.12989691 0.7815782 0.10509512 -0.22066769 -0.20105618 0.4890567 -0.04367132 0.44313675 0.31844288 1.0329987 0.022467827 0.011955604 -0.19755311 -0.6895163 0.34386984 0.012473781 -0.35824957 0.5407514 -0.47875854 -0.4771718 -0.047889274 -0.2868797 -0.4839366 -0.022589622 0.35380757 -0.50094503 -0.052511077 0.9966843 0.0142271435 0.17959103 0.091517836 0.43222818 -0.12588121 -0.7094855 -0.046406858 -0.5295134 -0.3215863 -0.20327716 -0.37032378 -0.09270926 -0.318704 0.42582354 -0.4127542 0.24103972 -0.80073494 -0.949839 0.2826717 -0.66317475 0.5216818 -0.4064837 0.66008747 0.06307532 1.2397963 -0.5183757 0.5656796 0.34166172 0.6483468 0.11620477 -0.42488787 0.2427747 0.1131309 0.028276412 0.26751563 0.6385364 -0.38586196
AGATAGGGAA -0.69180685 -0.4989905 0.59599185 0.24880785 -0.203228 -0.8143233 -0.8284964 -0.0048461547 -0.79832584 -0.07026814 0.42652524 0.58378774 -0.8063048 -0.64621097 0.5858266 -0.18373057 -0.37063098 0.5659395 0.114300445 -0.42826033 -0.015151816 -0.19628833 -0.4158765 0.21911216 -0.062170684 -0.46477228 -0.30108997 0.19006535 0.20693633 -0.18294457 0.091562554 0.83065736 0.49201205 -0.72637343 -0.7481382 0.7534273 -0.010502842 0.82909226 0.24174173 -0.15571018 0.23215659 -0.22455907 -0.10299246 -0.32282194 -0.60990393 -0.28309256 -0.07403932 0.004653816 -0.45125857 -0.48882806 1.1136411 -0.061675992 0.03951369 -0.021225799 -0.03344687 -0.23819923 -0.51267016 -0.098473236 -0.37203497 -0.21045247 -0.31389627 0.50309056 -0.4885863 0.19425443 -0.509127 -0.035965443 0.0044718385 -0.055959675 -1.2117461 -0.42166516 -1.0351845 -0.9998834 0.16879481 -0.19213627 -0.38407296 -0.31579664 0.12575929 0.21297987 -0.5602986 0.47712412 0.082078345 0.13500385 -0.4965605 -0.03292751 0.17873396 0.8225682 0.03204942 0.15707181 0.54816556 0.6383707 0.700074 0.28493604 -0.50966805 -0.21081895 0.45865017 -0.2999662 -0.5267555 -0.36558476 0.28799033 0.5868959
GGTGGCGATG -0.045643754 0.6883636 0.63403386 -0.7461199 0.08198673 0.5857081 -1.8066382 -0.1607226 -0.6898887 -0.08376209 0.19068432 0.8679107 -0.25850996 -0.38425192 1.3465607 -0.97398776 0.6973932 -0.9336555 -0.083358005 -1.0015773 -0.022540996 0.8763982 0.69139516 0.5176916 -0.83974075 -0.2007615 -0.37279582 0.48125368 -0.4472674 -0.014936688 0.39772677 1.2580582 -0.040165633 -0.41551292 0.26486865 -0.56968516 -0.31823877 1.0913242 -0.20521562 -0.054351103 0.7299345 -0.044202667 -0.47053728 -0.23298483 -0.011439865 -0.46541807 0.16256356 0.09977761 -0.75209457 -0.3513034 0.49684337 0.3236163 0.24260579 0.009453323 -0.12824236 -0.28582412 -0.28101492 0.44138312 0.19480206 0.08800088 0.4589905 0.44808328 0.6765164 -0.2799426 -0.17207687 0.18101387 1.0213175 -0.8594133 -1.612482 0.21806005 -1.0096413 -0.15898676 0.28451028 -0.60535944 0.6704044 -0.20039865 -0.19808155 -0.9172885 -0.18530515 0.23951846 0.77398914 0.13579474 -0.21148326 -0.21035573 0.33392307 0.99001205 -0.07727538 -0.05199835 0.46504104 0.49488044 -0.6918824 0.68601435 -0.570196 -0.18825959 0.5369482 -1.0830665 -1.2348819 -1.0188853 -0.50137734 0.15644337
CATCGCCACC 0.31482118 0.34427407 -0.71477956 0.5263372 -0.64381474 -1.2459489 -0.3973757 0.067823894 -0.8646757 0.67755544 0.4546854 0.15154669 -0.31821498 -0.37391523 -1.1699057 0.4382591 0.057198383 0.9084667 -1.2059817 -0.114930324 0.97765225 0.59355205 -0.5998965 -0.29361275 -0.71747094 0.041958615 0.95422715 0.6889442 0.52709436 -0.73159826 0.16597278 0.6281255 -0.017527822 -1.22222 -0.8587997 1.3308102 -0.29061794 1.2483234 1.0650126 -0.14574338 0.45799577 -0.60240036 0.29450333 0.733218 -0.0669537 -0.14335296 -0.25774905 -0.14923972 -0.040433947 -0.014711975 -0.22579761 -0.67171305 -0.069079615 0.011145392 -0.08909797 0.11527525 -0.31305408 -0.105173044 -0.43447658 0.13958892 -0.42326733 -0.40609038 0.86209184 0.47955605 1.3298154 0.13459565 -0.33516338 -0.7651853 0.24101904 0.04088776 -0.109977745 -0.5632962 -0.8680712 -0.6782903 -0.28009304 -0.4733402 0.52428484 0.3868704 0.82750386 0.83468014 -0.738031 -0.041317724 -1.0181577 0.26812023 -0.7195687 -0.122862644 0.61279416 0.3081216 0.06529082 0.89993936 0.5685621 0.92525303 0.3393594 0.3238752 0.1758033 0.6074668 0.36794913 0.8027807 0.6015135 0.3171268
GCGTGGACCT 0.4685661 0.4809192 0.09684484 0.23787257 0.11804206 -0.6666394 -0.8541354 -0.7813547 -0.26884094 0.2809836 -0.33109412 0.33350486 -0.81438136 -1.0887872 -0.028509535 -0.35199916 -0.4161538 -0.5745484 -0.2560426 0.4761672 0.020532213 0.46774226 -0.015946712 0.5587224 -0.24448426 -0.33451563 0.09551654 -0.6662946 0.23758444 -0.24970572 -0.3277473 0.96710813 -0.30234104 -0.26147857 0.06120448 0.30170158 0.12717222 0.6587372 0.27621558 0.12250169 0.35030884 -0.60054755 0.14028679 -0.10389612 0.5574487 -0.06292411 -0.17263474 0.21223009 -0.3513854 0.5658316 0.037277278 0.45494786 0.8605982 -0.43640274 -0.62796056 0.3011772 -0.57042164 -0.14073788 0.75546193 0.55847603 0.07664835 -0.05736377 0.16042393 -0.35916582 -0.0267377 0.24594447 0.016594255 -1.1355038 -1.1406325 -0.09150388 -0.8784133 -0.50436634 -0.05755587 -0.374539 -0.5455318 -0.45190614 0.03064035 0.42226171 -0.6478936 0.24394523 -0.010284625 -0.18151295 -0.18884858 0.32579583 0.5846002 0.70448214 0.30806312 1.0305686 0.529433 0.239839 0.14383307 0.8195004 0.36919773 -0.64739305 0.061762746 -0.01931597 -0.32498655 0.0010917488 -0.13198681 -0.29754317
AGGTCCACGC 0.22141962 -0.05679311 -0.46868846 -0.009053565 -0.56775755 -1.2518603 -0.37146026 -0.07510568 -0.30504447 0.41068602 -0.38521692 0.42276868 -0.30355075 -0.48098817 0.16736378 0.13717754 0.36272353 0.74721503 -0.5434146 -0.3299523 0.29809383 -0.48015562 0.13410275 0.4402894 -0.46370065 -0.22617304 -0.26092798 1.192022 0.9582239 -0.586788 -0.4852944 0.8440255 0.23931529 -0.7384384 -0.98544997 0.69665265 -0.104474954 1.1235969 0.62185895 0.090291664 0.261017 -0.58029425 -0.0855695 0.38150376 0.1605806 0.15732883 -0.4319555 -0.6168522 -0.5412931 -0.2911374 0.023992157 -0.08546734 0.009331624 0.083531156 -0.40319073 0.06748565 -0.68779045 0.44020832 -0.20925988 0.7700877 -0.23826875 0.5766773 0.19122824 -0.30563626 -0.020278433 0.26912677 0.036225736 -0.9921442 -0.33253613 0.11659924 -0.13142896 -0.8071314 0.29511636 -0.66757655 0.50380105 -0.9951753 0.1632398 -0.37575692 0.17389898 0.51501006 -0.046230298 -0.084168226 -0.0308722 0.21726488 -0.20843044 0.5311496 0.12854818 -0.504129 0.08170714 0.476872 0.53476435 0.7472878 -0.3527644 -0.2956704 0.1112596 0.1468277 -0.7718373 0.119342215 -0.1763549 0.15655762
AATATGCACC -0.7437571 -0.38873258 0.38400957 0.2920928 0.24212721 -1.1959413 -0.34465256 0.32374007 -0.35490888 -0.010460522 0.38929674 0.92103267 -1.0171949 -0.7940699 0.28691193 0.16542567 -0.03393676 0.48465267 -0.22572717 -0.34197408 0.202732 -0.18790844 -0.30789024 -0.17927676 0.0742381 -0.567996 -0.4876412 0.64232624 0.21906935 0.26083732 -0.05579514 0.3964863 0.35639596 -0.9501292 -1.5056281 0.63866675 -0.05784862 0.7975789 0.24358521 0.013851242 -0.04654977 -0.6822635 0.012032846 -0.14597696 -0.61077094 0.245766 -0.45060062 -0.5376642 -0.47041303 -0.058255997 0.85940295 -0.37624007 0.739846 -0.3154684 0.32968205 -0.050338138 -0.49459365 0.058214966 -0.49153814 -0.10806455 -0.54684216 0.38861763 0.14020997 -0.010988012 -0.09965445 0.12609465 0.5135693 -0.20769571 -0.84542125 -0.2570026 -0.62540025 -0.9363029 0.25178665 0.020351889 -0.07608707 -0.13693902 0.32119283 -0.08517426 -0.19059521 0.54053676 -0.6089064 0.08071965 -0.33509403 -0.28284025 0.5360432 0.37595356 0.13810506 0.68400586 0.5484689 0.3181686 1.2654825 0.60711163 -0.28855452 -0.20946606 0.26894417 0.023386257 -0.6083416 -0.4240445 0.44481096 0.5519703
GGTGCATATT 0.48526114 0.54288244 0.83893466 0.2633123 0.62571716 -0.43358216 -0.6244051 -0.30642584 -0.17106575 0.5683318 0.14130801 0.27466625 -0.524929 -0.41481066 -0.110483386 0.5618537 0.70624703 -1.0827324 0.10119097 -0.5013829 0.26924902 0.10987408 0.22920626 0.33460334 0.3052025 -0.35787913 0.10083835 -0.27943468 0.19066703 -0.18728176 0.55333287 0.9072912 -0.3064408 -0.25889713 -0.0062622745 -0.25694665 0.5231304 0.64385325 -0.14492583 0.24513018 0.8017325 -0.34675875 0.6990073 0.37281123 0.70429236 0.083437055 -0.56739146 -0.2372425 -0.66007143 0.5845139 0.26000753 -0.22134072 1.3683747 -0.38863593 -0.2724876 0.0075925104 -0.426807 -0.70239794 0.20759772 0.2789782 -0.6192994 0.050579023 0.83774257 0.025489632 0.48587885 -0.31531143 0.6153642 -0.6979728 -1.2570928 0.13930488 -0.8383579 -0.30498254 -0.40581125 -0.29637763 -0.0364553 -0.046227 0.26976028 -0.61429375 0.23261167 -0.40280756 -0.5085283 0.1352855 -0.4036537 0.24871343 -0.095889725 0.8597728 0.33295292 0.56702006 -0.17210972 -0.24394035 0.26624966 0.8477941 -0.13177961 -0.4208947 0.1566526 0.124894395 -0.09773873 -0.22563386 0.31325236 -0.16843438
GACTGGCTTA 0.8113821 0.45911807 -0.7442611 0.48963535 -0.17637792 -0.40672293 -0.66398674 -1.2445999 -0.5286976 0.032323353 -0.3789938 0.33837798 -0.5606207 -0.65953207 0.07395955 -0.22419974 -0.07948641 -0.069290414 -0.49730515 -0.22641703 0.00019530716 0.5883625 -0.31408513 0.25770366 0.048299458 0.3948645 0.149614 -0.29571787 -0.2781724 -0.21391526 -0.21059279 0.90730447 -0.40629968 -0.3382556 0.01008462 0.23666456 0.066782154 0.3420318 0.62096375 -0.23950848 0.46662113 0.6752928 -0.43799466 0.37401268 0.7473519 -0.34407854 0.00085977785 0.21817738 0.06946544 0.41889894 0.35284397 -0.1900882 -0.65551245 -0.49104658 -0.5692772 -0.1487722 -0.27994612 -0.24664433 0.113044806 0.39201275 0.21947192 -0.38869303 -0.00905426 0.21135493 -0.37508863 0.51655656 -0.28124398 -0.0014242039 -1.0380588 -0.28807634 -0.50659794 -0.63308203 -0.36071357 -0.69860494 -0.5036251 -0.82654864 0.39631984 -0.055898186 -0.23190029 0.60742885 0.32973203 -0.19167899 -0.7929155 0.58230984 -0.2957319 0.59638464 0.7989538 1.3586714 0.31075066 0.95076144 0.4319145 0.6785756 0.1340766 -0.4818932 -0.058006577 -0.1294195 -0.35774755 -0.3298229 0.040459074 0.24461243
TAAGCCAGTC -0.063463755 0.19608133 -0.052698523 0.33943608 -0.7783541 -0.54526997 -1.5562998 -0.4296541 -0.5037508 0.7553863 -0.252681 -0.06358913 0.04557844 -0.15438928 0.26435995 -0.14743751 -0.06641312 0.5184525 -0.62228024 -0.81633073 -0.09092723 -0.43271476 0.3737473 0.10710587 -0.24034484 -0.37996945 0.23756947 0.6598365 -0.056907184 -0.57692164 0.052809674 0.9444424 0.22786091 -0.43559346 -0.5145579 0.067841046 -0.2808732 0.403735 0.28650263 0.1075537 0.80054724 -0.12958646 -0.15309499 0.14894465 0.33944187 -0.2402167 -0.34278342 -0.014224041 -0.69531876 -0.24123837 -0.16442423 0.15320858 -0.94674474 0.04910129 -0.2267222 -0.24164726 -0.6127095 -0.3154819 -0.5741107 0.53566366 -0.06947972 0.42545068 -0.07173358 -0.15108445 0.15061422 0.90090317 0.44083223 -1.1024864 -0.47850022 -0.5034625 -0.6035598 -0.7676449 0.19800109 -0.7065118 0.063682996 -0.8267687 0.0816799 -0.03169116 -0.44875845 0.39128542 0.34579244 0.32359725 -0.6832077 0.060892247 -0.5070669 0.8573351 0.9391091 0.20227735 0.17663217 0.48190492 0.15634584 0.50280696 0.042117037 0.0636657 -0.04552523 0.17807959 -0.47704133 0.299774 0.69132143 0.06740063
CTGGCTTATC 0.81130147 0.25320178 -0.80778223 0.54159147 0.011955686 -0.5140399 -0.64243716 -1.0879444 -0.34524706 0.15773757 -0.41322464 0.13424028 -0.51418406 -0.6705432 -0.064421915 -0.12316166 -0.22542329 -0.2181528 -0.524344 0.07146257 0.026804866 0.5292566 -0.2534559 0.20832975 0.019574359 0.4623661 0.18795384 -0.36558434 -0.24245399 -0.35457042 -0.43957683 0.74666834 -0.5286916 -0.5163052 -0.30623734 0.11800307 0.05870225 0.3759279 0.46211416 -0.18182467 0.2898063 0.4953114 -0.26678413 0.41535896 0.7254173 -0.15418684 0.07735133 0.393588 -0.009019471 0.42878178 0.23409267 -0.05787208 -0.4479355 -0.5968433 -0.76322573 -0.0881523 -0.4061266 -0.28098044 0.44351614 0.5345523 0.0904047 -0.5324596 0.2979203 0.400985 -0.20277657 0.48649943 -0.15211114 -0.17292783 -0.90967584 -0.23437211 -0.44833618 -0.36626768 -0.42645982 -0.6311155 -0.5973466 -0.4589323 0.4761949 0.04988872 -0.4055541 0.6759761 0.008921623 -0.14386255 -0.72314715 0.50046045 -0.36842734 0.47779402 0.87788224 1.5317982 0.35064524 1.0671395 0.608845 0.8699247 0.39655337 -0.3466131 0.05334005 0.051397976 -0.32460043 -0.16173185 0.28739193 0.1155025
GATAAGCCAG 0.16348551 0.15747316 -0.28053686 0.5073818 -0.7184401 -0.8094506 -1.4350839 -0.4056103 -0.5922034 0.5912171 -0.12760349 -0.06751124 -0.20702265 0.046636857 0.45698088 0.15061772 0.051788516 0.51900065 -0.78322434 -0.46559912 -0.30300757 -0.40724197 0.23409 0.421611 -0.39325055 -0.45172387 0.37273675 0.6663097 -0.0014821512 -0.72141397 0.0061535183 0.69233143 0.31167427 -0.8334768 -0.59150624 -0.032914717 -0.39015558 0.5283858 0.7399573 0.36395368 0.34512836 -0.2990986 -0.40362832 0.21018025 0.07630546 -0.23267658 -0.11441726 0.068245545 -0.694316 -0.1346281 -0.18211809 0.027813926 -0.6468403 -0.1370263 -0.045359872 -0.21922642 -0.52788 -0.13713023 -0.7923274 0.5852077 0.33025947 0.40257856 -0.39293092 -0.14993083 0.31204757 0.66579574 0.44604895 -0.9914538 -0.6038354 -0.44751567 -0.11246272 -0.78035206 0.36637825 -0.6469506 0.28030407 -0.898995 -0.2538577 -0.045558423 -0.44581762 0.63894737 0.4884019 0.04549986 -0.5520665 0.35690123 0.021819461 0.71331036 0.42506292 0.06088671 0.27832624 0.809378 0.4278254 0.42466494 -0.077786826 0.13561374 -0.079128236 0.23456511 -0.47359374 0.09957473 0.46594244 0.066539966
GCTTATCTCG 0.9291207 0.21998647 -0.8205014 0.59844315 -0.102779545 -0.39790744 -0.69221205 -1.0097597 -0.25126877 0.30140936 -0.6603423 -0.091328345 -0.5488504 -0.75296825 0.14936568 -0.33857504 -0.49122852 -0.40929466 -0.79930425 0.12086396 0.1535793 0.59890026 -0.10160275 0.5226502 -0.2637668 0.06474909 0.09222897 -0.25679305 0.19815601 -0.43135583 -0.5299679 1.2348949 -0.14726748 -0.32725906 -0.20995562 0.3731504 0.13733707 0.6935546 0.5070455 -0.43772513 0.52285004 0.11549149 -0.07536916 0.18733124 0.6145682 -0.22654809 0.008118112 0.24348544 -0.15708505 0.32414007 0.054208368 0.22989699 -0.09714085 -0.5114548 -0.6897587 0.12364975 -0.31028754 -0.17733532 0.4119692 0.37732524 0.26795286 -0.09556894 0.5096604 0.14376038 -0.3689597 0.53150314 -0.16903654 -0.5644785 -0.72640747 -0.026747266 -0.25850636 -0.44333562 -0.079464085 -0.86084807 -0.7245525 -0.6720366 0.06988858 0.13632475 -0.61827534 0.7523084 0.17610136 -0.41673517 -0.374014 0.39836127 -0.4112464 0.5956537 0.6684416 1.0870163 0.4471606 0.8884483 0.30413744 1.088922 0.55855095 -0.37461916 0.1138714 0.04626782 -0.3849595 0.1796359 0.13159294 0.33035457
CGAGATAAGC 0.2185537 0.23905288 -0.19851254 0.0836242 -0.7703071 -0.6599292 -1.0950826 -0.1910401 -0.34289342 0.5383241 -0.25800702 0.5093275 -0.15375923 -0.3109114 0.080150224 0.01262789 -0.042504035 0.44712105 -0.6570688 -0.81202644 0.09803166 -0.46465108 0.14726877 0.30399534 -0.30110148 -0.44816124 0.3307407 0.7604557 0.38817105 -0.47752157 -0.056325458 1.0986583 0.13100421 -0.66005665 -0.58733916 0.15560147 -0.54885006 0.7394675 0.60838765 0.071529806 0.3748539 -0.42164427 -0.24412902 0.21678604 0.1173329 -0.19095698 -0.45090458 -0.18845475 -0.42604202 -0.1741557 -0.3122094 0.30147278 -0.39707366 0.05610266 -0.16187367 -0.5065159 -0.56562316 -0.11983293 -0.17918779 0.46963537 0.1363136 0.45835087 -0.4986223 -0.25432813 0.5246402 0.6424991 0.17404155 -1.3993926 -0.5350686 -0.28850815 -0.39104596 -0.89175016 0.43194407 -0.6277386 0.5070216 -1.0079536 -0.24798307 -0.25889394 -0.1979687 0.83270174 0.5528895 0.09178391 -0.401813 0.42565987 -0.41562167 0.82037276 0.45319742 -0.13301389 0.14507501 0.69055057 0.12887596 0.5390883 -0.14766781 -0.17667647 0.23781241 0.18979767 -0.4937955 0.10733892 0.16749583 0.10004224
CCTACTGGGT 0.21780793 0.5825401 0.56652534 0.014999292 0.05455875 -0.7161821 -0.48558855 -0.6312831 -0.41157454 0.29476714 -0.2965786 0.38167843 -0.24029286 -0.7680167 -0.17306304 -0.1461699 0.25674853 -0.6307727 0.019573273 0.413738 0.19803701 0.27328223 0.04160488 0.4120523 0.00072813686 -0.35971206 0.11545502 -0.6310922 0.1950967 -0.16432461 -0.17494847 1.2619578 -0.6681562 -0.07589107 0.4179366 0.05835731 0.328279 0.8961388 0.27812985 0.5625417 0.63128066 -0.32441255 0.37178513 0.2654086 0.8780387 0.016116563 -0.36577943 0.08020343 -0.6130481 0.5835288 0.13651092 0.086539045 0.84013236 -0.08383713 -0.8252696 0.13681269 -0.56434774 -0.11291298 0.51694745 0.6459017 -0.38564742 0.039326783 0.20867188 -0.36952287 0.10162102 0.12662958 0.26845142 -0.7900703 -1.5490367 0.007940664 -0.9881901 -0.5359643 -0.59629923 -0.51508814 -0.4164329 -0.4382429 0.16718337 0.14310217 -0.09414549 -0.15901293 -0.27883536 0.15205736 -0.30264246 0.1786145 0.50045466 0.8311889 0.5156846 0.50650895 0.14980699 -0.3885776 0.2074317 0.47699487 -0.10109444 -0.76078117 -0.16108747 -0.224102 -0.3325954 -0.5265976 -0.16794585 -0.62184626
ACCCAGTAGG -0.14742252 -0.26740512 -0.34379905 0.045771368 -0.24209046 -1.5912658 -0.11325609 0.09528188 -0.5723965 0.11276761 -0.12439623 0.3545124 -0.8645946 -0.39807284 0.52979225 0.16617471 0.2768098 0.75752115 -0.23164245 -0.2050338 -0.14722005 -0.040811162 0.03500059 0.22459796 -0.29422256 -0.23069508 -0.54334205 1.0913173 0.8473729 -0.1936276 -0.21471423 0.6863356 0.40300056 -0.48835978 -0.9799211 0.6623668 0.00428203 0.9587058 0.112957284 -0.15787262 0.377603 -0.6379548 -0.016145982 0.14978099 0.25213313 0.15791765 -0.46969324 -0.9123367 -0.7751337 -0.059201345 0.38247636 -0.2665016 0.21663587 0.04708909 -0.2783583 0.10765856 -0.38153422 -0.098626465 -0.50977665 0.55463517 -0.5442955 0.6516416 0.5465673 -0.16476847 -0.4272549 0.22674629 0.18645844 -0.52298963 -0.1271311 -0.030026725 -0.39150187 -0.5458539 0.2468276 -0.34157076 0.41630366 -0.49787197 0.39686286 -0.03765169 -0.19202289 0.3760357 -0.57375145 -0.13688476 -0.18298076 -0.04164752 0.10445775 0.3554315 0.080872126 -0.07366134 -0.25525373 0.27125433 0.7975797 0.9392752 -0.33362615 -0.2433092 0.46264434 -0.11935114 -0.58749896 0.0040198527 0.08131674 0.37863386
CGCGTGGACC 0.42353693 0.46464357 0.14628932 0.34395918 0.1681633 -0.7688446 -0.69758254 -0.9177585 -0.023831876 0.2497334 -0.31398356 0.24773583 -0.6764929 -1.0390391 -0.1549318 -0.4362516 -0.4159285 -0.593899 -0.14799425 0.47130194 0.19536412 0.46184906 -0.07517102 0.508439 -0.13996609 -0.3965421 -0.0070500993 -0.694714 0.13295393 -0.12284558 -0.3952126 1.0629277 -0.4304692 -0.23676808 -0.13413118 0.22118528 0.19986658 0.74160314 0.23561326 0.15957493 0.33652747 -0.55782706 0.2716924 0.054926015 0.64437616 -0.08695465 -0.05405389 0.39846236 -0.29285946 0.45127934 0.06326883 0.52560306 0.72665304 -0.52827924 -0.5569104 0.4896785 -0.5767415 -0.190081 0.65142095 0.48680374 0.07440455 -0.011050262 0.13445146 -0.3357075 -0.28812087 0.32087338 0.12159665 -0.7974572 -1.2315454 -0.052677803 -0.6094525 -0.46672255 0.036532898 -0.3315134 -0.56470305 -0.5233678 0.1288128 0.23413238 -0.77191615 0.1790403 -0.02753944 0.04836623 -0.23744233 0.25526688 0.552657 0.7146157 0.48442218 1.1900293 0.7112475 0.48628673 0.3308438 0.7581485 0.32936934 -0.57518643 0.024524553 -0.09682171 -0.29777804 -0.0051467097 0.11388918 -0.24400902
GGTCCACGCG 0.041205574 0.01992495 -0.39737603 -0.07813986 -0.5300968 -1.2894713 -0.35558364 -0.26301357 -0.42239052 0.5396461 -0.424472 0.4352267 -0.31438044 -0.47593153 0.1310312 0.28714132 0.011342824 0.9523611 -0.63111055 -0.34648776 0.2121748 -0.47459462 -0.0043089115 0.46516794 -0.5156332 -0.38095307 -0.13754898 1.1145089 0.8326964 -0.6768899 -0.45725265 0.81302464 0.35206988 -0.5440781 -0.8066059 0.71724457 -0.1325898 1.2170573 0.5353123 0.15591009 0.16016728 -0.5933431 -0.0663282 0.51569885 0.013579522 0.12143691 -0.5255886 -0.64411604 -0.7163051 -0.20083699 0.078683935 0.08108399 -0.21922956 0.1283269 -0.26748386 0.042556457 -0.5025641 0.3650185 -0.2470974 0.63936096 -0.1605056 0.78574616 0.03803282 -0.22818188 -0.08367439 0.20150346 0.01964522 -1.1242921 -0.4014077 0.0028289896 -0.24983446 -0.73310065 0.10810272 -0.62264556 0.29196954 -1.0883886 0.0969382 -0.121011056 -0.025067724 0.61734885 -0.123996474 0.023086242 -0.023131676 0.2959757 -0.38721186 0.3221185 0.36748832 -0.32747602 0.1456317 0.36620572 0.4767181 0.4903234 -0.3929883 -0.3781167 0.24222702 0.18849418 -0.68049425 -0.039107542 -0.18375285 0.19133583
CTTATCTCGC 0.8655558 0.3101525 -0.7654599 0.68522227 -0.16315104 -0.43570575 -0.7401766 -1.0038507 -0.32337737 0.24524406 -0.68581396 -0.0005104096 -0.67219055 -0.818085 0.2271849 -0.25728068 -0.49768484 -0.38489625 -0.8086283 0.007908417 -0.021553978 0.6336985 -0.11970638 0.5755715 -0.020981118 0.107757516 0.1607929 -0.36782867 0.10668024 -0.6233113 -0.49895084 0.96373236 -0.3197596 -0.21373637 -0.29493457 0.28155342 0.12644383 0.528207 0.61212546 -0.2040985 0.56637317 0.21398796 -0.048528478 0.25201696 0.58268005 -0.19728917 -0.28425285 0.13959217 -0.31839973 0.36515498 0.09289797 0.14103694 -0.1536603 -0.4619722 -0.6776051 0.059275974 -0.33865914 -0.118542455 0.5238198 0.4175638 0.025625259 -0.15116087 0.43577018 0.41793588 -0.2227941 0.251515 -0.100791 -0.81160396 -0.81980634 -0.23947845 -0.38911673 -0.3851938 -0.27439886 -0.737042 -0.7630509 -0.5338268 0.21306692 0.2620363 -0.56637365 0.6808896 0.086810544 -0.45744258 -0.34067333 0.33058214 -0.21746634 0.41915965 0.74988794 0.9883484 0.20711812 0.7207943 0.23980173 1.0757908 0.3881607 -0.47207928 0.024901027 0.19007711 -0.54609233 0.023225505 0.11611574 0.19529577
GCGAGATAAG 0.41294175 0.26924828 -0.45375124 0.056070443 -0.8456107 -0.8269549 -0.9175572 -0.21864824 -0.40611807 0.40667313 -0.2695269 0.4054622 -0.1031868 -0.14684154 0.2435326 0.113881916 0.134694 0.17395261 -0.66891146 -0.604609 -0.022913318 -0.37025946 0.12084965 0.22676435 -0.27299017 -0.3344384 0.20776685 0.69188493 0.43206483 -0.4408746 -0.15191557 1.1667837 0.08488644 -0.69212633 -0.49883464 0.18971442 -0.45861602 0.82591105 0.6945435 0.11027987 0.49746472 -0.41905883 -0.34614596 0.33077922 0.33818305 -0.32299045 -0.38892913 -0.086627506 -0.27825552 -0.19493884 -0.32338935 0.23818761 -0.45124978 0.074717306 -0.37827918 -0.35915285 -0.7154832 -0.30077118 -0.27614495 0.6793193 0.16708794 0.20473967 -0.31481707 -0.24292938 0.53849006 0.6822618 0.22279699 -1.2372923 -0.55612844 -0.17262004 -0.31101465 -0.7637365 0.5034717 -0.63683254 0.68779683 -0.9994927 -0.37223166 -0.301307 -0.13706443 0.8459726 0.5694821 0.11957628 -0.49533328 0.3751302 -0.18903838 0.90785515 0.3580849 -0.23546927 0.004278854 0.73769164 0.08953839 0.6714969 -0.12599412 -0.2869272 0.22584674 -0.06960589 -0.5506034 0.16776136 0.12359096 0.17954232
GCCGCGTGGA 0.32212695 0.4263233 -0.10496126 0.45088905 0.006714089 -0.8732821 -0.6370956 -1.0770968 -0.24006149 0.051050317 -0.44203117 0.21829247 -0.536931 -1.074706 0.10790965 -0.45792392 -0.49077117 -0.2756499 -0.36620453 0.47184175 0.01927621 0.45178217 -0.25093275 0.4454876 -0.11910387 -0.094756015 0.08096286 -0.6753747 0.030484574 -0.3426036 -0.40614766 0.9789121 -0.6254142 -0.18828976 -0.045912024 0.14542302 0.25461298 0.57479733 0.2850611 0.22866607 0.440875 -0.45008278 0.098938406 0.3163828 0.81236356 0.028145283 -0.18879452 0.37831688 -0.42769176 0.39810202 0.14257646 0.3345943 0.31329775 -0.6398073 -0.69408613 0.47902286 -0.63700175 -0.0674774 0.57119447 0.7161809 -0.1055558 0.05024843 0.048427105 -0.04686494 -0.5294693 0.29293898 0.3755559 -0.43686184 -1.2735173 -0.25001502 -0.6451339 -0.53218305 -0.12766139 -0.3365631 -0.48446736 -0.529491 0.32533088 0.4087114 -0.7935786 0.17065081 -0.15055141 0.084975876 -0.2645149 0.056408603 0.5664547 0.6188908 0.7271378 1.277908 0.42200276 0.6813013 0.41161364 0.6796925 0.16536136 -0.70070726 0.078385964 -0.22684737 -0.37221298 -0.15521829 0.13556217 -0.15217544
TCCACGCGGC 0.08534272 0.17781132 -0.71847177 -0.027611881 -0.63513935 -1.2109835 -0.29034996 -0.34387955 -0.5041668 0.42404035 -0.21908137 0.31981066 -0.2467654 -0.0803969 0.80157727 0.27309301 0.068597846 0.6153574 -0.7336559 -0.28046504 -0.29480997 -0.33500656 -0.002573095 0.32088244 -0.4831846 -0.21751729 -0.28410265 1.1458621 0.77050453 -0.6713946 -0.44981244 1.0130343 0.09075942 -0.59199107 -0.65986896 0.51707244 -0.15456173 1.3267902 0.76298344 -0.073793486 0.14402463 -0.5136216 -0.13013864 0.5091098 0.13077044 0.069863774 -0.20600344 -0.49007064 -0.79134506 -0.54110914 0.19935125 0.015537568 -0.74776757 0.21072298 -0.55195177 0.072455145 -0.37157002 0.23782471 -0.6687983 0.73391265 0.06699558 0.8917939 -0.11071797 -0.18092223 -0.3039067 0.21838875 0.34430093 -0.6021404 -0.6448051 -0.26602972 -0.2808801 -0.6721503 0.30493236 -0.74358016 0.40213183 -0.89356345 0.03635954 -0.18196273 -0.07521106 0.38718754 0.11228422 0.22449765 -0.187088 0.36245683 -0.4942435 0.48183453 0.3348011 -0.34735024 0.044579525 0.60156107 0.45430368 0.4250956 -0.48407358 -0.29090148 0.24915835 -0.068219334 -0.6600406 -0.1286527 0.110356994 0.36170185
CCGGACTGGC 0.9689568 0.5092563 -0.53464925 0.3565182 -0.23196231 0.015748478 -0.71525383 -0.9314885 -0.5837448 0.07331104 -0.50677115 0.14287618 -0.16473387 -0.63080573 -0.22136502 -0.11784894 0.39076814 -0.3415411 -0.5892431 -0.20969038 0.07510307 0.20557052 -0.20202813 0.36040354 -0.045512754 0.23294312 0.15376003 -0.08268114 -0.23772709 -0.3628509 -0.25871316 1.1660566 -0.47773275 -0.20263079 0.18140091 0.07352613 0.34586766 0.11450092 0.44012916 -0.0099776415 0.36346316 0.65321857 -0.30022883 0.34380853 1.0286444 -0.1274068 -0.021615507 0.08115616 -0.245332 0.30679774 0.32639244 -0.0846655 -0.68642145 -0.6026978 -0.7391459 -0.10253176 -0.34542772 -0.25459188 0.13491772 0.49442735 0.068371594 -0.4129545 0.13717271 0.3727484 -0.35752147 0.36930364 -0.20199083 -0.008483102 -0.94789785 -0.31395483 -0.20110941 -0.55541575 -0.524671 -1.0772179 -0.35647178 -0.9815343 0.37144533 -0.42786303 0.022235148 0.51849824 0.36205864 -0.091289975 -0.93448466 0.8086018 -0.5527829 0.97554 0.81160444 0.8784982 0.23625472 0.5049023 0.15819435 0.6577207 0.13005911 -0.5250538 -0.14389664 0.047678128 -0.2650003 -0.46121284 -0.15126058 -0.2422885
GCCAGTCCGG 0.13052568 -0.018355954 -0.2976934 0.11048103 -0.66230744 -0.62704396 -1.5308425 -0.25061443 -0.43489417 0.2809055 -0.3043184 -0.2408392 -0.34443602 -0.23371512 0.38901764 0.18249711 -0.13726199 0.617536 -0.38671604 -0.78319967 -0.2592458 -0.27687845 0.00635684 0.12241551 -0.3664163 -0.73388416 0.45665878 0.6496318 0.018597465 -0.48051694 -0.15811843 0.7140495 0.17533934 -0.45896533 -0.617901 -0.087303534 -0.18609066 0.086920574 -0.011759637 0.017019363 0.4363308 -0.36471915 -0.27062997 -0.05234793 0.40734679 -0.7310753 -0.19314109 0.10178013 -0.66149616 -0.34111965 -0.060762227 0.2332705 -0.53533316 -0.1815841 -0.101909935 -0.2782883 -0.6615456 -0.7037784 -0.5958802 0.31366414 -0.12315452 0.28849658 -0.20826292 0.009297646 0.3211046 0.9786117 -0.10439582 -0.8983896 -0.2324045 -0.53673226 -0.7468195 -1.0269095 0.31606886 -0.5802756 0.12204697 -0.6144396 0.017534861 0.34316164 -0.7296401 0.6223674 0.39148793 0.2215878 -0.9639513 0.31673834 -0.3121826 0.91487455 0.74919367 0.5080293 0.0015234891 1.0433002 0.19314705 0.8530719 0.22488165 -0.07357196 0.2865542 0.030304164 -0.3612601 0.4631178 0.5494018 0.03495676
CGGACTGGCT 0.736727 0.4697528 -0.66579545 0.4890014 -0.46397495 -0.0007207829 -0.85890245 -1.161814 -0.5295903 -0.058634154 -0.5783626 0.12727106 -0.19116174 -0.6413413 0.035535164 -0.12075732 0.18842916 -0.1854317 -0.735433 0.0067368797 0.03440224 0.39152122 -0.3300608 0.36580884 -0.075587 0.08221096 0.2195916 0.015647175 -0.4708967 -0.39692715 -0.30307418 0.97289455 -0.46287313 -0.2819069 0.20550686 0.10380886 0.2525634 0.24524155 0.48509476 -0.12749465 0.44540522 0.5241388 -0.2717633 0.438044 0.8946445 -0.48309156 0.08685335 0.1746886 -0.10249202 0.33037555 0.3410049 -0.008405008 -0.76792735 -0.5505973 -0.61795723 -0.048912786 -0.23392518 -0.16156441 0.10915656 0.48712102 0.17531423 -0.44002646 -0.019720491 0.21182734 -0.40903494 0.41710424 -0.1474807 0.13156542 -1.078959 -0.21422403 -0.32006106 -0.59896374 -0.507609 -0.8710282 -0.46665767 -0.95482886 0.3974982 -0.26597065 -0.23818333 0.6095105 0.43912727 -0.09869073 -0.9409218 0.6668052 -0.55754274 0.8032012 0.7617044 1.0331261 0.42085683 0.6281276 0.18954311 0.79251003 0.12779441 -0.5721807 0.13489893 -0.15215683 -0.11957647 -0.2648996 0.020582478 -0.09437774
AGCCAGTCCG -0.014442287 -0.056474723 -0.3274759 0.28391528 -0.5943265 -0.7626592 -1.5147647 -0.37325892 -0.4526868 0.5276577 -0.21996224 -0.15078439 -0.17785431 -0.25565323 0.29784593 0.15456155 -0.21529235 0.4886338 -0.59301525 -0.7466875 -0.24074984 -0.47957575 0.23752394 0.22347443 -0.19942743 -0.6180532 0.40506017 0.64454466 0.0071841446 -0.5182193 0.036733974 0.70362526 0.34937197 -0.4950401 -0.74112797 -0.027399147 -0.16821727 0.26246214 0.1455594 0.09054557 0.5932197 -0.19522242 -0.5081683 -0.105944484 0.28723487 -0.53617954 -0.20677444 -0.021335311 -0.7545563 -0.16325676 -0.03449165 0.119226545 -0.67704386 -0.13723226 -0.07567483 -0.30068025 -0.6743735 -0.5709384 -0.44687185 0.39495564 -0.0923948 0.37338606 -0.1690231 -0.0518615 0.37188587 1.0012866 0.13686092 -0.8150097 -0.29868057 -0.5531005 -0.7406879 -0.95717263 0.3577312 -0.65711606 0.11254523 -0.61028904 -0.027005117 0.23077647 -0.72507596 0.6759634 0.37816232 0.17202362 -0.8835272 0.23614652 -0.46895006 0.9197426 0.8412542 0.41796124 0.14436589 0.71167815 0.22573552 0.73988545 0.10373915 -0.04565235 0.3407816 0.0021649117 -0.525366 0.4088256 0.6499904 0.18306674
CCGCGTGGAC 0.33006307 0.39444008 -0.020410666 0.5158856 -0.11228428 -0.8657696 -0.65160346 -0.99348557 -0.1827188 0.07332281 -0.2450378 0.29525834 -0.8956416 -1.0171549 0.04933756 -0.44733813 -0.36662772 -0.42967016 -0.37549922 0.35629717 0.12468938 0.4240456 -0.2998359 0.48595732 -0.008107587 -0.36172253 0.10414621 -0.675462 -0.05343381 -0.27600268 -0.46206486 0.64369994 -0.44086754 -0.21981896 -0.23851186 0.28453833 0.23172797 0.5527157 0.2633886 0.16878365 0.45344856 -0.44992623 0.2722567 0.091111146 0.63150173 -0.067124985 -0.12823667 0.23419851 -0.46421337 0.53270066 0.13384514 0.41728127 0.33933574 -0.6782818 -0.45976475 0.5827628 -0.5321287 -0.0665183 0.5229989 0.6570978 0.002107247 -0.034737095 -0.079268284 -0.20582125 -0.4176453 0.24142538 0.0836444 -0.60807776 -1.3663174 -0.2371341 -0.77849674 -0.6156177 -0.10091088 -0.26439685 -0.72025484 -0.578626 0.25930762 0.33190617 -0.65717274 0.11193605 -0.12422867 0.1467869 -0.275135 0.31642187 0.6138453 0.6593239 0.3052042 1.2124035 0.5607931 0.45627904 0.52911156 0.725963 0.16195828 -0.6708226 -0.063054554 -0.11643276 -0.37662405 -0.14815651 0.22696659 -0.4750802
GTCCACGCGG 0.029219631 0.14058827 -0.52881974 0.036401644 -0.51970106 -1.296852 -0.40081245 -0.33162636 -0.49403656 0.41880065 -0.3275197 0.2907415 -0.4648089 -0.25201344 0.40275964 0.15393001 0.045826618 0.71996266 -0.794172 -0.29011372 -0.018954434 -0.25532335 -0.020009294 0.46368092 -0.4936147 -0.39314392 -0.14228721 1.1441629 0.8464703 -0.76115733 -0.30082467 0.79352117 0.38689974 -0.6225161 -0.63598967 0.7325784 0.007936533 1.088152 0.53943336 0.10454336 0.17545196 -0.56910807 -0.2018852 0.6583908 0.06354578 -0.082001194 -0.3139858 -0.63065785 -0.84732354 -0.4683297 0.08233393 0.12296126 -0.38945824 0.102589644 -0.28840172 0.14046559 -0.5534054 0.33094713 -0.56998056 0.6664528 -0.01669422 1.047938 -0.026931718 -0.16146581 -0.058898 0.20040156 0.06600003 -1.0309273 -0.318267 0.019666506 -0.10439663 -0.70312077 0.26349112 -0.74253833 0.3147322 -1.0002615 -0.005843907 0.06349545 -0.10702699 0.58753127 0.0025427765 0.2342155 -0.11458335 0.4076516 -0.31291115 0.3278962 0.072740465 -0.34903082 0.1388423 0.6586923 0.38080475 0.39132875 -0.3356101 -0.3984739 0.24393587 0.015661838 -0.6280999 0.03631323 -0.0148842195 0.13038336
GGGACCCGGA 0.86497813 0.68243766 -0.18185213 0.17390643 0.18449928 0.3198624 -1.2259084 -0.81671077 -0.93477285 0.21915045 -0.22856867 0.17587942 -0.21618348 -0.41957504 -0.14275265 -0.26662627 0.4668448 -0.39240667 -0.56223476 -0.08278158 0.05340721 0.2493365 0.09942032 0.6145352 -0.4512794 0.41805705 0.071939655 0.3296965 -0.3268133 -0.36381137 0.076000445 1.1403512 -0.622229 -0.48634917 0.11223412 0.15540236 0.0068525095 0.41299546 0.2799841 -0.33861253 0.08243939 0.50042516 -0.12994744 0.20501134 0.6064564 -0.26476777 0.21346225 0.073580734 0.046466008 0.2027632 -0.05984109 -0.17883058 -0.73614883 -0.15453383 -0.7894998 -0.083574116 -0.07055535 -0.34280732 0.23462985 0.15063739 0.51690364 -0.66375905 0.43590662 -0.09237214 -0.30050406 0.5638063 -0.34754547 -0.09612202 -0.8981246 -0.19248278 -0.4081086 -0.45210645 -0.35433897 -1.0329126 -0.36658648 -0.86676174 0.23090702 -0.34955016 -0.084472224 0.31895334 0.32593286 -0.08781311 -0.88084173 0.8998409 -0.4497137 0.8700943 0.7113081 0.91360754 0.3617404 0.6558683 -0.15781605 0.57855713 0.49954888 -0.20850897 -0.018089863 0.04416871 -0.34762308 -0.20750788 -0.2659891 -0.23091374
